
//<![CDATA[

// a few things don't have var in front of them - they update already existing variables the game needs
lanesSide = 3;
patchesAhead = 2;
patchesBehind = 2;
trainIterations = 10000;

// the number of other autonomous vehicles controlled by your network
otherAgents = 6; // max of 10

var num_inputs = (lanesSide * 2 + 1) * (patchesAhead + patchesBehind);
var num_actions = 5;
var temporal_window = 3;
var network_size = num_inputs * temporal_window + num_actions * temporal_window + num_inputs;

// DON'T CHANGE
var layer_defs = [];
    layer_defs.push({
    type: 'input',
    out_sx: 1,
    out_sy: 1,
    out_depth: network_size
});

// CHANGE
layer_defs.push({
    type: 'fc',
    num_neurons: 25,
    activation: 'relu'
});

// DON'T CHANGE
layer_defs.push({
    type: 'regression',
    num_neurons: num_actions
});

var tdtrainer_options = {
    learning_rate: 0.001,
    momentum: 0.0,
    batch_size: 64,
    l2_decay: 0.01
};

var opt = {};
opt.temporal_window = temporal_window;
opt.experience_size = 3000;
opt.start_learn_threshold = 500;
opt.gamma = 0.7;
opt.learning_steps_total = 10000;
opt.learning_steps_burnin = 1000;
opt.epsilon_min = 0.0;
opt.epsilon_test_time = 0.0;
opt.layer_defs = layer_defs;
opt.tdtrainer_options = tdtrainer_options;

brain = new deepqlearn.Brain(num_inputs, num_actions, opt);

learn = function (state, lastReward) {
brain.backward(lastReward);
var action = brain.forward(state);

draw_net();
draw_stats();

return action;
}

//]]>

/*###########*/
if (brain) {
brain.value_net.fromJSON({"layers":[{"out_depth":127,"out_sx":1,"out_sy":1,"layer_type":"input"},{"out_depth":25,"out_sx":1,"out_sy":1,"layer_type":"fc","num_inputs":127,"l1_decay_mul":0,"l2_decay_mul":1,"filters":[{"sx":1,"sy":1,"depth":127,"w":{"0":0.22623324539750256,"1":0.084755794392925,"2":-0.0036971653111104023,"3":-0.041026876136147944,"4":0.023132916278742227,"5":-0.05623241023815277,"6":-0.14022230322486226,"7":0.09899815455634232,"8":-0.01104864461703574,"9":-0.12883416189184696,"10":-0.06543289245815122,"11":-0.03396380129810524,"12":0.012591901271016311,"13":-0.0680208442540028,"14":0.04081926531826319,"15":-0.03540207906731064,"16":-0.06879027058855017,"17":0.11204062579707698,"18":-0.09771070636678494,"19":-0.1600097559867716,"20":-0.009525541601433828,"21":0.04345699643067638,"22":-0.01487256769043837,"23":-0.11171809680558487,"24":0.011053621127838262,"25":-0.013885068100675612,"26":0.04738598341673665,"27":0.030268984699612582,"28":-0.004465405639851763,"29":-0.03529271972559795,"30":0.0031173849613489444,"31":-0.003087700484527075,"32":0.07308116305386166,"33":0.17133616857799672,"34":-0.08877960121608204,"35":-0.0008569799434552057,"36":0.03583597100619209,"37":0.09038479215599766,"38":0.025997998201669027,"39":-0.031277286841823536,"40":-0.03248383027477227,"41":-0.0013753939314223042,"42":0.0014983403208157814,"43":0.0643719405324851,"44":-0.21002568632354565,"45":0.07741378013310868,"46":0.055178849644490525,"47":0.07708538191260284,"48":0.10057640435475515,"49":0.0973090319463242,"50":-0.08445191431115442,"51":-0.060820857768188887,"52":-0.004981229189099754,"53":0.01547994546986372,"54":0.004783803669982046,"55":-0.13168138301519677,"56":0.0663311204742399,"57":0.004636306074671247,"58":-0.11337018248141963,"59":-0.07938755427882833,"60":-0.020295155721508133,"61":-0.08601101872766313,"62":-0.094031848581539,"63":-0.08391875530543803,"64":0.11464178554629996,"65":-0.06852717687165262,"66":0.28258996509331746,"67":-0.058477602089087866,"68":0.07321296753888201,"69":0.07189470719107773,"70":0.09814582007561302,"71":-0.05091332836562332,"72":0.08680622175537037,"73":-0.013121728755371223,"74":-0.04434333162540613,"75":-0.07699160473153904,"76":0.06268775816870756,"77":0.17993096225543406,"78":0.013924556183587195,"79":-0.042821381387580376,"80":-0.032312453339546084,"81":-0.06281636853204371,"82":-0.06140402730465805,"83":0.048628311493888764,"84":0.059878790730363986,"85":0.03327627937650693,"86":0.053936666679310005,"87":-0.10680477411311329,"88":0.047986235189171264,"89":-0.06062875708301636,"90":-0.03430610333070721,"91":0.018871888001130408,"92":-0.013355909350115807,"93":0.04707192336779687,"94":0.06416052675290301,"95":0.14549082184326817,"96":0.0360987977181417,"97":0.08771806475518494,"98":-0.08476638034850387,"99":-0.023860989210561956,"100":-0.18797505809435272,"101":-0.03815004429146646,"102":-0.18534244750593412,"103":0.05935939066060218,"104":-0.10712337652119133,"105":-0.032263555811943116,"106":0.006439823919585072,"107":-0.06341237021650277,"108":0.22650620063953086,"109":-0.09190639907800768,"110":0.032897118874437324,"111":0.021614165568632996,"112":-0.014730813861111927,"113":0.030894805974501918,"114":0.011702447985060966,"115":0.02582882073919984,"116":-0.10332237854300848,"117":-0.07258823324330319,"118":-0.05120506816080768,"119":-0.08400771984154382,"120":0.08935199196369284,"121":0.06516216808856706,"122":-0.10008387559549782,"123":-0.014840613455114667,"124":-0.032247432533433755,"125":-0.04661270563821698,"126":-0.029387178093567206}},{"sx":1,"sy":1,"depth":127,"w":{"0":0.0684571690218468,"1":-0.028831292150989465,"2":0.09509349073045836,"3":0.05772987125301516,"4":0.11197988328277386,"5":-0.0004736696976307383,"6":-0.043094311085451566,"7":-0.13124696609977735,"8":-0.06380350773222866,"9":0.008322177703579951,"10":-0.07207578293983044,"11":0.13368324192171918,"12":0.07602467290314018,"13":-0.02498594095193336,"14":-0.08344592933768123,"15":-0.06671114578556736,"16":-0.009286588219518698,"17":0.12872655122370644,"18":0.08583195854755615,"19":0.06108975784216298,"20":-0.06192093562007265,"21":-0.010871997904793087,"22":-0.08676581897609593,"23":0.01729448856292757,"24":0.060286246631542674,"25":-0.026578005432478388,"26":-0.008551649586226737,"27":0.06419686134880043,"28":0.04988196503766334,"29":-0.10055224731152886,"30":0.06117487786315235,"31":0.042425630086328686,"32":0.04757337945849181,"33":-0.048592880115902896,"34":0.017864154311787464,"35":0.08416450931302201,"36":0.04421606917893068,"37":0.032263901652679915,"38":0.1199731436617036,"39":-0.06153937085722712,"40":-0.010316272368140016,"41":0.009848677091290538,"42":-0.07462365053530962,"43":0.06874778383372034,"44":0.13402921009665814,"45":-0.04238524239304504,"46":0.1352215973152692,"47":0.11164579613843992,"48":-0.1209265932584119,"49":0.01767395704412008,"50":-0.08090272011868811,"51":-0.0402503693333224,"52":0.06123621022763621,"53":0.02402502524554576,"54":-0.021305021509539813,"55":0.01671118029584043,"56":-0.11228902256369323,"57":0.13414027701400663,"58":0.05483653281218169,"59":0.006018475998362256,"60":0.024236083782605302,"61":-0.02088246024523012,"62":-0.10336625965478798,"63":0.1457397357741028,"64":-0.019831518232163357,"65":-0.05470832017994808,"66":-0.02311073438045719,"67":0.015402551981221365,"68":0.0525854117167181,"69":-0.0687771398581339,"70":0.23940727152524768,"71":-0.2017106306486622,"72":0.05316904820977535,"73":0.058105717324363496,"74":0.011054286566460876,"75":-0.049962637702514474,"76":-0.03270914422131939,"77":0.0807209902716766,"78":0.02911843436459757,"79":-0.016083682615142224,"80":-0.16546253548678055,"81":-0.1233477594430509,"82":-0.01023116578080297,"83":-0.05989436178110934,"84":0.022655805876462192,"85":-0.00937582706283792,"86":0.08267579419939391,"87":-0.041043328906643514,"88":0.1198642891625291,"89":-0.012997015921372042,"90":0.1338894685583918,"91":0.19397125608266277,"92":-0.03116736688841192,"93":0.10476029497328389,"94":0.07279450642607495,"95":0.10664030475910076,"96":0.1234486115945898,"97":0.013722755834561349,"98":-0.18343216734335202,"99":-0.01479069593528817,"100":0.09684661115372474,"101":0.1325222311648168,"102":-0.012423748241731187,"103":0.037178074074741364,"104":-0.07240832906356298,"105":0.020574349656544342,"106":0.02379512742696546,"107":0.08183134014338417,"108":0.10454549789067144,"109":0.07762120746292438,"110":0.056175431022457964,"111":0.04103259097259711,"112":-0.007334854828220878,"113":-0.025236284954343983,"114":-0.15084455915059097,"115":0.09675725981685256,"116":0.1769059655979426,"117":0.028544343483393138,"118":-0.10159683199636958,"119":0.054889108090308,"120":-0.08152789336101668,"121":-0.07385021010511898,"122":-0.014500596968418563,"123":0.14231097095825956,"124":-0.057832928261679926,"125":0.02181070269341408,"126":0.008720367590967015}},{"sx":1,"sy":1,"depth":127,"w":{"0":0.07229905009916585,"1":0.1950499311398313,"2":0.1384260620441378,"3":-0.009396276981096645,"4":0.15309772655461065,"5":0.0017596657815975572,"6":0.010078853667498042,"7":-0.002477156931126911,"8":-0.056401577106307096,"9":-0.09174123991178736,"10":-0.047890696898580366,"11":0.0489659921879204,"12":-0.0732816434818171,"13":-0.03744267215350294,"14":-0.13259758621338877,"15":0.08970774075964046,"16":-0.04685537248555242,"17":0.029103826696524344,"18":-0.012086020796825676,"19":-0.014994525848934083,"20":0.0592500277248244,"21":0.05618546112501399,"22":0.031788146578016145,"23":-0.031691307565204614,"24":-0.0728785051819332,"25":0.18212975711015594,"26":-0.022361188000271752,"27":0.03673358251010586,"28":0.030948503368468088,"29":-0.059054246104177345,"30":0.07556346497341543,"31":0.17375917495737173,"32":-0.018378627057825506,"33":0.014325747289589219,"34":0.02641588373638866,"35":0.19277601163789032,"36":0.08759180102104244,"37":-0.02224016395865518,"38":-0.07022893677217781,"39":0.055680229732893015,"40":0.043764759922286234,"41":0.0005644045970624093,"42":0.10383966785174385,"43":0.1815197235337919,"44":0.01165148754416908,"45":0.1418749386741166,"46":0.04642187462718305,"47":-0.07393779096106189,"48":0.012773548893938764,"49":-0.06534859583104312,"50":-0.02895341256191664,"51":0.09213827029505461,"52":-0.06111929567760063,"53":-0.037579977227336366,"54":0.008652413455535855,"55":-0.010778830025184392,"56":0.05733806031545365,"57":-0.03159045427776862,"58":0.10456532507402651,"59":0.021033067566436865,"60":0.12683642203156983,"61":-0.011755927839286813,"62":0.13912856649395355,"63":-0.08947577248458238,"64":0.17123274229243585,"65":-0.0031952772246336223,"66":-0.0810479125994143,"67":0.021920748874984824,"68":-0.16741361978585473,"69":-0.05537224327425283,"70":-0.1029647334023654,"71":0.050991130662485486,"72":0.00782195393791642,"73":0.08032799930938246,"74":0.14855074592639578,"75":0.007789580296806511,"76":0.016183942529544817,"77":-0.10036055499179641,"78":-0.13161514735677285,"79":0.09768622560059559,"80":0.021688573440258093,"81":-0.18556684692764722,"82":0.09477593557772607,"83":0.14025224489893648,"84":0.011957701074494911,"85":0.16468278634717734,"86":-0.043375751623542846,"87":0.050937726075522646,"88":0.11371122950278563,"89":0.02357383232090229,"90":0.04505897058683447,"91":0.038673204673454746,"92":-0.005848584127837703,"93":0.0410320377291104,"94":-0.13300379250520689,"95":0.0024572566399865686,"96":0.14257608589615897,"97":0.13284464400193288,"98":-0.018471599801881868,"99":0.14077859004640064,"100":-0.02203462611221225,"101":0.20704472592690978,"102":-0.003259073282513641,"103":0.017928767718754044,"104":-0.17360346972380672,"105":0.020119595630957575,"106":0.12932693093299333,"107":-0.077068098953173,"108":-0.03046680827013478,"109":0.012014963084028375,"110":0.0832470313723961,"111":0.09440633519513836,"112":-0.04382071333176488,"113":0.028403088891914247,"114":-0.07201141969757989,"115":-0.1011308775201728,"116":-0.09330439918294677,"117":-0.044808462383223634,"118":-0.10589802880593693,"119":0.08088130830418429,"120":-0.0040521228304428196,"121":-0.10641104922884655,"122":0.09435121995147523,"123":0.011778706806293785,"124":-0.07480183603622245,"125":0.12878063583266347,"126":0.05686535870433867}},{"sx":1,"sy":1,"depth":127,"w":{"0":0.05167483516888657,"1":0.20937015929478847,"2":0.0393920378111747,"3":0.03334971702847386,"4":0.11866499606811319,"5":0.01924481503500585,"6":0.04877742834389324,"7":0.04708260005311433,"8":0.10198813358594751,"9":0.19431017773786874,"10":0.15517228372428624,"11":0.15208445182255462,"12":0.11771163133399874,"13":0.17722911219064189,"14":0.08516763866214343,"15":-0.08153188358329354,"16":-0.02915383394621802,"17":0.10935821635785484,"18":0.039185579742788766,"19":0.23668375541700487,"20":0.09045768329470988,"21":0.002594631631233255,"22":0.23295799749147877,"23":-0.054739778257921465,"24":-0.039659115278664725,"25":0.113903354919581,"26":0.09832854129374156,"27":-0.029394296357664572,"28":0.001997771878199448,"29":-0.08609586602475117,"30":0.227724914038485,"31":0.10572016130275912,"32":-0.06855325361004465,"33":0.14717139849970295,"34":0.07738868192339078,"35":0.09839043776588102,"36":0.03507826518716715,"37":0.028919469340017576,"38":0.0024526207855406082,"39":0.17398910065000037,"40":-0.05420930999732658,"41":0.11946497612270741,"42":0.023774639604673065,"43":0.03180969805504643,"44":0.14732590966957426,"45":-0.06201554585843114,"46":0.06969155002583695,"47":0.12220096980340421,"48":0.07709015729400191,"49":-0.11477387841606253,"50":0.11502101136507112,"51":0.119521841602856,"52":0.10020742758762792,"53":0.10225031082073456,"54":0.04993950873161934,"55":0.06169477014748811,"56":0.07832113843212045,"57":0.04484808966384407,"58":-0.015564360047765903,"59":0.06573369932159093,"60":0.10469924989493143,"61":-0.018533286635136672,"62":0.17042774676530834,"63":0.11741960275472149,"64":0.11143276417086542,"65":-0.0846172866420507,"66":0.1492691317240977,"67":0.10202879411772654,"68":0.14800422939953597,"69":0.06673460127955405,"70":0.16815381116355316,"71":-0.008350305375580904,"72":0.02611404022240248,"73":-0.0586437395619696,"74":-0.007394092979480658,"75":-0.10259423348935548,"76":-0.07667502103108292,"77":-0.0330317815496728,"78":0.07830176184406037,"79":0.11468195427091807,"80":-0.10479999833565252,"81":-0.04893037480031533,"82":-0.06868911542076012,"83":0.0638101883732159,"84":0.13567585482501532,"85":0.24947431519979812,"86":0.04283104506986661,"87":-0.03161323260197939,"88":0.04263784933451301,"89":0.08804576162521839,"90":0.0895897239753679,"91":0.03951927857598025,"92":-0.0413557538527677,"93":0.08446143608837983,"94":0.013844576126689488,"95":0.0019041007805482302,"96":0.0036806004360812306,"97":-0.018788242227105293,"98":0.202002006066137,"99":0.036650662498845174,"100":0.03578622801697544,"101":-0.0019194855505976266,"102":-0.07149101148921698,"103":0.0166458698022738,"104":-0.17246189014375704,"105":-0.04207898379060266,"106":0.08791292416793822,"107":0.15351293660546084,"108":0.07114434055475108,"109":0.044100809020268444,"110":0.08465033935422549,"111":-0.056551287477147265,"112":-0.004036319701312455,"113":0.13398817772865,"114":0.16392546755335052,"115":-0.1389954536238268,"116":0.004648878289616055,"117":0.026450486666690348,"118":-0.06732610386109267,"119":0.22235352846083345,"120":0.13967137843588218,"121":0.07135345752429156,"122":-0.02371690604320458,"123":-0.12169921236915737,"124":-0.052898569038726605,"125":-0.0170149437736684,"126":0.02640315024059563}},{"sx":1,"sy":1,"depth":127,"w":{"0":-0.09389640881758383,"1":-0.048321527328583115,"2":-0.031395263361152545,"3":-0.06448175621962672,"4":-0.012719708889909887,"5":0.09484648362667235,"6":0.12836142636538725,"7":-0.01906948797149582,"8":-0.19862124066265063,"9":0.009400138999323526,"10":-0.0776257850445133,"11":0.017472828407158317,"12":0.024366647973392497,"13":-0.09803039034020027,"14":0.06893935366864601,"15":-0.05130974634497973,"16":-0.18751801844364127,"17":0.026916217607445166,"18":0.2714321133252718,"19":-0.08684674708222691,"20":-0.02093076058425832,"21":0.008561678109112977,"22":-0.07492590525928128,"23":-0.039876753179800765,"24":-0.00726161973486714,"25":0.07947709730625825,"26":-0.017963714407875357,"27":0.10815979488198496,"28":-0.06749514830651489,"29":-0.19368650404744928,"30":-0.16978704267395356,"31":0.021472179326890866,"32":-0.07608941800198118,"33":-0.163536831883778,"34":0.011992070230160738,"35":0.08722124969500664,"36":-0.046955415087667,"37":0.0612505787698898,"38":0.023463881749310085,"39":0.002608449870639848,"40":0.013092796353149926,"41":-0.015667910691729126,"42":0.08284479434484708,"43":0.05586684722375933,"44":-0.041181326611785196,"45":0.032512865092569114,"46":-0.14852232942641397,"47":-0.20552434326065905,"48":-0.10512115676230539,"49":0.06875463008891589,"50":0.06812874298493123,"51":0.14609029949963298,"52":0.04214783213139839,"53":-0.02271226580952325,"54":0.02961682807817224,"55":0.009972870590360432,"56":0.03400856175035826,"57":0.06914438673561354,"58":-0.04338038675924186,"59":-0.13454651245500704,"60":0.051480900807445336,"61":-0.015232246620425324,"62":0.06502458194107397,"63":0.06395731210047823,"64":0.05607563432898277,"65":0.024299496898102065,"66":-0.0001777375686310674,"67":-0.0003539543078133827,"68":0.13331124707898998,"69":-0.003792571518198545,"70":0.04393685874678423,"71":0.026253196176823097,"72":0.0109159528252493,"73":-0.013548773250771596,"74":0.10824455744867231,"75":0.07287190296298886,"76":-0.06760832518537638,"77":-0.05554605484387494,"78":-0.10605235804140124,"79":0.12322120048724042,"80":0.04012628692449567,"81":0.006144681069462932,"82":-0.17846615385124603,"83":0.16283174659442617,"84":-0.06201757905549175,"85":-0.010991851844980511,"86":-0.10422608471559797,"87":0.07319831713876998,"88":0.07023318757229338,"89":-0.017259307238896217,"90":-0.04773351178282125,"91":-0.059800356529251426,"92":-0.042402158400135434,"93":-0.039858252324289835,"94":-0.029892681742396912,"95":0.03205610367803957,"96":0.07809815678360428,"97":-0.017641805433751614,"98":-0.11577235386421991,"99":-0.013403943924795185,"100":0.005354468258291969,"101":-0.024162052333591155,"102":-0.004492282550714049,"103":-0.007527326462287023,"104":-0.09623605967198684,"105":0.10104070845483265,"106":-0.04994331560341323,"107":0.012571903714687482,"108":0.011995029457742246,"109":0.013122401683978194,"110":-0.05698032332794116,"111":0.024966231142775377,"112":0.03776016799335261,"113":-0.07250097578463349,"114":0.04669444165387575,"115":0.0975332744194924,"116":0.009394562391296504,"117":-0.030931766666100192,"118":0.10438737342158123,"119":-0.06775383352518342,"120":0.10951797268493388,"121":0.06255836981948357,"122":-0.18838936044490426,"123":-0.06834938567703316,"124":0.05011933275415808,"125":0.07256754903967985,"126":0.08297466725508237}},{"sx":1,"sy":1,"depth":127,"w":{"0":0.07745071497255893,"1":0.027308684213125285,"2":-0.05745107731331628,"3":0.141471447506752,"4":-0.012875307611872255,"5":-0.10354815329442825,"6":-0.05132313684801552,"7":0.14088057980573862,"8":-0.11128292832971153,"9":0.05753865974420374,"10":-0.014857392607932483,"11":-0.19259041820521422,"12":-0.18271218413370027,"13":-0.09128895799251295,"14":0.06593134353689294,"15":0.09999865715027884,"16":0.16541071921135123,"17":0.015013525894142277,"18":0.05874881038251099,"19":0.00037780371146020126,"20":0.08988442587048158,"21":-0.01686380946700542,"22":0.02635903497226098,"23":-0.07985613110862382,"24":-0.13399462034104095,"25":0.05667040830307914,"26":0.0607879452283809,"27":-0.004663234099540315,"28":0.17557683998744847,"29":0.0788836699545548,"30":-0.10563781760630467,"31":-0.03262906033738633,"32":-0.04529120888118129,"33":0.11757525728029627,"34":0.05319321041524267,"35":0.04913342540470857,"36":-0.02725341242220727,"37":-0.08166089247369576,"38":0.1406800089959726,"39":0.013082774069638948,"40":-0.1173072210933737,"41":0.029085863437888604,"42":0.012409503143183686,"43":0.041234029288178535,"44":0.017230436946438343,"45":0.08244754361958553,"46":-0.06040502444150506,"47":0.08572173965088618,"48":-0.04333321396328499,"49":0.16482551378381483,"50":-0.04812339908479687,"51":0.09316588410979594,"52":-0.05761966516179147,"53":-0.034131794689750944,"54":0.003956679412260619,"55":-0.07787796623404913,"56":0.04312907605496406,"57":0.06810044168682376,"58":-0.02639783363372278,"59":-0.12894597563096066,"60":0.08486969188757496,"61":-0.017296610517501934,"62":-0.009486740060897496,"63":-0.008306406975101599,"64":-0.025972644938957817,"65":-0.0069879328265598315,"66":0.07711148568048443,"67":0.00032207202882649096,"68":0.03848186364389554,"69":-0.13252848500354736,"70":-0.08694418526144818,"71":0.03804090504625072,"72":-0.007750340958712148,"73":0.08281912935713663,"74":-0.06804629614464096,"75":-0.08675122425359391,"76":0.1201799856140922,"77":-0.049166618418338984,"78":-0.022738985091763905,"79":0.1034345321539883,"80":-0.008437742400142932,"81":0.13357551493161315,"82":-0.07140399175889686,"83":0.04650047957992343,"84":0.06860266566325865,"85":-0.0609995334752552,"86":-0.15350206567797423,"87":0.20994376600400722,"88":0.06597081711316885,"89":-0.09482172472651644,"90":-0.07009661326811714,"91":-0.11992290828089185,"92":-0.09840411137443542,"93":0.07161227521970825,"94":0.06216924846750085,"95":-0.06641161468918574,"96":-0.05385283356289614,"97":0.08104743482728198,"98":0.08417497356106957,"99":-0.07423472881198774,"100":0.04987835099228972,"101":-0.04118507216618738,"102":0.14956391039175818,"103":0.023874631717070327,"104":-0.1171421830115669,"105":-0.07130996335505177,"106":0.11309116597037723,"107":0.06471635447660264,"108":0.07419302485840687,"109":0.03855997663632309,"110":0.06729290813930999,"111":0.004993439103748913,"112":-0.13077534329739468,"113":-0.006856012151994885,"114":-0.19486999891309129,"115":0.0626587340521033,"116":0.010568741185765456,"117":0.02887830763297759,"118":0.008867358068953512,"119":-0.054158383253843076,"120":0.13239718847611923,"121":-0.19680974389330813,"122":-0.1252113235764299,"123":-0.11347572132194667,"124":-0.10836769271501251,"125":0.0779896824076545,"126":0.041909108419726004}},{"sx":1,"sy":1,"depth":127,"w":{"0":0.0876972399735577,"1":0.034834457906292374,"2":0.1229975353345032,"3":-0.024948203593721834,"4":0.14830202072199883,"5":0.02808179148176388,"6":0.0440419067121045,"7":0.04086193296749129,"8":0.1214735707574768,"9":-0.00011111243196303758,"10":0.13209492837493214,"11":0.0159823355861666,"12":-0.08354104310424948,"13":0.03047164939558689,"14":0.04596281130281852,"15":0.008740074879939021,"16":-0.07563288504575764,"17":-0.15662427312333463,"18":0.027700535029899723,"19":0.016540816350397104,"20":-0.0261540645345707,"21":0.018167790392486217,"22":-0.0066893115896398065,"23":0.23150647543037706,"24":-0.035197851652898,"25":0.09425714311449095,"26":0.023130743211279173,"27":-0.07076957994660142,"28":-0.05989773193304486,"29":0.01070227568516991,"30":0.1464959674197233,"31":0.005746878599274068,"32":-0.09732094275407083,"33":0.13391252403375978,"34":0.10724810256150821,"35":-0.03569963382993773,"36":-0.19045689993605203,"37":0.010331583833100424,"38":-0.020559345818802442,"39":-0.011085996931315286,"40":-0.035972010638414695,"41":-0.030609222908815556,"42":0.11212769702231903,"43":0.007952896140941072,"44":0.09880653634595896,"45":-0.021403261546213467,"46":0.014389090420179046,"47":0.03222660582356333,"48":0.11628679876245676,"49":0.097105227066023,"50":-0.11899925077848372,"51":-0.07778063128956343,"52":-0.08374576527209841,"53":0.05611136774669214,"54":0.10858522001665925,"55":0.09079793016171057,"56":-0.03535249766433192,"57":-0.05802743296870699,"58":0.05174476048388559,"59":-0.019357012024741556,"60":-0.02155146863741992,"61":0.02228674970105658,"62":0.07267968762606548,"63":0.09029942068004192,"64":0.028300585654671417,"65":0.049772467673312164,"66":0.04756746371098993,"67":-0.06624103349197316,"68":0.12984020024531223,"69":0.09225165914919442,"70":0.09804502685862576,"71":0.04078758870751915,"72":0.1606419514528107,"73":-0.2458533063371352,"74":0.28645591119860486,"75":0.10230717467284917,"76":0.09083679148359611,"77":-0.03681891914419113,"78":-0.040031542393115155,"79":-0.006771658925983495,"80":0.0038994695303233937,"81":-0.22481636540845815,"82":-0.13755909104502068,"83":0.04141946577546489,"84":-0.0067970429257535325,"85":0.05175974723797206,"86":0.13962143743432695,"87":0.0811704379725398,"88":-0.1164278998697172,"89":0.06257695499706653,"90":0.05692937552756508,"91":-0.007134731724222569,"92":0.0392881815404651,"93":0.03507410559492952,"94":0.006026325516394872,"95":0.09499867988875489,"96":0.011328649296734205,"97":-0.04244588267176149,"98":0.06285569643852724,"99":0.04838595923663069,"100":-0.0608730018274927,"101":-0.0035916611806214123,"102":0.06053927602305182,"103":0.08593224832497655,"104":0.06682569418586137,"105":-0.009613004003717649,"106":0.050775742444068475,"107":0.04196645706507555,"108":0.029836914663542782,"109":-0.09064952105509659,"110":0.012481004486883109,"111":0.1348540582085132,"112":0.06735055242649768,"113":-0.07476609869967711,"114":-0.05109599110001224,"115":0.03605301309446228,"116":0.00713265987397911,"117":0.11948952257286767,"118":-0.029072109300438468,"119":0.03151684711272148,"120":-0.11300880419625951,"121":-0.08613870499027707,"122":0.08263383910043748,"123":0.02303439328586586,"124":-0.12334637223766558,"125":0.09933505134027736,"126":0.035223424034757984}},{"sx":1,"sy":1,"depth":127,"w":{"0":-0.0024914853447109675,"1":0.1151682564112336,"2":-0.10610639951089512,"3":0.0028105029894389204,"4":-0.029895521089254407,"5":0.0749801226054257,"6":0.07979549480304261,"7":0.071714068669775,"8":-0.11176006755127547,"9":-0.1330256098091096,"10":-0.046495347873219614,"11":0.17266245196689875,"12":0.017104693850906637,"13":-0.05865453188701433,"14":0.18292158483957227,"15":0.00039526331634408827,"16":0.13098002357442326,"17":-0.01676588800685288,"18":-0.023841670369954656,"19":0.0385013668732957,"20":-0.0766696885810805,"21":0.03948849931961548,"22":0.06462867484131911,"23":0.13342067518277054,"24":0.0811985166235838,"25":-0.04872076302364916,"26":0.04751575612573497,"27":-0.026790920146890967,"28":-0.014540261609191696,"29":0.1249039368097859,"30":-0.0343302520112965,"31":-0.09387392115228452,"32":-0.02555833609995741,"33":0.010586792702454351,"34":0.01218275274114613,"35":0.16634589061166727,"36":0.018688772961987708,"37":0.02993135868379565,"38":0.03685269361354623,"39":0.09368757411376721,"40":0.10719726234373082,"41":0.036812917458110765,"42":0.0648039683933392,"43":0.19749911033814643,"44":-0.15728750883026613,"45":0.05853699327862552,"46":-0.24014384509345038,"47":-0.06904825892515877,"48":-0.07805488407457298,"49":0.11738849208071432,"50":-0.07468418830025687,"51":-0.20337334542055482,"52":-0.0402277711242285,"53":-0.0009929347653284133,"54":-0.05003350690200768,"55":0.006712955816788769,"56":0.1531000165468367,"57":0.06409516795379382,"58":0.03891486460175671,"59":-0.02720451373412235,"60":-0.1602000175392073,"61":0.0008903659192638606,"62":0.07023451694848601,"63":0.11690874292343802,"64":0.06908957116440538,"65":-0.23811963405909067,"66":0.08874893242512114,"67":-0.08392143971242054,"68":0.029654516438038212,"69":-0.017896676262225207,"70":-0.031098857750605592,"71":0.06594288880439944,"72":0.024688734896061455,"73":0.03748192162627386,"74":0.1938679849607681,"75":-0.006894286200038206,"76":-0.08366894931172685,"77":-0.02182554252466793,"78":-0.06621669847829624,"79":-0.09547798773358387,"80":-0.12867578925763395,"81":-0.03536701884449089,"82":-0.06514336637412721,"83":0.09545527856435486,"84":0.0480517098068509,"85":-0.01809155869817186,"86":0.05262535980272745,"87":0.16448780706495814,"88":0.07892606174176084,"89":0.020275091855556364,"90":-0.07130749985411013,"91":0.026518438976309705,"92":-0.046407665136634996,"93":0.1349347150138989,"94":0.06585889268998585,"95":-0.03748098920317452,"96":0.15971996901677799,"97":0.08365921558097987,"98":0.025500646930895383,"99":0.10131725595602867,"100":0.041938271904112166,"101":-0.05413320669904819,"102":-0.08827926303339775,"103":-0.004540034492785555,"104":0.0544637974912831,"105":-0.014379210665761168,"106":0.18533394797961086,"107":-0.023274357536382132,"108":0.16918649058205756,"109":0.08130550077332031,"110":-0.0030605959978893538,"111":0.08545033509714438,"112":0.0497684952715562,"113":-0.03885125113037048,"114":-0.03729031325330202,"115":-0.08164278989380623,"116":-0.11903758060205431,"117":0.030194656383248565,"118":0.0014469578665244557,"119":-0.1581533952997622,"120":-0.13728017477598486,"121":-0.05307358300770042,"122":-0.04336529677150949,"123":-0.026067395108542012,"124":-0.027573294878941536,"125":0.03973716594006156,"126":0.030556663661348044}},{"sx":1,"sy":1,"depth":127,"w":{"0":-0.09430704422785853,"1":0.12705879854751656,"2":-0.06608537400945838,"3":0.022278613531809256,"4":-0.054512198036780014,"5":-0.04205372756806352,"6":-0.05973625454985174,"7":0.07823569688956511,"8":0.06180999150497188,"9":0.043027357947719835,"10":0.043808672100385505,"11":-0.02844698275334839,"12":-0.060433948070495326,"13":-0.007505529698951682,"14":0.11548855779410593,"15":0.03794464285253208,"16":-0.0707296548371231,"17":-0.11299107824131498,"18":0.032686592843045,"19":0.03106237738004802,"20":0.05229481583894441,"21":0.07350301255449716,"22":-0.12299006505655716,"23":-0.033421435348670654,"24":-0.10600124666085416,"25":-0.0451986437302086,"26":-0.02502849359631857,"27":-0.14141412513382687,"28":-0.16251086052421462,"29":0.0784832548788192,"30":0.22661701888717425,"31":-0.04723510658088569,"32":-0.011459562062541045,"33":-0.04235490254255852,"34":-0.07571861837123092,"35":-0.08785357119367057,"36":-0.05083514517133944,"37":-0.014942086667545273,"38":0.14503181764368656,"39":-0.05791877094997755,"40":-0.024404964149675353,"41":-0.05663516584851202,"42":-0.0022705194086438413,"43":-0.06277132430166207,"44":0.03153814194716547,"45":0.12895377830311383,"46":-0.1207086949091832,"47":0.019958015643047753,"48":0.027410368226993043,"49":-0.15698675283320856,"50":-0.09239587604922961,"51":-0.01002882693626376,"52":0.13851588830599906,"53":0.00806356489636388,"54":0.05993162038529836,"55":-0.09932325241865542,"56":-0.05483394239557321,"57":-0.11743324746295579,"58":-0.02271334581278389,"59":-0.04844721283372635,"60":-0.05076917297647658,"61":0.0713157226024443,"62":-0.1560492953566547,"63":-0.08552421207879624,"64":0.05409559060689701,"65":-0.18096862403209016,"66":-0.1257886664079763,"67":-0.13791721713491112,"68":0.0835999740773543,"69":0.01772030328149534,"70":-0.06143566896571217,"71":0.05151094681474293,"72":0.010137105875030873,"73":-0.06789689107674146,"74":0.038251542686997604,"75":-0.06090635035056991,"76":0.03000345206926625,"77":0.14039465746772378,"78":-0.06771264304567148,"79":-0.018806767490571058,"80":0.07026595646974387,"81":-0.01722258973845924,"82":-0.20282312535740596,"83":-0.0424074362245137,"84":0.041022168340624866,"85":0.05205034384987504,"86":-0.17770548904471736,"87":0.04626418907032655,"88":-0.033193552795450214,"89":0.02607894109916704,"90":-0.07778602258114632,"91":-0.015116704546447616,"92":0.1120417941484803,"93":-0.1534892888414786,"94":0.13469312702051414,"95":-0.05117905014395988,"96":0.010016341276900225,"97":-0.0024617161103767876,"98":0.018609049595513294,"99":-0.09856418691327484,"100":-0.00680332614753707,"101":0.008482780770701104,"102":-0.07284919224788661,"103":0.09683289212514905,"104":-0.09928799449971963,"105":-0.07152872356664096,"106":-0.15716889960374178,"107":0.14916952541640296,"108":-0.04789478932520068,"109":-0.13545204025232088,"110":-0.12304067153976637,"111":0.09233683669722509,"112":0.01426219899367085,"113":-0.08786683616969573,"114":-0.1396343168798567,"115":-0.027522795825254576,"116":-0.07108298786359184,"117":-0.03545765155485841,"118":0.010601908553212804,"119":-0.05068006917801376,"120":0.0743332385570841,"121":-0.10312237087665628,"122":-0.029758937419276897,"123":-0.0959056185357585,"124":0.1404505943288542,"125":-0.04614144305468961,"126":-0.027726724109775596}},{"sx":1,"sy":1,"depth":127,"w":{"0":0.11362918676792698,"1":0.0132172527186971,"2":0.08483114794591298,"3":-0.08082352548732727,"4":0.019561635353855758,"5":-0.04674495571453166,"6":-0.0036893349869932227,"7":-0.11143035826314414,"8":-0.022371924649150984,"9":-0.026984538693365062,"10":0.04946406207441829,"11":0.12953210982064445,"12":-0.11695008685651269,"13":-0.04135765254570258,"14":-0.023816232226583564,"15":-0.056052542841442655,"16":0.09817360819130452,"17":-0.11128174355811195,"18":0.09256660423777775,"19":-0.019525013484302592,"20":-0.09692923848774396,"21":-0.005828432829637805,"22":-0.0082461981548088,"23":-0.030888989828390858,"24":-0.031530862359937156,"25":0.2094247617064199,"26":-0.07298628015967329,"27":0.1144518184897769,"28":-0.12327218267644173,"29":0.01720761522600824,"30":-0.13448280449392375,"31":-0.09783606499028703,"32":-0.08712882828135463,"33":0.17265273040309712,"34":0.10238851830599824,"35":-0.034969465307964034,"36":-0.07424394913871034,"37":0.0772456255231623,"38":-0.02181142978902723,"39":0.028888099622760004,"40":0.02831299672153345,"41":-0.06494038893707708,"42":-0.05830794288301822,"43":0.026756528555916634,"44":-0.1331640914426296,"45":-0.07122062088100996,"46":0.020100874026874768,"47":0.14359823718765474,"48":0.14937366464164636,"49":0.1081883885974148,"50":-0.010566412035521182,"51":0.09277043297401313,"52":-0.05681337430994203,"53":-0.03589540874344487,"54":-0.13099712848657494,"55":0.004617203496047397,"56":-0.03904634267322218,"57":0.033124437030379324,"58":0.07870788336693688,"59":-0.01934812147564844,"60":0.1968048324580896,"61":-0.07190790638786136,"62":0.021770593912406065,"63":-0.04300654474904149,"64":-0.057686488339057464,"65":0.02027967033332712,"66":0.04609880829939943,"67":0.0039582076882029886,"68":0.09531161881361602,"69":0.13217418757620197,"70":-0.18062825954956696,"71":-0.043187580892654766,"72":-0.0352517108270893,"73":-0.033463445142313634,"74":0.12784411684510022,"75":0.06227943915668761,"76":-0.08985121794867519,"77":-0.002981550449753233,"78":0.06713490932865034,"79":-0.14012703876837007,"80":-0.1262463784326427,"81":0.03159817481025702,"82":0.012893210375936694,"83":0.0907883598917734,"84":0.05531031586068106,"85":0.10226067937592788,"86":-0.12873049689807084,"87":0.006963557786156406,"88":-0.039475030563249094,"89":-0.09954447662104521,"90":-0.004473616447328438,"91":0.05950274140553218,"92":-0.05156159053170071,"93":-0.030148608500025317,"94":0.09450861226135171,"95":0.046848351239532536,"96":-0.013493510857839997,"97":0.0981156307673004,"98":-0.16429135284866186,"99":0.14910274322744804,"100":-0.018608579798737496,"101":-0.07890054261292187,"102":-0.04845315901971495,"103":0.07947711528381718,"104":-0.04228048279451609,"105":-0.06525540025612436,"106":0.03967471844585216,"107":-0.030753139906690475,"108":0.0035642085391468024,"109":0.071833315612216,"110":-0.014688141604359458,"111":0.07326843588462432,"112":-0.22828825127788102,"113":-0.027645944808192886,"114":-0.0023042610741317244,"115":-0.11319320404476492,"116":-0.07585852028678396,"117":0.1578412797931308,"118":0.030504662073268,"119":0.0732839385908334,"120":0.03239242530605283,"121":0.07248982999522187,"122":-0.05815563293291544,"123":0.05788617058570323,"124":0.06804638039813844,"125":-0.10719429980670887,"126":-0.03779299465926043}},{"sx":1,"sy":1,"depth":127,"w":{"0":-0.17351821988106464,"1":0.045171138125247465,"2":0.1600448267792848,"3":-0.12826950284548408,"4":0.05694901347844779,"5":-0.18134407863420757,"6":0.01778741572850182,"7":-0.0203053974075258,"8":0.19610144605550808,"9":-0.026313102644906754,"10":-0.10502496757013913,"11":0.04670247999890673,"12":0.03420857966295997,"13":-0.2000786304577223,"14":0.008425349853011868,"15":0.16265792738505058,"16":-0.1171462457732743,"17":0.044758768868361165,"18":-0.03568493344101886,"19":-0.052588767094691194,"20":0.006019786899446029,"21":0.015990473571568384,"22":-0.06338597633073188,"23":-0.08735198627582802,"24":0.07248378893903587,"25":0.017189224344184628,"26":0.03129097771258287,"27":-0.020785577221097532,"28":0.10690845720907195,"29":-0.012738087918633139,"30":0.06972398906343999,"31":0.12424134886325959,"32":-0.08776021768733305,"33":-0.04244204299600051,"34":-0.01298442917676682,"35":-0.06410916044019802,"36":0.06801409171479998,"37":0.07225682000460444,"38":0.026807424459205836,"39":0.1857011132019479,"40":0.08131396022059448,"41":-0.16594357135540122,"42":0.08566483314885273,"43":0.07528576587119894,"44":0.11782897102101406,"45":-0.12766249739226435,"46":0.016813734197154248,"47":0.03422603971711948,"48":0.08289245872833306,"49":0.023039970207604715,"50":-0.022310082487549718,"51":-0.040845475913353795,"52":-0.004743984076003498,"53":0.022344848547099342,"54":0.012629070240611842,"55":-0.19110637195490313,"56":0.07952346417186354,"57":-0.09324913277007203,"58":0.00002478792632549437,"59":-0.08480973002830929,"60":-0.0351653345049841,"61":0.05617003541979966,"62":-0.1640116021426115,"63":0.013849794833503381,"64":-0.08347101941515302,"65":-0.056037773542450056,"66":-0.01589947425333658,"67":-0.09617042028098897,"68":0.09331227391368763,"69":-0.07803977801028987,"70":0.01034301548115117,"71":0.12387326117416257,"72":-0.10434798501526539,"73":0.08351573705315832,"74":-0.10849491839547161,"75":-0.09686621750700548,"76":-0.17842540400939882,"77":0.06352804438894852,"78":-0.009274718600804482,"79":-0.12074183932323508,"80":0.056417050516454736,"81":-0.008636534721492133,"82":0.026857881977128767,"83":0.0453934423879977,"84":-0.10208479106990373,"85":-0.047749554777454885,"86":-0.08205722252977742,"87":-0.04786023000054591,"88":-0.04339883872528555,"89":0.041172236985566296,"90":0.0038949476402058256,"91":-0.09670181732588101,"92":-0.04903449742884469,"93":-0.03883622836831325,"94":0.10803703738618245,"95":0.10887463043987583,"96":-0.04683258521167181,"97":0.02093775215326976,"98":0.08596810649801755,"99":0.061837868588471526,"100":-0.021009772904001047,"101":-0.0060421661746604145,"102":-0.055063319638730596,"103":0.0568614721627947,"104":0.05869672614592819,"105":0.08121125938114067,"106":0.09197062102111593,"107":0.029623178007306926,"108":0.020357681532203745,"109":-0.014382905154126088,"110":-0.04623075462945484,"111":-0.24523490030458922,"112":0.0983265122350639,"113":0.07911993733398917,"114":-0.03828706856019561,"115":0.12772108043325517,"116":0.11393318236646412,"117":0.1027078149928393,"118":-0.09459401103263866,"119":0.01699841174595914,"120":-0.056218586502146464,"121":0.04167901643055607,"122":0.021060453414294703,"123":-0.04218931785986321,"124":-0.08781102442801726,"125":-0.025890376855564876,"126":-0.001147427566752285}},{"sx":1,"sy":1,"depth":127,"w":{"0":0.03255263747050124,"1":0.03483147034049748,"2":0.06231569783219533,"3":0.019791037832514704,"4":0.05180984091338216,"5":-0.13111380640246673,"6":-0.033625938290264355,"7":0.06636349481535977,"8":0.006203454261258067,"9":-0.03723938085733484,"10":0.07190434241558404,"11":0.0895944485217217,"12":0.04527660567904818,"13":-0.17326114399523118,"14":-0.00808253303934733,"15":-0.04339188227089266,"16":-0.016471324985191056,"17":-0.06025253615014256,"18":0.05883050972748477,"19":0.1578228181426808,"20":-0.03589559894540816,"21":0.16171383731507463,"22":0.014208268201441943,"23":-0.07512240220393891,"24":0.07721013187911142,"25":0.14927167854292164,"26":-0.11276982860281154,"27":0.07435955178951768,"28":0.1416408869246212,"29":0.045906488499727026,"30":0.026371825452785883,"31":-0.0751896591881609,"32":0.15157520277168554,"33":-0.14625288300597558,"34":0.027358873092901786,"35":-0.02201015539177609,"36":-0.055169120420025246,"37":0.06696818118409119,"38":-0.10026019263175023,"39":0.1024667056342963,"40":-0.12694842968206552,"41":-0.03695564163259358,"42":0.03595307060145486,"43":0.01963585590537408,"44":0.17821667170924443,"45":0.12441353502680579,"46":-0.014996317083501815,"47":0.028465780777426893,"48":0.055098589996969136,"49":-0.06015613290856057,"50":0.04884173114230684,"51":-0.07600177117148335,"52":-0.10546296596199728,"53":0.15110045643962247,"54":0.10603660778390919,"55":0.018818503711185,"56":-0.011503204977443584,"57":-0.003999132427229767,"58":0.07684950111755734,"59":-0.022520686415452983,"60":0.10867337399200262,"61":0.06152658322433862,"62":0.07739754670369246,"63":-0.023181738066275038,"64":-0.014477626400464601,"65":-0.15023035412791597,"66":-0.07273168905069474,"67":-0.030202735268005983,"68":-0.04360630665773075,"69":0.06984907199293228,"70":-0.09021845200191385,"71":0.022300556025312827,"72":-0.04116762019211086,"73":0.0595387213692385,"74":-0.025884058794888646,"75":-0.07194217867617639,"76":0.06072846094764322,"77":0.06206819845595629,"78":-0.02909582530380744,"79":-0.08414302985097723,"80":0.08430218739675518,"81":0.05102393456436038,"82":-0.00974828227707446,"83":0.168136428038144,"84":-0.08467639644786024,"85":-0.07927130021567048,"86":-0.11805962082270156,"87":-0.07502358220757951,"88":-0.05019926625523884,"89":-0.13593724676207128,"90":-0.050402398890530886,"91":-0.08104140087585612,"92":-0.10294725628825806,"93":-0.051759926997465025,"94":-0.027711268430164093,"95":-0.09575900486347241,"96":-0.07943289361703405,"97":0.05357968761631883,"98":0.00785313141014587,"99":0.07671347397170485,"100":0.09215269699978922,"101":0.1259632516661159,"102":0.03981978240509902,"103":0.006403571450255359,"104":-0.07569459344052332,"105":0.09201463783117655,"106":0.07101038948783431,"107":-0.02626147357041358,"108":-0.11060029178242152,"109":0.08748887706601474,"110":-0.09237106132623035,"111":0.05933126376792443,"112":-0.028427526553820377,"113":-0.05338095947055137,"114":0.03001075311179045,"115":0.008638133013086947,"116":-0.09201600727634784,"117":0.008518387680991333,"118":-0.07286026557244434,"119":-0.10275123188792677,"120":0.05869343673302889,"121":0.024872131041342442,"122":-0.003971599946174333,"123":0.019546413239690818,"124":-0.02376042425302618,"125":0.05305110666093221,"126":0.03360400866007829}},{"sx":1,"sy":1,"depth":127,"w":{"0":0.062144775077867635,"1":0.04309939748474494,"2":0.035709624594282285,"3":0.04452611803715121,"4":0.0016436271646607934,"5":-0.13691113703305227,"6":-0.18870677750234796,"7":0.04981268686892683,"8":-0.08911581597808522,"9":0.05297443955078053,"10":-0.01615983506336013,"11":0.048201116929446355,"12":-0.04566683963658002,"13":-0.009930145840710385,"14":-0.05632764450695485,"15":-0.04027072965461679,"16":-0.1466392133662492,"17":0.04903531645063575,"18":0.031119124840459107,"19":-0.0878632614168301,"20":0.06833355517699481,"21":0.05137648413424329,"22":-0.19507353670139083,"23":0.03682653497878734,"24":-0.09610139594064543,"25":-0.14197201511133567,"26":0.12215849707957126,"27":0.13845045411802318,"28":-0.17213742927121378,"29":0.002927789843024463,"30":0.005675513642333961,"31":-0.09742416522952048,"32":-0.07874662683174481,"33":0.011068475274374092,"34":-0.024508670686891342,"35":0.08332932985582722,"36":-0.1570298055566421,"37":-0.05639875282178777,"38":-0.08074833225972686,"39":0.07056629183058936,"40":-0.16493686389538473,"41":-0.07862981554881189,"42":-0.04182337316981132,"43":-0.011146202821086778,"44":-0.14433871257645275,"45":-0.021247829465008607,"46":-0.054802980151334474,"47":-0.009220725551514925,"48":0.1829678302365547,"49":0.009171561177628072,"50":-0.058644879330656714,"51":-0.08785401756828361,"52":-0.16304574104299838,"53":-0.19630044594245138,"54":-0.01776212043083748,"55":0.03025048613839424,"56":0.014180263163342359,"57":0.004218773273834525,"58":0.08361838267951545,"59":-0.018114127614578444,"60":-0.10594638148097794,"61":-0.030701304435475387,"62":-0.04920357437190133,"63":-0.07627574378859654,"64":-0.0657502550536095,"65":-0.04208537788291824,"66":0.07774225367277447,"67":-0.1285835493671174,"68":-0.045673178317013514,"69":-0.06890378162613697,"70":0.021205326784593557,"71":-0.0629690501789381,"72":-0.08789024763092,"73":0.17101958207625206,"74":-0.11305536266697135,"75":0.06593010108858047,"76":0.10091851924943682,"77":-0.0443911940615237,"78":-0.3311199841284526,"79":-0.06348816490833076,"80":0.15027212663053335,"81":-0.03889547782491838,"82":-0.13674815137251312,"83":0.014538126754991349,"84":0.02332249085978593,"85":-0.05502109031822783,"86":-0.11704602100420254,"87":-0.362563874092496,"88":-0.06395149225805101,"89":-0.1324327228943143,"90":-0.12666517635784508,"91":-0.167912092406459,"92":0.013249597591134527,"93":-0.18670682526653135,"94":-0.15861391748627887,"95":0.00781436344418751,"96":0.08568754304755884,"97":0.014232180558425102,"98":-0.09096873659561232,"99":0.03203541844984123,"100":0.11164807720558094,"101":-0.012270297115999303,"102":0.06111307534843607,"103":-0.09426984330603203,"104":-0.03024308912644481,"105":0.08519067861028776,"106":-0.06162945208984107,"107":0.12511089103687645,"108":-0.15955937459635713,"109":0.010331040100943576,"110":0.2506288200787893,"111":-0.030891512203745083,"112":-0.058569047407323056,"113":0.07120731518182949,"114":-0.0975500637470285,"115":0.1733044354345613,"116":0.09741092449566409,"117":0.06721551885841213,"118":-0.06984719959302187,"119":-0.016672072153111884,"120":-0.013856507295499147,"121":0.10213496021806114,"122":-0.0365552916386679,"123":0.04407428369458525,"124":-0.04047948233532101,"125":-0.04624549366821378,"126":0.04056980127710359}},{"sx":1,"sy":1,"depth":127,"w":{"0":-0.02902275143608824,"1":-0.000981625223468332,"2":0.006501379159315675,"3":0.06922140536800475,"4":0.03145689762394305,"5":0.049320687685452023,"6":-0.005693480496436747,"7":0.14680111045998115,"8":0.08874847808079882,"9":0.020031458972922928,"10":0.0624222375164284,"11":0.11071672446493468,"12":-0.07504612546173287,"13":0.10179551658604125,"14":-0.1538106615348071,"15":0.025430778985547114,"16":-0.05267665418751533,"17":-0.06386895149077879,"18":-0.12909723963166606,"19":0.05435425948659232,"20":-0.11030905292682461,"21":-0.05605151367069413,"22":-0.03744215153914756,"23":-0.03027543001374688,"24":0.08330178055763102,"25":-0.1982427430683945,"26":0.0007815817641627007,"27":-0.11562187545866749,"28":-0.10213758696892493,"29":-0.027122947597338923,"30":-0.017490024138523713,"31":-0.09135625718858312,"32":0.0005870489810005733,"33":0.06920125522374834,"34":-0.01191030701116928,"35":0.2229810372128494,"36":-0.05176764004420552,"37":-0.062283170923239484,"38":-0.15385163411204755,"39":-0.15690747451502843,"40":0.027263402057192146,"41":-0.04867967271344871,"42":0.04137120016251536,"43":0.10964403923483469,"44":0.16446143242751168,"45":-0.03402592872069923,"46":-0.0619195420059506,"47":-0.1177101692906803,"48":0.044092033686600474,"49":0.05714602533284001,"50":-0.09919999544821001,"51":-0.06064050964885263,"52":0.0708678106921477,"53":0.13445180630939133,"54":0.12475765455143896,"55":-0.0077978911543244425,"56":0.12954056471361308,"57":-0.1104718106195442,"58":-0.031775138230473246,"59":0.04620107815514489,"60":-0.08497307873984039,"61":0.14664181909198826,"62":0.05529102779709204,"63":0.1810622074986553,"64":-0.09833140609293843,"65":-0.009329915754731074,"66":0.006118318376793286,"67":0.09398702948815699,"68":-0.1914507965416309,"69":0.0013008410620801763,"70":0.05716839033717959,"71":-0.09617617840385247,"72":0.17679321752291124,"73":-0.19115207884801882,"74":-0.1497107751351225,"75":0.11898825068659102,"76":0.20292483614948678,"77":0.10964957536059748,"78":-0.15872265231622912,"79":-0.043520589755675625,"80":0.03263190975959227,"81":-0.05555287151285275,"82":-0.13170420694447751,"83":0.05395845462477772,"84":0.022961039869146906,"85":0.04914884437470261,"86":-0.06731974180772575,"87":0.04517923592325615,"88":-0.08413918944073397,"89":0.10189679124827694,"90":0.024025074623485975,"91":0.13131944415083951,"92":0.06141961378300132,"93":-0.035150765893173355,"94":-0.07763242392715301,"95":-0.048393048449644295,"96":0.020218443373679975,"97":0.1697028751529967,"98":-0.0763658646827632,"99":0.02846675461071211,"100":-0.017523789163750966,"101":-0.1370549646513321,"102":0.07479552535965792,"103":-0.00044299025920868955,"104":-0.020709365065379095,"105":-0.0297044771918423,"106":0.084827626800775,"107":0.20441000348365973,"108":-0.10216465018187143,"109":-0.2060021059624008,"110":0.08950193395123397,"111":0.15965138792168423,"112":-0.0019475801214068789,"113":0.018833726662853347,"114":0.1258051634771636,"115":-0.1603234862563727,"116":0.17937550762747478,"117":-0.13188906762768493,"118":-0.10519991841933012,"119":-0.04321438107021774,"120":0.07586971708031633,"121":-0.05106660577282519,"122":-0.17812801135191192,"123":-0.10153240495451275,"124":-0.02117621583143042,"125":0.1646659042210427,"126":-0.0437378210997201}},{"sx":1,"sy":1,"depth":127,"w":{"0":-0.0839556683366939,"1":-0.0028932037249005207,"2":0.16440476485028976,"3":0.16852414323583445,"4":0.10947815175555374,"5":0.2556056978640125,"6":0.12786140848054922,"7":0.07560331132070762,"8":0.06811020173917114,"9":0.1217765585404111,"10":0.04646919472058496,"11":-0.09793603498140036,"12":0.04112699087699998,"13":0.05719978535552857,"14":0.07966714161005291,"15":0.2323068456816675,"16":0.1302178901603491,"17":0.20730367973951355,"18":0.03907601973398803,"19":0.06985990752229727,"20":0.034737571110893345,"21":0.15195882138589323,"22":0.23424054983408438,"23":0.010693334953259661,"24":-0.030320897023557083,"25":0.08025402298259815,"26":-0.15863215016869872,"27":0.018276057266587372,"28":0.020582895174433177,"29":0.11886784167442677,"30":0.08049394237078847,"31":0.03034672716187585,"32":0.13064957776730163,"33":0.041160062425933036,"34":0.11912063230534156,"35":-0.010870924050484773,"36":-0.0025805415630937643,"37":0.15537221299063522,"38":0.07238778140306394,"39":0.10615286050527062,"40":0.1743302280926054,"41":0.0118218926860722,"42":0.08013458978325577,"43":0.12986501294458022,"44":0.08770895213816393,"45":0.005906876995191167,"46":0.18850580942188352,"47":0.051778164742957745,"48":0.06915982475809897,"49":0.03171986971346784,"50":0.11984429590871623,"51":0.014993148220136178,"52":-0.016029827051052103,"53":0.11594642434034318,"54":-0.058354362954745186,"55":0.07488978243853063,"56":0.02484721549465696,"57":0.05351805399720168,"58":0.06497021675354024,"59":0.03138088487341187,"60":-0.00761971579205155,"61":0.13866455294526145,"62":0.06771461021261685,"63":-0.011742265244306861,"64":0.10419924095248813,"65":0.09914641941232252,"66":0.15398794562343956,"67":0.07215619680020763,"68":0.06292813373026637,"69":0.05085259186224318,"70":0.11768011354356964,"71":-0.056801486344180196,"72":0.03569459188278832,"73":0.1136827758477339,"74":0.013297508542828837,"75":0.05358378183599815,"76":-0.02971902890732512,"77":0.13294555856027654,"78":0.10402658808054996,"79":-0.05909488851860723,"80":0.262462820287715,"81":-0.037429590067758874,"82":0.061662571431979306,"83":0.06241782067023015,"84":0.08746398076729231,"85":-0.01194774171015448,"86":0.18827102295654966,"87":-0.05401696674299215,"88":-0.034657410736067984,"89":-0.015770777716654163,"90":-0.026898820410982363,"91":-0.013046740867036664,"92":0.07459420662537411,"93":-0.05118401884186196,"94":-0.01650665845842806,"95":0.03845042646005144,"96":0.16930466370219874,"97":0.05627650933857575,"98":-0.0009259940598929354,"99":0.02347844967326842,"100":0.07167340080644885,"101":0.06773237309464906,"102":0.1201368810433744,"103":0.1311664141148752,"104":0.008825718178994791,"105":0.17762500031332465,"106":0.12795142463747972,"107":0.036173670697625435,"108":-0.15455915313756466,"109":-0.030784886613147388,"110":0.06980638780101739,"111":0.11672207727999553,"112":-0.02222034302261297,"113":-0.019409555288232246,"114":-0.013100659788453524,"115":0.28900141466288426,"116":-0.06350066901062994,"117":0.09195376373476155,"118":-0.008272137662770084,"119":-0.009972299264981182,"120":-0.09404573958592463,"121":0.07899849475432684,"122":0.015451078752946603,"123":0.11126355637981117,"124":0.14058184641471994,"125":-0.030612659501802326,"126":-0.01802162475026527}},{"sx":1,"sy":1,"depth":127,"w":{"0":-0.014974296163482375,"1":0.04976336702131689,"2":-0.000567174350796631,"3":0.06303891183036434,"4":0.0666023025598499,"5":0.03446055244007718,"6":-0.01805967085715056,"7":-0.01628918457658476,"8":0.010706642054234704,"9":-0.049282909251109806,"10":-0.09259411826515129,"11":0.1124640636669167,"12":0.022222512288669543,"13":0.05108274017983146,"14":0.06739232104864806,"15":0.08409715416598233,"16":-0.03215440517730545,"17":-0.024016017466276435,"18":0.03124480244689417,"19":0.005141597239275026,"20":-0.08289872371340523,"21":0.07784255441265425,"22":-0.044299886708757334,"23":-0.12466807238179074,"24":0.10711024528913357,"25":-0.045426365644096335,"26":-0.03215720509214212,"27":0.08358531478058935,"28":-0.008125180115145573,"29":0.043811065833148706,"30":-0.04505283441640284,"31":0.007810712351882417,"32":0.009220185191899495,"33":-0.02041934789757894,"34":-0.012637357891643814,"35":0.08306658364326994,"36":-0.00607513023474134,"37":-0.025101480710871635,"38":0.034578523982146815,"39":-0.044186492553921576,"40":-0.11302822849662833,"41":-0.10235094975083348,"42":-0.004213897013475143,"43":-0.013852704563829756,"44":-0.05155514425091794,"45":0.12341535469035096,"46":0.035927194765844245,"47":0.07822974043574164,"48":0.043713131368147536,"49":0.06294308940246178,"50":-0.022710943557339682,"51":-0.0003110592509140851,"52":-0.00035713773095088076,"53":0.12085589310574987,"54":-0.17384157148502805,"55":0.019683426839530685,"56":-0.0170238347029469,"57":-0.11314610918075807,"58":-0.13195181748119383,"59":-0.0971801862079326,"60":-0.09739055436542098,"61":-0.07937843460319631,"62":0.009210207648221213,"63":0.08012345037465986,"64":0.15832294832854585,"65":-0.08808891923586618,"66":0.037956216883586275,"67":0.17013706418833618,"68":-0.0250125765840879,"69":0.1139964984038726,"70":-0.055221413038388026,"71":0.01539743750848335,"72":-0.036382124498972296,"73":-0.13283577413686184,"74":-0.055345489609172745,"75":-0.07662167606144309,"76":-0.02976006363992898,"77":-0.08784586796392148,"78":-0.013128739391690465,"79":0.029387450479353854,"80":-0.004798232929145928,"81":-0.012832252853289847,"82":0.0010984956471199174,"83":0.05494289362564298,"84":-0.09292833186900966,"85":0.10595150334463187,"86":-0.01114174466214407,"87":-0.011320021775895521,"88":0.08291676997970056,"89":-0.03998321734683405,"90":-0.07919186656029863,"91":-0.04927398594615927,"92":-0.00801367478547492,"93":-0.10521586250839436,"94":0.01445809924938259,"95":-0.018146794943265928,"96":-0.023840465882448342,"97":-0.026764711971125496,"98":-0.009242103336871327,"99":0.027748739222910896,"100":0.027857620236052507,"101":0.05722928993391182,"102":0.03587254928709255,"103":0.14365660068517275,"104":0.052253152208492075,"105":0.03687331358906951,"106":0.11213391816165048,"107":-0.12076415523023795,"108":0.010169546925742939,"109":-0.1101666512746392,"110":-0.009227136389187053,"111":-0.0010384583339620895,"112":0.06081160901618919,"113":0.12239354660756736,"114":0.017736804704605154,"115":-0.012878864958258128,"116":-0.23056793334922174,"117":0.07646669898289633,"118":0.11207866613623349,"119":-0.0007064009353719091,"120":-0.059659977564261744,"121":-0.08416008034508658,"122":-0.10015054977338962,"123":0.04630911749342357,"124":-0.004366759909121298,"125":-0.09440599180324721,"126":0.0787281468796583}},{"sx":1,"sy":1,"depth":127,"w":{"0":0.09584011968780194,"1":-0.1713080321173754,"2":0.01958137986687383,"3":0.005251808585142051,"4":-0.03135541912447883,"5":-0.006353983538982931,"6":0.024254033612579655,"7":0.07403806915027092,"8":-0.029225179180438595,"9":-0.01984258505588528,"10":0.05839043760337627,"11":0.006892389631019841,"12":0.23668689386695904,"13":0.021399851587837696,"14":-0.03513279967909688,"15":-0.0026470737369475627,"16":-0.029999641381394587,"17":-0.05630957274321022,"18":0.007210450116824829,"19":-0.06873415408261914,"20":-0.1357294515156294,"21":-0.001937996072108135,"22":0.07239232628668792,"23":-0.04132351658482964,"24":0.10765678022692628,"25":-0.07713023716682814,"26":-0.0016232409010975848,"27":0.08005061057625194,"28":0.14722228502468773,"29":0.2285141508220193,"30":0.014718261238007143,"31":0.09868357864037548,"32":0.016054383675916675,"33":0.15924286222338702,"34":-0.013784911808269573,"35":-0.01499308583675343,"36":0.06902938858411913,"37":0.02790345551570672,"38":-0.0449035978730686,"39":-0.18251190822144675,"40":0.011977785626328882,"41":0.1683470629105228,"42":0.043622869615024214,"43":-0.09684461795567353,"44":0.05320293751175953,"45":-0.03998165312235394,"46":0.21394071858845962,"47":0.10717596856329277,"48":0.060693126638795,"49":-0.15129386382828175,"50":-0.05730250190842043,"51":0.05607665114113756,"52":0.22677775996812055,"53":0.04169288301102655,"54":0.05613454944049058,"55":0.0033568808860584857,"56":0.044413706129216954,"57":0.005190626615663733,"58":0.095277335726083,"59":0.05027626017514752,"60":-0.02941890031968466,"61":-0.019118958187631888,"62":-0.038742464448960415,"63":0.1554925809116964,"64":-0.1004647344802149,"65":0.04101525946801533,"66":-0.05797251260367644,"67":0.0720276371841937,"68":0.0867685155988142,"69":0.16529144116897548,"70":0.021282260139209527,"71":-0.06740833995582511,"72":-0.06884163685046966,"73":0.1501698290076129,"74":0.0975253308002497,"75":0.13251340205052317,"76":0.07739937615180757,"77":0.09204724792723182,"78":0.03535329877061979,"79":-0.07350161857598879,"80":-0.08767147052825507,"81":-0.15482060164438163,"82":0.19544637315156219,"83":0.0031174032227606874,"84":0.17697447591341064,"85":-0.09008623540711529,"86":0.010951301548370497,"87":0.08128435197842103,"88":0.06624295320753254,"89":0.014877569662939056,"90":0.016564381780737308,"91":0.03413212109922616,"92":0.023390199881509328,"93":-0.031322141063032286,"94":0.0260916291176353,"95":0.08782403217622523,"96":0.047413911573629085,"97":-0.034692552311859894,"98":-0.004528761884052049,"99":-0.021183962177979018,"100":0.06068812189745059,"101":-0.022295438496619736,"102":-0.005112104617177096,"103":0.0033710954704053607,"104":-0.01523848779158197,"105":0.03415286488730012,"106":0.16647502108241075,"107":-0.10517357777717097,"108":0.06007409617132809,"109":0.0010599750720536897,"110":-0.09651131821591133,"111":0.06428849507073474,"112":-0.022444095479003064,"113":0.056528417767423116,"114":-0.0011833083113847417,"115":0.045613014956501836,"116":0.014642173008159887,"117":-0.10902103729949791,"118":0.06942449997973563,"119":0.010477110683395012,"120":0.0566880312921566,"121":0.05196602904723316,"122":-0.018687036923307372,"123":0.09988759852132986,"124":0.06394624789265167,"125":0.014905291640848832,"126":0.00827707362348718}},{"sx":1,"sy":1,"depth":127,"w":{"0":0.0015061001539763302,"1":-0.052123955934294454,"2":-0.08526411436055398,"3":-0.1393247382850717,"4":0.00756466424535277,"5":0.04728042322313179,"6":-0.07311092494002794,"7":-0.01966725143193676,"8":-0.05482033550213322,"9":-0.003758778175012497,"10":0.09645536267409154,"11":-0.034561254410188647,"12":-0.07701384162285217,"13":0.06539031179173675,"14":0.0889303464965664,"15":-0.03130348590141976,"16":-0.044679136339441775,"17":-0.027581509672407863,"18":0.07120475685636139,"19":-0.04966505712039097,"20":0.11383176882011027,"21":-0.16095006858769675,"22":0.03706661012679499,"23":-0.00924135051247079,"24":-0.09670183868930086,"25":0.1384710913428074,"26":-0.08364911451337839,"27":0.005747322958484153,"28":0.07311684058596325,"29":0.0014106853900550094,"30":0.015387620892488196,"31":-0.0580548337685806,"32":0.07413217333741241,"33":-0.06467373650944086,"34":-0.03900705943281112,"35":-0.003122765311807807,"36":0.08839485160717811,"37":0.09070295877652096,"38":0.04335810440503524,"39":-0.020177609234431317,"40":-0.022970650780346737,"41":0.06382726255759978,"42":0.01265838528026643,"43":-0.057604290706651906,"44":0.17558952365005986,"45":0.0755768343100554,"46":-0.0717901920482493,"47":0.02564392736340512,"48":-0.018367583246835732,"49":0.005476529411431541,"50":0.19601076860614533,"51":-0.06036907274082415,"52":0.10793936962455894,"53":-0.03308222237016868,"54":0.0016369508082064894,"55":-0.13105344474344552,"56":-0.04940733549121594,"57":-0.0711686088926551,"58":-0.12408998628317083,"59":-0.05455234705185509,"60":-0.09164242411325926,"61":0.05530105790408782,"62":-0.038628716576264474,"63":0.026859367943915094,"64":-0.042137709972004195,"65":0.017969101793242664,"66":0.011951799347934966,"67":0.03469090099676231,"68":0.03230542326563394,"69":-0.0005090122538463595,"70":-0.10292066054805449,"71":-0.06890765720760329,"72":-0.009263856256062035,"73":0.07719362587152474,"74":-0.14031129380391427,"75":0.01513230306261349,"76":0.03382332414506261,"77":-0.014235920545563111,"78":0.06878619313313937,"79":0.08297785503838731,"80":0.13561545195486152,"81":-0.026233016700963396,"82":-0.04820051742337951,"83":-0.047317265538673915,"84":-0.09117887273913926,"85":-0.04192192632714032,"86":-0.03731414691770744,"87":0.06817585728271672,"88":0.17025603779040077,"89":-0.007946571282213752,"90":0.02377227129980739,"91":-0.004204883709837634,"92":-0.03344564283911528,"93":0.016715911499680755,"94":0.07747994987420675,"95":0.1658926962351404,"96":-0.030326931995467127,"97":-0.04076180540323523,"98":-0.17835726029278584,"99":-0.08215190745311979,"100":0.07432489444214245,"101":0.09364305740067494,"102":-0.1378484870942366,"103":0.013820274359434694,"104":0.09160726309120586,"105":0.1240637325063723,"106":0.052018344837622604,"107":0.06336909502582817,"108":-0.09656956641827319,"109":0.03462491418511524,"110":-0.04961391544433726,"111":-0.03508612209023189,"112":-0.015888498940895935,"113":0.07523663476035138,"114":0.023527650382866167,"115":-0.05918905827440721,"116":-0.06327673472301085,"117":-0.06765417028884362,"118":-0.061982641496076844,"119":0.05379920661458997,"120":0.10470677280511456,"121":0.0016487535224465257,"122":-0.035521205539135035,"123":-0.11551745470967335,"124":-0.06961210214779029,"125":-0.024531237312903895,"126":-0.005493606570838007}},{"sx":1,"sy":1,"depth":127,"w":{"0":0.10465664826777958,"1":0.09998447083006927,"2":0.086133818198788,"3":-0.05201408486615664,"4":0.07829593341232491,"5":0.003013732389600794,"6":0.041739360773673566,"7":-0.07774251141508966,"8":-0.05438983218913138,"9":-0.02057019693744157,"10":0.08682713758176172,"11":-0.00477104085953623,"12":0.008288449019977148,"13":-0.002987637395790381,"14":-0.017445271179043768,"15":0.046188381320519556,"16":-0.19368118787884228,"17":0.10873886947313421,"18":0.07248168868388426,"19":0.13960829998461968,"20":-0.009671581289083733,"21":-0.04816120514623515,"22":-0.012924734626499975,"23":0.021794486283868,"24":-0.05848373472801864,"25":0.10648767274723002,"26":-0.05260999085664015,"27":-0.03282595274336212,"28":-0.0352436005293154,"29":0.03675896122813851,"30":0.01891753067105688,"31":-0.02894753781775707,"32":-0.16660377774955473,"33":-0.036630385075771266,"34":0.057526400969537234,"35":-0.027331420505915603,"36":-0.07018796115991335,"37":0.09708279662707302,"38":-0.1945497805363751,"39":-0.04841722096144245,"40":-0.04304466659253245,"41":0.07428342864289382,"42":-0.040691200102542284,"43":0.07694468760550609,"44":-0.10298678654070374,"45":-0.015955811965756402,"46":-0.042281653738342945,"47":-0.07001735988229363,"48":-0.06702278865937508,"49":0.10515171016216342,"50":-0.16082929951664582,"51":-0.16021979559733862,"52":-0.03349341706720271,"53":0.04609435687285716,"54":-0.06326281228326563,"55":0.11354102473429457,"56":-0.08045217872777487,"57":0.07292964257529104,"58":-0.2027171996440116,"59":-0.12862296071464702,"60":-0.00826837111050707,"61":-0.13223632866772286,"62":0.1383245137233489,"63":-0.0607309519572754,"64":-0.10211769287266949,"65":0.0001566175368962252,"66":-0.11558349423016505,"67":0.06222818936565325,"68":-0.040907008674887634,"69":-0.0472389634590597,"70":0.022632563498973735,"71":-0.03419954697425002,"72":-0.08714848016270396,"73":0.003401754647623626,"74":0.10231948376896567,"75":0.06683266296635018,"76":-0.003784928344247572,"77":0.14213152863118542,"78":-0.02873505012717231,"79":0.031657232698251554,"80":-0.006135243604499425,"81":-0.020812352436041175,"82":0.046042029692815,"83":0.11607596177814598,"84":0.15384431990233555,"85":-0.0628884158758052,"86":-0.008272282003304581,"87":-0.00957636885335856,"88":-0.048373303634228815,"89":-0.09535061356911266,"90":-0.14357706606671455,"91":-0.027996394717073297,"92":0.010272963569233488,"93":-0.040396029818624904,"94":-0.001776209434412822,"95":0.1363746843268353,"96":0.11010971790073164,"97":0.061032160093610156,"98":-0.05487100137727644,"99":0.05977396025750148,"100":-0.018615446202165892,"101":0.0019174991593583597,"102":-0.0966762465031092,"103":0.0085466596936073,"104":-0.026969490560803454,"105":-0.12548022143915036,"106":-0.03557741439907454,"107":-0.06854191706215501,"108":0.010123868512259805,"109":-0.06280243750417203,"110":-0.21114073054681398,"111":0.015400011335042253,"112":-0.008209285643774473,"113":0.08731714915348605,"114":-0.07058384376257094,"115":0.23091039766688565,"116":0.0917167220883319,"117":0.000751714159052775,"118":-0.020234352947902025,"119":0.034641027787099224,"120":0.1967100144626874,"121":-0.08651705477456502,"122":-0.05503320259674835,"123":-0.00372262184143606,"124":0.06023384469851929,"125":0.10944309474613825,"126":0.031936599056357616}},{"sx":1,"sy":1,"depth":127,"w":{"0":-0.024332927251840063,"1":0.27691473200657724,"2":0.1366789249763359,"3":-0.048967189779201815,"4":-0.06072372836015264,"5":-0.08926179721839268,"6":-0.10718177319919002,"7":-0.05535208790846063,"8":-0.1075356683364818,"9":0.04616809139019119,"10":-0.14944309868084876,"11":-0.037644767137099265,"12":0.12049466853014705,"13":-0.07121112047262655,"14":0.11301745208960302,"15":-0.013370528964581983,"16":-0.1258765980730018,"17":-0.042309470155361815,"18":0.027311136180652333,"19":-0.09110112370128698,"20":0.1145849418856294,"21":-0.02522400984753574,"22":0.17775856987246336,"23":0.04531769878954626,"24":0.14636725745843196,"25":-0.10457635403725997,"26":0.025865250833264276,"27":0.12058026822800842,"28":0.11547769465160598,"29":0.00738539936364179,"30":-0.0063601274784360435,"31":-0.07923727997332243,"32":0.1362834464148856,"33":-0.023234053557762386,"34":0.045615656926556856,"35":-0.008550728962722855,"36":-0.03373996127455954,"37":-0.0688751483490067,"38":0.044208413797917956,"39":0.008926822843713855,"40":0.07046243467707668,"41":0.004282599859724351,"42":0.0781664081635054,"43":0.13736024250509837,"44":0.0490148365968459,"45":-0.03567978103893403,"46":-0.07805578955156739,"47":-0.05293336580587928,"48":-0.1137766626747054,"49":0.052494468554395705,"50":-0.15026618374474404,"51":0.17776863328870257,"52":0.07146386457241967,"53":0.007989117967497909,"54":-0.074326226803888,"55":0.06358138812339366,"56":0.08849703134942057,"57":0.0522939744354512,"58":0.0064528790565622305,"59":-0.15137959883533753,"60":0.04757031135415499,"61":-0.04134533232036136,"62":0.0301229088269213,"63":0.06751500115828027,"64":-0.14019796268644263,"65":0.1728728385583139,"66":0.05847608951284967,"67":0.055134744809007985,"68":0.05228287803039975,"69":0.0260771727241068,"70":-0.10291302137007394,"71":-0.03815404502013838,"72":-0.07279289081806065,"73":-0.008054322496864493,"74":0.02633453958418222,"75":0.1483156932995218,"76":0.05990360046809217,"77":0.034907799936230166,"78":-0.06942925193358321,"79":0.08733438433038328,"80":-0.15869151214073082,"81":0.18083453810931302,"82":0.02109807382487619,"83":0.11789521575487717,"84":0.08209627241398042,"85":0.05543479292623681,"86":0.01379138707046417,"87":0.09699018266047452,"88":0.014340376891098346,"89":-0.09118839598140364,"90":-0.035739387996184584,"91":-0.16645899300320607,"92":0.040023307691402436,"93":-0.020732017805405893,"94":-0.0739880057385996,"95":-0.02108034918965516,"96":0.1653400500916128,"97":-0.02001060866415501,"98":-0.055216062335195756,"99":0.06590554737977092,"100":0.11783284256257183,"101":-0.10294383710524842,"102":-0.27785769011772476,"103":0.026506465735730768,"104":-0.04431019522938421,"105":-0.1557553208058635,"106":0.04801703765030314,"107":-0.08484808524338008,"108":0.12631757149218678,"109":-0.004958773211625938,"110":0.0009883722463527825,"111":0.091674826231798,"112":0.08855494272025835,"113":-0.004607389185976823,"114":0.04043916792804903,"115":-0.017932435946280953,"116":0.015416440179471668,"117":-0.07863087308422764,"118":-0.1461169043144065,"119":0.032962359309491915,"120":0.058288165810821656,"121":0.07367117612094401,"122":-0.01611707127939311,"123":-0.01899543204490387,"124":-0.0021193044852822374,"125":0.09476558339927849,"126":-0.05396102022352676}},{"sx":1,"sy":1,"depth":127,"w":{"0":0.036216373764982636,"1":-0.025782977748613576,"2":0.10655385043906852,"3":0.1876878181601468,"4":-0.006561162493406451,"5":0.11220672094782201,"6":0.06022473813854719,"7":-0.0391827386906141,"8":0.07657802651473597,"9":-0.1795636685596072,"10":-0.07684338573254143,"11":0.07287410432319374,"12":0.03001948222561026,"13":0.07146933777535931,"14":-0.047165612127289674,"15":0.05000584070865612,"16":-0.034072499947819634,"17":-0.11813123315563182,"18":0.08260037171053805,"19":-0.06777280230405201,"20":-0.06004871592336579,"21":0.10185710490119977,"22":0.015755027842126835,"23":0.0693355475560381,"24":0.06518373419024015,"25":0.08914348208311548,"26":0.0839134757576552,"27":0.034149950994190194,"28":0.01596829708246422,"29":-0.0025651286516957207,"30":-0.023228475402003436,"31":-0.06366326181179169,"32":-0.00814443423689669,"33":0.1315624103904121,"34":-0.13514930979891826,"35":0.14479709323989556,"36":-0.05436281573034389,"37":0.18202719319458766,"38":0.008994953967524883,"39":-0.06411191754772019,"40":0.017204970910318494,"41":0.04323605473205155,"42":0.04632925745927546,"43":-0.06235773778112123,"44":-0.04704603094959211,"45":0.015447353154066945,"46":0.06611022990844308,"47":-0.08832364605688967,"48":-0.034806875781566514,"49":0.026393462804325078,"50":0.1068976068090667,"51":-0.01692754662452588,"52":0.12503030451301203,"53":0.0835989235148511,"54":0.0634041549292479,"55":-0.09785928535044161,"56":0.015497487136541957,"57":0.06051696317827557,"58":-0.0035169347016696818,"59":-0.022748832508926477,"60":0.07280217206035276,"61":-0.12880517239384226,"62":0.04489574915033024,"63":0.010122978935358653,"64":0.06244921569111198,"65":0.0663793664782472,"66":0.026031083032507094,"67":0.011754777897538156,"68":-0.05192083777018844,"69":0.11522731501910345,"70":-0.1353214548435513,"71":-0.014126878302884765,"72":0.11719933568200928,"73":-0.04841894263162218,"74":-0.0576528236350766,"75":-0.06434754753148164,"76":-0.1202483337174527,"77":0.08734910777271403,"78":0.06396296121847786,"79":-0.06311473602166555,"80":-0.028811927532522357,"81":0.03924001984268421,"82":0.027087831483646418,"83":-0.01947068116533986,"84":0.11326305100997418,"85":0.15127891424368614,"86":0.10151073160975779,"87":-0.036823200154796114,"88":0.01996986553755015,"89":-0.011727608060028634,"90":-0.020584123996924268,"91":-0.013003568472549113,"92":-0.07493013090388025,"93":0.0005340039219289569,"94":0.009613041137754111,"95":0.15226954620540323,"96":-0.043061566977007755,"97":0.06242851507191053,"98":0.04563568703739231,"99":-0.07264555785845937,"100":-0.06523273468570463,"101":0.1328785802355683,"102":-0.0012492942597682956,"103":-0.0048514289308573735,"104":-0.07822927525668505,"105":-0.08289949463157074,"106":0.13485851618758757,"107":-0.07675669031976341,"108":-0.11670186030019077,"109":-0.023992205481861185,"110":0.1058885407896961,"111":-0.0687031216639115,"112":-0.0011224019783069737,"113":0.13682702282665077,"114":0.07803403532503328,"115":-0.06607063374403697,"116":-0.051358161073979156,"117":0.06545564080018562,"118":-0.031180812846910815,"119":0.07767302471071219,"120":-0.11913979318946705,"121":0.008632647790191673,"122":0.09582878700763198,"123":0.041567937983937084,"124":-0.01675506290766092,"125":0.03385510542365128,"126":0.0719854706436541}},{"sx":1,"sy":1,"depth":127,"w":{"0":-0.05890028913160888,"1":0.018424225709187284,"2":-0.0005109274160019907,"3":-0.059049349081712485,"4":-0.01903704573822374,"5":0.11452631460062158,"6":0.14286963429515692,"7":0.0007951032185648407,"8":-0.06280294632723306,"9":-0.1282378680143635,"10":0.0746587152468833,"11":-0.03771659154543013,"12":0.06488523816178601,"13":0.1161020835515919,"14":0.04568245451676056,"15":-0.0022964371106679545,"16":0.0020836531599768547,"17":0.06724122877516958,"18":0.12270931415476882,"19":-0.01709708901046671,"20":-0.063029776044309,"21":0.16963508939929167,"22":-0.26991393081437437,"23":-0.016188643407477398,"24":0.07385176320606361,"25":-0.05809634251347866,"26":0.10144321553041084,"27":0.09735505828310834,"28":0.00858028413417465,"29":0.009241492858115262,"30":0.16238440524707534,"31":-0.13627229127938395,"32":-0.02235880327426745,"33":0.13760209300332163,"34":-0.01653714635920908,"35":0.024063658000167267,"36":0.08566083105577756,"37":0.1619701621248362,"38":-0.014556050370360325,"39":-0.04177317535436755,"40":-0.040417766898958034,"41":-0.21747044112311403,"42":-0.07428372410191658,"43":-0.037093748959451354,"44":-0.03567892456084182,"45":-0.09925558880306781,"46":-0.009703897290316515,"47":0.04510907124220349,"48":0.05809689797314517,"49":-0.1469661675927618,"50":-0.01834486123451049,"51":-0.032552811969390534,"52":0.04041892603270835,"53":-0.057239846698677314,"54":-0.12996228699516799,"55":-0.06220867632611217,"56":-0.15350521807273962,"57":0.0858679284932662,"58":-0.11582577773358636,"59":-0.003335397361382016,"60":-0.1396424388809065,"61":0.019711152652831906,"62":-0.09907826905844141,"63":-0.05147159487444867,"64":-0.01772126573967928,"65":-0.02633386643875464,"66":-0.06199799867935318,"67":-0.06501331161358884,"68":-0.05820889027074183,"69":0.05556872897904559,"70":0.05617322930404931,"71":0.018616528005733914,"72":0.08035647312373079,"73":-0.0684469568628352,"74":-0.003967061765372307,"75":0.11391948258505108,"76":-0.06999198410802011,"77":-0.07653252778742896,"78":0.1713610393597464,"79":-0.07980583732460418,"80":-0.15467239118686757,"81":0.018867589830228376,"82":-0.03920831660202144,"83":0.00861024021428017,"84":-0.09347736520329304,"85":-0.06237014791693042,"86":-0.045453840698185956,"87":0.01195570773211053,"88":-0.01992325843505217,"89":-0.010334452459272931,"90":-0.09861905300424324,"91":-0.029058253402751498,"92":-0.14760902013294552,"93":-0.12579954490368714,"94":-0.16570060264149455,"95":-0.017733498753985905,"96":0.06744385280753887,"97":0.14740099020916353,"98":-0.2461726016950017,"99":-0.08154476313350342,"100":-0.017475398658595948,"101":0.10162114105867884,"102":0.04999833147095188,"103":0.09198531318694908,"104":-0.08646841676719988,"105":-0.19142046276721392,"106":0.044956745367235616,"107":0.05709950124523533,"108":0.09079132571536432,"109":0.008575010359570458,"110":-0.030531201480076296,"111":-0.03703533385561861,"112":0.1412311013160405,"113":-0.13876987593386536,"114":-0.048404463968652674,"115":0.17305776680618762,"116":-0.004935735812789715,"117":-0.05444230959261228,"118":0.027063373852751777,"119":0.10797027709259648,"120":-0.03945635338198639,"121":-0.0200572589011962,"122":-0.11694126339734257,"123":-0.08672715556940595,"124":-0.09484580517011815,"125":0.07325273561236555,"126":0.06681381658756168}},{"sx":1,"sy":1,"depth":127,"w":{"0":0.22905169947563236,"1":0.059747101282354394,"2":-0.07658483715938325,"3":0.011200841105982086,"4":-0.13936092350972246,"5":0.06997281013037565,"6":0.1654468302941342,"7":0.13551242286831705,"8":0.07141646837837902,"9":0.03732566456251448,"10":0.12468265616892688,"11":0.11546763937202682,"12":-0.003859712110683536,"13":-0.010744789483483477,"14":0.1245839317841006,"15":-0.07681074928127953,"16":-0.07086528217351414,"17":-0.04610763739873882,"18":-0.11918355502835777,"19":-0.05142909020460549,"20":-0.025600384394015248,"21":0.2040631974045857,"22":0.0064920292100481515,"23":0.09376899598036476,"24":0.16637002196152684,"25":-0.08933016088281057,"26":-0.0609906908498638,"27":-0.0262052353162814,"28":0.04888106859743366,"29":-0.09800915958299018,"30":-0.03721076663737651,"31":0.08370993815844234,"32":0.07971659830111551,"33":-0.026699885677212862,"34":0.04879137155360187,"35":-0.001131440242051398,"36":-0.007336772484119735,"37":0.004343898966605475,"38":-0.04628573106075114,"39":-0.1333462400559971,"40":0.02385914283967369,"41":-0.06390779748003277,"42":0.048944604341780676,"43":0.08853674490121258,"44":-0.02002300117377959,"45":0.08010863835294688,"46":-0.001351763793372301,"47":-0.03185907173963514,"48":0.018853374898346136,"49":-0.04210372380640372,"50":0.05698770512208011,"51":0.06425577543318754,"52":0.0730919845353909,"53":0.029906668777443527,"54":0.048054902492212816,"55":-0.11119389902803062,"56":0.1333871252379071,"57":-0.045747091829507654,"58":-0.017609249540316972,"59":0.0007308834235107899,"60":-0.09565908443535201,"61":-0.08144532172960503,"62":-0.0374663511508032,"63":-0.1506147823269139,"64":0.1098941152185474,"65":0.05978512125063672,"66":0.033748368038236325,"67":-0.14683662703123615,"68":-0.0546311446234387,"69":-0.1438416730847035,"70":0.0073102001218795475,"71":0.11720046852486413,"72":-0.08234964108669862,"73":-0.08434239247759777,"74":0.2266076675734156,"75":0.06343754357343977,"76":0.01780706970991158,"77":-0.04430394546105703,"78":-0.07352264034658615,"79":-0.09318590614960455,"80":-0.07855434874126617,"81":0.09124226733970577,"82":0.017458693730439356,"83":0.06286954302486113,"84":0.03678739971142517,"85":-0.06748554818707388,"86":-0.07701487981509746,"87":-0.08799158125339174,"88":0.11984867566506231,"89":0.0779397465424072,"90":0.004237444000494517,"91":-0.00292427015187323,"92":0.04090238201432024,"93":-0.07898232769071487,"94":-0.04402869960926486,"95":-0.012102391777110913,"96":-0.018710994902043785,"97":0.05606133745160684,"98":-0.10208986207387666,"99":0.051427530485422444,"100":0.07451299669512645,"101":-0.04980986423165363,"102":-0.1478619487663029,"103":-0.10813560843165301,"104":0.0013842294668916278,"105":0.07103845525173458,"106":-0.06036274041931303,"107":-0.007254189917714054,"108":0.06494859528652265,"109":-0.004129523820374575,"110":-0.08940005916739222,"111":0.07444790875514389,"112":0.11377816334793425,"113":0.09694722296718239,"114":0.08146391059888312,"115":0.029142780800078167,"116":0.1204269791861213,"117":-0.06667180422462227,"118":-0.031405096477734276,"119":0.05732839764507385,"120":0.10743648212559025,"121":-0.029815056792041144,"122":-0.09200921840239593,"123":-0.09252624188685796,"124":-0.030017139532209,"125":0.13242262337119645,"126":0.02358741915768587}},{"sx":1,"sy":1,"depth":127,"w":{"0":-0.02851975078791402,"1":-0.11982510319832662,"2":-0.03835388569470884,"3":0.04768395796038823,"4":-0.03671041762837721,"5":0.11018934873746039,"6":0.15109629649903733,"7":0.0267617253410891,"8":0.09123772434768603,"9":-0.11810994393842994,"10":0.26218758235276113,"11":-0.038283267038590724,"12":0.19077832491590296,"13":-0.13924154240356945,"14":0.19779782280600353,"15":-0.009230847276018275,"16":0.16427259884056822,"17":0.004075775952539484,"18":0.06014083420824448,"19":0.11117600185853206,"20":0.03584075511635166,"21":-0.04162228884009371,"22":0.04410856571885519,"23":0.001023209489134876,"24":-0.03613402246759455,"25":0.06087258389603435,"26":-0.07814041075669736,"27":-0.1434147303261015,"28":-0.02270934105551594,"29":-0.0042609692714936425,"30":0.007232716779582738,"31":0.029519326237376523,"32":-0.06536296446648118,"33":-0.0531316196887167,"34":-0.09043332629288356,"35":0.0037148365030514005,"36":-0.09055341922933785,"37":0.05918839709439063,"38":-0.05333010166218239,"39":0.04468982834255193,"40":0.18854591523107594,"41":0.03419487134335925,"42":0.01628015676845035,"43":0.11000836113378501,"44":0.015249223885839195,"45":-0.04620556163696077,"46":0.01475111936780866,"47":-0.048556643263145426,"48":-0.054927685707016456,"49":0.011356616987239472,"50":-0.1312366499485006,"51":0.07365541872059737,"52":0.0755070992823603,"53":0.07035109397583722,"54":-0.15605558071983833,"55":0.011289761798844954,"56":-0.020143876722764072,"57":0.030245271467924266,"58":0.006189958808958782,"59":-0.143076385488267,"60":0.000117310498018032,"61":0.003449879408779491,"62":0.07254448240196935,"63":0.0443533583900681,"64":-0.23223485311702757,"65":0.05072807177257505,"66":0.10744005696324267,"67":0.006044119785744107,"68":0.076604277172374,"69":-0.07716902066615851,"70":-0.06914042191685461,"71":-0.0024070543184916216,"72":0.0044905647969676315,"73":0.0489547846764814,"74":0.08608453316956366,"75":0.045640419455508376,"76":-0.056260691954668915,"77":-0.00802773877564277,"78":0.07484903957031158,"79":-0.020015200243408332,"80":0.042597419622752875,"81":-0.021568558574388233,"82":-0.09926748929951437,"83":0.06998250629068715,"84":0.08120902472776051,"85":0.027889072445057037,"86":0.024909826809475594,"87":-0.05023475888492472,"88":0.011282239267911104,"89":-0.06651434893591936,"90":-0.042155472504093565,"91":-0.04481428571225023,"92":-0.18402713462564751,"93":0.12726434717319843,"94":-0.02643864277188445,"95":-0.16628849667534137,"96":0.04312673690843274,"97":-0.09573931822000574,"98":-0.01020822343666135,"99":0.002990351841174326,"100":0.11330619026414768,"101":0.013412855703698255,"102":0.017745417086284822,"103":0.17483254910624219,"104":0.09554738773451817,"105":0.003098856454698914,"106":-0.0022111341503422244,"107":0.03984304693446226,"108":-0.13326089794247414,"109":-0.06386991150364969,"110":0.0018400228630972059,"111":-0.030756264193763247,"112":-0.07098058624115587,"113":0.05560341469776089,"114":0.0775163289393157,"115":-0.06990019603355964,"116":0.17433036262391433,"117":-0.03497136300430491,"118":0.08138443204430501,"119":0.010955510113589431,"120":-0.13805908575751139,"121":-0.022490657333351562,"122":-0.07701227954903918,"123":-0.1030280222688688,"124":-0.06763377666690856,"125":-0.026504624586556728,"126":0.0016851224265616483}},{"sx":1,"sy":1,"depth":127,"w":{"0":0.0716196392863485,"1":0.10161483413761885,"2":0.04548801202868134,"3":-0.14926548897602618,"4":-0.09440874699996382,"5":-0.18453662395412684,"6":-0.022756405016214298,"7":0.05341049753459676,"8":0.06628591985782553,"9":0.022875264002448655,"10":0.13600864212627659,"11":-0.1254456824525074,"12":-0.04753646585615534,"13":-0.0516442655476196,"14":-0.096994511333088,"15":-0.008481246545641299,"16":-0.07406666484472127,"17":0.005724251583823083,"18":-0.09513874704489754,"19":-0.1501115674732244,"20":0.10009687533147023,"21":0.08766656844717621,"22":0.0378125135889146,"23":-0.0835775398984667,"24":-0.008715944686172076,"25":0.005187835934190921,"26":-0.19265695823994444,"27":0.04120215488913953,"28":0.07553320007098646,"29":0.07871236182334006,"30":-0.012610625222993374,"31":-0.05492815362955708,"32":-0.1885611898672765,"33":-0.07820204254677074,"34":0.007495093340535201,"35":-0.13533520863490606,"36":0.008921720615849876,"37":0.11708927661965196,"38":0.026076764294122055,"39":-0.02189521212393781,"40":-0.025106020633908026,"41":0.0008078320364944526,"42":0.09500001702085581,"43":-0.05184705997086835,"44":-0.04438044402509975,"45":0.06432643951153437,"46":0.013693412407084951,"47":-0.06209990892191608,"48":-0.031056292752584737,"49":0.03154698299354782,"50":0.0443363257249284,"51":0.015194210009605469,"52":-0.1042195900621079,"53":0.12295408757414922,"54":-0.135727566655223,"55":-0.1782958501538309,"56":0.029555909742590213,"57":-0.13491694729526188,"58":0.03453731518864145,"59":-0.12030620289088113,"60":-0.13754869475445194,"61":-0.1946362097617168,"62":-0.14624361812542713,"63":0.036967871940496555,"64":0.0467686249147522,"65":0.06377924317886506,"66":0.045183645088881695,"67":-0.058776070601419754,"68":-0.10465123605887118,"69":0.12027530179552919,"70":-0.08137036169719178,"71":-0.1264104035508999,"72":-0.20235989918078803,"73":0.07580547455697684,"74":0.07730798065652325,"75":-0.019689088506279297,"76":-0.06318612117526835,"77":0.04765410806057234,"78":0.14804617116750204,"79":-0.03058859433290143,"80":0.007440468416151518,"81":0.06505990186074956,"82":0.11317227865938802,"83":0.04289744213593806,"84":0.038147417695431896,"85":-0.23853249459514583,"86":0.02187365038878849,"87":0.13667864188729328,"88":0.006931106657340032,"89":0.06332535907558044,"90":0.07497556963390338,"91":0.023931575912054644,"92":0.14523103604448315,"93":-0.016594221493238623,"94":0.03685376660814232,"95":0.0941044797884984,"96":-0.08765173077014096,"97":-0.09822061783565864,"98":-0.021260006896686313,"99":-0.04999170918305463,"100":0.08391380303577048,"101":0.10282204129209971,"102":-0.019150973389723016,"103":0.10794119985414058,"104":-0.01657418583683642,"105":-0.0751073659108325,"106":-0.05531316723071776,"107":-0.08637008558880985,"108":-0.08554371160754846,"109":-0.026202663455820938,"110":0.051377306688782695,"111":0.009040873523506835,"112":-0.040553587644409264,"113":-0.012160907875125655,"114":-0.09319593926351333,"115":-0.06874699374661933,"116":0.0760858650985544,"117":-0.003144636032754281,"118":0.08040939416533657,"119":-0.023387200372274198,"120":0.08514956145204153,"121":-0.06666985204954554,"122":-0.013688062837284614,"123":-0.17313088759206172,"124":0.01374797138446351,"125":-0.025772750284429304,"126":-0.06307371548062018}}],"biases":{"sx":1,"sy":1,"depth":25,"w":{"0":0.09608970185522059,"1":0.10657038643886073,"2":0.10315918732328379,"3":0.1075708114657518,"4":0.09240917408134151,"5":0.09397107731025398,"6":0.09872916315907672,"7":0.10244720069863889,"8":0.09615166540809124,"9":0.09905518647395439,"10":0.09828238479896093,"11":0.09828748390733717,"12":0.09037109455060652,"13":0.09601816789123728,"14":0.10708519032364562,"15":0.09682436021264273,"16":0.10242281965164544,"17":0.09263237465374365,"18":0.09914037481262164,"19":0.09974442283317328,"20":0.09991267153926235,"21":0.0958765056120928,"22":0.09879164673859914,"23":0.09528182683994434,"24":0.09042198575379745}}},{"out_depth":25,"out_sx":1,"out_sy":1,"layer_type":"relu"},{"out_depth":5,"out_sx":1,"out_sy":1,"layer_type":"fc","num_inputs":25,"l1_decay_mul":0,"l2_decay_mul":1,"filters":[{"sx":1,"sy":1,"depth":25,"w":{"0":0.06153686946873485,"1":0.10625404481914408,"2":0.04140718252043149,"3":0.2693707783571447,"4":0.02640593290741787,"5":0.04896012110386732,"6":0.26627318534849365,"7":0.13954312212683156,"8":0.07007060450896953,"9":0.10099615095877237,"10":-0.20248132581306091,"11":-0.2736978685463857,"12":-0.08735315798347382,"13":-0.08377961177930905,"14":0.46584877021076115,"15":0.09968272795453335,"16":-0.204722927966534,"17":0.016221010853013376,"18":-0.35129758175328984,"19":0.07137809951271207,"20":-0.05968040804727113,"21":0.03127994709857742,"22":0.0812604233617678,"23":-0.24274721905065255,"24":-0.2863961061244729}},{"sx":1,"sy":1,"depth":25,"w":{"0":-0.17793624727256552,"1":0.10257519710428634,"2":0.2511003263328196,"3":0.2747317579741782,"4":-0.05453082683395696,"5":0.05592936587427235,"6":-0.09055710451430138,"7":0.03523610097691063,"8":-0.14019447830711704,"9":-0.11489841562881843,"10":0.15235361031297048,"11":0.03761895878746096,"12":-0.20972017932461062,"13":0.05365133298693033,"14":0.4627457489966254,"15":0.12252614485452389,"16":-0.02620112538222341,"17":-0.10359379530193628,"18":0.025592052434993486,"19":0.03502625627559979,"20":0.014151974093335443,"21":-0.11937472262673017,"22":-0.044725840546231736,"23":-0.09320448920887378,"24":-0.061300886899674}},{"sx":1,"sy":1,"depth":25,"w":{"0":0.4583182008838538,"1":0.05065209766295906,"2":-0.03752004197317183,"3":0.2491449625347065,"4":0.10283764016709612,"5":-0.20827945218793947,"6":0.0879468885583087,"7":-0.1041682143667151,"8":-0.17707103268166227,"9":0.04190565417925504,"10":-0.30382469113881816,"11":0.021325092444706213,"12":-0.3969859116012835,"13":-0.20767302467448132,"14":0.21302408300355138,"15":-0.09114672441595098,"16":0.287478943184002,"17":-0.08161245469631205,"18":-0.06861765365332236,"19":0.30770160412999575,"20":0.19654525502670372,"21":-0.0017310444742447849,"22":0.28004295872578727,"23":0.4765577172944397,"24":0.1243382691689078}},{"sx":1,"sy":1,"depth":25,"w":{"0":-0.2200180460336932,"1":0.018557265868721765,"2":-0.16501969729825566,"3":0.2942411058383012,"4":-0.2594074901554765,"5":0.43137968960216105,"6":0.21007512570683667,"7":0.08654401241797217,"8":-0.2093225498930006,"9":0.08071908257210343,"10":0.12263881234052475,"11":0.03761937166703555,"12":-0.2845286023585681,"13":0.16775009267873459,"14":0.2407332236077894,"15":0.17107152693047875,"16":0.2509541411387681,"17":0.060216332822916274,"18":0.0817312668537985,"19":0.038741026141251335,"20":0.22762924780413618,"21":0.31701310942058597,"22":-0.25869485526173114,"23":-0.3515640995247608,"24":0.0986037072715523}},{"sx":1,"sy":1,"depth":25,"w":{"0":-0.029989524675503202,"1":0.11565414458606663,"2":0.09158370592628504,"3":0.35145446185576656,"4":-0.36931773767070186,"5":0.06334622601381142,"6":0.13519765267571765,"7":-0.019217036288658042,"8":0.011009743537131172,"9":0.0529225544717518,"10":-0.033451461388312315,"11":-0.2764256527673313,"12":-0.10332088774401084,"13":-0.06062340020124703,"14":0.2700649297452415,"15":0.838719165536042,"16":0.013717388244820286,"17":-0.39783884789433593,"18":0.10028505463394262,"19":0.20109435332464956,"20":0.041103104685610875,"21":-0.11659725927008384,"22":0.10788790885066027,"23":-0.011614029141091928,"24":-0.12378595466664052}}],"biases":{"sx":1,"sy":1,"depth":5,"w":{"0":0.0037052447429524083,"1":0.01676979892147684,"2":0.012990235133427102,"3":-0.0040305467000283455,"4":0.020627130720214853}}},{"out_depth":5,"out_sx":1,"out_sy":1,"layer_type":"regression","num_inputs":5}]});
}