
//<![CDATA[

// a few things don't have var in front of them - they update already existing variables the game needs
lanesSide = 5;
patchesAhead = 30;
patchesBehind = 20;
trainIterations = 100000;

// the number of other autonomous vehicles controlled by your network
otherAgents = 6; // max of 10

var num_inputs = (lanesSide * 2 + 1) * (patchesAhead + patchesBehind);
var num_actions = 5;
var temporal_window = 3;
var network_size = num_inputs * temporal_window + num_actions * temporal_window + num_inputs;

// DON'T CHANGE
var layer_defs = [];
    layer_defs.push({
    type: 'input',
    out_sx: 1,
    out_sy: 1,
    out_depth: network_size
});

// CHANGE
layer_defs.push({
    type: 'fc',
    num_neurons: 50,
    activation: 'relu'
});
layer_defs.push({
    type: 'fc',
    num_neurons: 50,
    activation: 'relu'
});

layer_defs.push({
    type: 'fc',
    num_neurons: 50,
    activation: 'relu'
});layer_defs.push({
    type: 'fc',
    num_neurons: 20,
    activation: 'relu'
});

layer_defs.push({
    type: 'fc',
    num_neurons: 10,
    activation: 'relu'
});
// DON'T CHANGE
layer_defs.push({
    type: 'regression',
    num_neurons: num_actions
});

var tdtrainer_options = {
    learning_rate: 0.001,
    momentum: 0.0,
    batch_size: 64,
    l2_decay: 0.01
};

var opt = {};
opt.temporal_window = temporal_window;
opt.experience_size = 3000;
opt.start_learn_threshold = 500;
opt.gamma = 0.7;
opt.learning_steps_total = 10000;
opt.learning_steps_burnin = 1000;
opt.epsilon_min = 0.0;
opt.epsilon_test_time = 0.0;
opt.layer_defs = layer_defs;
opt.tdtrainer_options = tdtrainer_options;

brain = new deepqlearn.Brain(num_inputs, num_actions, opt);

learn = function (state, lastReward) {
brain.backward(lastReward);
var action = brain.forward(state);

draw_net();
draw_stats();

return action;
}

//]]>

/*###########*/
if (brain) {
brain.value_net.fromJSON({"layers":[{"out_depth":379,"out_sx":1,"out_sy":1,"layer_type":"input"},{"out_depth":30,"out_sx":1,"out_sy":1,"layer_type":"fc","num_inputs":379,"l1_decay_mul":0,"l2_decay_mul":1,"filters":[{"sx":1,"sy":1,"depth":379,"w":{"0":0.006500258361617384,"1":-0.059959459905082536,"2":-0.04992525327048566,"3":0.08279252748063905,"4":0.0705883703701145,"5":0.010318456077516656,"6":0.10675257558184409,"7":-0.07551195341468467,"8":-0.0654999093063508,"9":-0.028752875143733595,"10":0.0933186137324498,"11":0.008229201086960644,"12":-0.037729814587028065,"13":0.047447397411372313,"14":-0.02109174287619875,"15":-0.07386844663853583,"16":0.03450462952531655,"17":0.021056895220710872,"18":-0.015934530912407992,"19":0.013302691785858144,"20":0.02341252927396655,"21":0.0284126013800678,"22":0.04406516593564444,"23":-0.04998873980953952,"24":0.04913537087567107,"25":-0.09822517184817374,"26":0.01077655068441563,"27":-0.07026004328721029,"28":0.02669062615961884,"29":-0.06181832359752661,"30":-0.0029618531370721765,"31":0.05970031148865035,"32":0.015192735874952264,"33":-0.07123054746121152,"34":0.00006422983182665137,"35":-0.07353245220339516,"36":0.07773029589604463,"37":0.03888349529285071,"38":0.040338840029474486,"39":0.0467537738980279,"40":-0.009180448287237538,"41":0.04172240572715526,"42":-0.04481251764188763,"43":0.006320680489153769,"44":-0.04576365502434515,"45":-0.012146937033505651,"46":-0.0033133887131861824,"47":-0.031226712252440496,"48":0.023483586840689276,"49":-0.027811371018900584,"50":0.040502288507775645,"51":-0.0829789414482358,"52":0.048045576199113225,"53":-0.10670222100673774,"54":-0.02649339673224017,"55":0.025803166058827553,"56":0.029602787295241864,"57":-0.03832111710492663,"58":-0.06062827268225228,"59":0.010662464703902336,"60":-0.09201826874414595,"61":-0.06951242007257243,"62":0.09664846766589558,"63":0.030608554858629032,"64":-0.06001613380055311,"65":-0.021350420229161532,"66":-0.012801575980898048,"67":-0.0041681699418300005,"68":-0.0021830187713257165,"69":0.028795476599214755,"70":-0.0720048937092087,"71":0.017575010740681137,"72":-0.08760742351387459,"73":0.021410233009463195,"74":0.033247659089406724,"75":-0.06050940208432548,"76":0.015674616327316825,"77":0.009841440380079381,"78":-0.06480206609222697,"79":-0.10517687903460408,"80":0.08089864174411625,"81":-0.03849751373630574,"82":0.013769254543181883,"83":0.039409730714177714,"84":0.002544153951406448,"85":0.053427177115669154,"86":0.02242287701053227,"87":-0.006833590139912622,"88":0.062317348747132975,"89":0.061393334729789494,"90":0.10343291795346723,"91":0.03565592159632723,"92":-0.044498441500638676,"93":-0.03065968870044108,"94":-0.059721776249802086,"95":0.07344221996153626,"96":-0.045965186165599775,"97":0.04216267929465775,"98":0.0013129768679930067,"99":0.031746012195379716,"100":0.0061949800357011045,"101":-0.022288973534408178,"102":-0.010515786153239481,"103":0.00408443782507766,"104":-0.0036039463023287027,"105":0.050742156891739006,"106":0.02128597410131868,"107":0.03961547512576985,"108":0.04508264143661204,"109":0.0030773128099433936,"110":0.051016023443635136,"111":-0.02296087361214959,"112":-0.03288470619478774,"113":-0.012181926832803891,"114":-0.04867110810868055,"115":0.04805701390145483,"116":-0.019317182611667063,"117":0.005045762193279615,"118":0.01899376483978672,"119":-0.013955301075385323,"120":-0.07877536379786576,"121":-0.024487425161058507,"122":0.053262423764638855,"123":0.008952034275400953,"124":0.0838024053677298,"125":0.044445667289962514,"126":0.03961335939183771,"127":-0.02726774594283359,"128":-0.025385668119585116,"129":0.051737134448763954,"130":0.0013335419126809897,"131":0.01809364200428413,"132":0.035842975735890965,"133":0.012006388815301893,"134":0.04639479353434674,"135":-0.007887189213028927,"136":0.024866216639645167,"137":-0.05584788567751663,"138":-0.054315365462504275,"139":0.012020943862007152,"140":0.027434413220710413,"141":-0.012021913430214914,"142":-0.09686556924532899,"143":-0.029341338228249088,"144":0.11351043903095628,"145":-0.0889821552378642,"146":-0.044755427730324066,"147":-0.034117005654965726,"148":-0.03755390548323173,"149":-0.011442465519638144,"150":0.1134146978891444,"151":-0.04128913883124893,"152":-0.024684023540908033,"153":0.07425016976859312,"154":0.037339314045786796,"155":0.01989152460493385,"156":-0.03867724114935821,"157":0.10495358195735624,"158":0.11561679200443793,"159":-0.038737880770165316,"160":-0.023532240511532982,"161":-0.06776657754513088,"162":0.076842215470956,"163":-0.00815556014679292,"164":-0.02159532560610272,"165":0.047840614715563154,"166":-0.07962324330264316,"167":0.07596400563989325,"168":0.020399826284916076,"169":-0.09528795198018859,"170":0.008981170442085315,"171":0.06492848170924985,"172":0.08367181319441595,"173":0.024463886438536264,"174":-0.0172707677329439,"175":0.02778933392735352,"176":0.0697307009597892,"177":-0.0589303306177719,"178":0.02693730485224769,"179":0.04230958869588394,"180":0.06828862050614994,"181":-0.004858532289762645,"182":-0.10073572275232255,"183":0.08550250342803553,"184":0.09623436051435057,"185":-0.1595629841159501,"186":0.05493425623155138,"187":0.0015307404140396453,"188":-0.06554911985704207,"189":0.0693477686075256,"190":0.09914826148699556,"191":-0.06195423340891687,"192":0.0424863927004487,"193":0.004140486828248044,"194":0.017270448974601983,"195":-0.0005434680455576093,"196":-0.026472698595801068,"197":-0.012652123494788758,"198":-0.019915832865778856,"199":0.05609592450290445,"200":0.014695835057731836,"201":-0.03907287581261519,"202":-0.050501356286584004,"203":-0.012673210312094075,"204":-0.04663156121591749,"205":0.07924713789616143,"206":0.11256507308414133,"207":-0.015421598294084023,"208":0.03779538315644217,"209":-0.08964775409766325,"210":-0.013465841097129653,"211":-0.03594418301007873,"212":-0.03113738892316644,"213":0.028341532404675178,"214":-0.07093014378446642,"215":-0.04123596041365662,"216":-0.0012996732268126087,"217":-0.01103632644047757,"218":0.03519761724805111,"219":0.007209631607152492,"220":-0.06406315041500102,"221":0.07139374984924886,"222":-0.020670472587651735,"223":-0.03986577174045016,"224":-0.04054444960864414,"225":-0.029147341166849805,"226":-0.0005049027535061982,"227":0.05340663244125683,"228":-0.0810522431134015,"229":-0.07836984878835171,"230":0.023638201916100512,"231":0.051429589677639415,"232":-0.03741157286632109,"233":-0.006888433669693154,"234":-0.028665326700896762,"235":-0.0008840304892506465,"236":0.0666723354488724,"237":-0.00784052808206467,"238":0.03215985994088998,"239":-0.041985687810049806,"240":-0.06362640753971555,"241":-0.03776256000114479,"242":-0.051962974076517225,"243":-0.00408369309742985,"244":0.0346468446285609,"245":0.09965513147771286,"246":0.0308122520367181,"247":0.0015057408393653853,"248":0.014009173883540825,"249":0.11599943382410013,"250":-0.017037003356338665,"251":0.06159307685760757,"252":-0.09885321824058137,"253":0.0013171604749808727,"254":-0.037616865244799416,"255":-0.0695461532121361,"256":0.07550069573167636,"257":-0.021401190789342148,"258":0.09282161330761148,"259":0.03284153950796614,"260":-0.04546018662691319,"261":-0.037931891753573484,"262":0.09264828186724462,"263":0.07055713441085082,"264":0.05011626742723545,"265":-0.0831732903304131,"266":0.0015779193654145841,"267":0.03540475119439116,"268":0.044716205589982995,"269":0.09255213829690183,"270":0.03461120504993121,"271":0.00243887343556045,"272":-0.023566224836255905,"273":-0.06297112468873708,"274":-0.040575020824079995,"275":-0.018898558017651317,"276":-0.07106344663775273,"277":-0.00207680534444574,"278":-0.025063175545138133,"279":-0.1129359967027849,"280":0.004995783341304316,"281":0.01510033260791226,"282":0.011597052978553575,"283":-0.0434869694483735,"284":0.01731493506962244,"285":0.023323910010828085,"286":0.0005300196058408732,"287":0.050777994462366256,"288":-0.06247395270670197,"289":0.03242904884935236,"290":0.001969922610109766,"291":-0.08541173714201705,"292":0.018130270603900975,"293":-0.03669138587666604,"294":-0.015334972744716105,"295":0.029501335467421463,"296":0.007209635904225197,"297":0.07284013638491704,"298":-0.01165378044757835,"299":0.06304322498438995,"300":-0.04556699461729754,"301":0.04352991125718442,"302":0.0043712064864863485,"303":0.08377846199256667,"304":-0.06399722024896216,"305":-0.00852439427796872,"306":0.06135913766643048,"307":-0.007435479332219871,"308":0.0011238167864729646,"309":-0.007503563546480251,"310":0.08021635584058995,"311":0.11086241926108707,"312":-0.05502469368057287,"313":-0.02673931070977161,"314":-0.05193041346156624,"315":0.004994260259259596,"316":0.014965095080183953,"317":0.05136877555472251,"318":-0.03565373263207615,"319":0.028890818858417634,"320":-0.027479461924554895,"321":-0.041019275034565685,"322":0.006691943936715689,"323":0.0035171450906143972,"324":-0.055965619859368286,"325":-0.023002674682235737,"326":-0.06543502057356503,"327":-0.03916496120530898,"328":-0.029527854628625692,"329":0.014355455049094672,"330":0.05353936761116056,"331":-0.044489021433609034,"332":0.06795854681326956,"333":-0.0353560976229307,"334":0.0012250098100107204,"335":0.07942038412124175,"336":-0.00012939539140877193,"337":0.0008058082877173375,"338":0.09354343508528007,"339":-0.07196174324071863,"340":0.031178011278592897,"341":-0.04612693527983788,"342":-0.06808529662038285,"343":0.019215457255907252,"344":-0.017485043727449908,"345":-0.016150978419608702,"346":0.023866630730480412,"347":-0.007055018290110172,"348":-0.031367871861800324,"349":-0.014870134511872628,"350":-0.08503265056728207,"351":0.04441813654347956,"352":0.04838717457012126,"353":-0.010247445061065162,"354":-0.08529130876778948,"355":0.02591647582389183,"356":-0.02317815544175539,"357":-0.024089210466023563,"358":0.022463520005758606,"359":-0.06969345224376335,"360":0.013592360787157552,"361":-0.004084632769164136,"362":-0.08791114859886415,"363":0.02762831883044125,"364":-0.05447516559000879,"365":-0.008818585502062456,"366":0.007438631765940483,"367":0.035798135728973654,"368":0.03652503476197807,"369":0.011248192799795971,"370":-0.02638014012942565,"371":0.0035965164926640646,"372":-0.009974503113979143,"373":0.07138636023365018,"374":-0.17065129599323,"375":-0.025014398209329224,"376":0.08329780613277668,"377":-0.0345725313026913,"378":0.10497359403091383}},{"sx":1,"sy":1,"depth":379,"w":{"0":-0.0848120044863945,"1":0.019775514731969698,"2":0.10145701637579758,"3":0.03766476950038551,"4":0.01833410155882011,"5":-0.03660369796279242,"6":-0.008820962873911046,"7":0.03955125226990812,"8":0.04530875552973848,"9":-0.00992921378561359,"10":0.0523524670214288,"11":-0.015804625637067377,"12":-0.016418766014045662,"13":0.028546171527753558,"14":-0.09270520493006514,"15":0.10913393068281146,"16":-0.009370955102144508,"17":0.06234781094341417,"18":-0.0061324924205441635,"19":0.001966411457294238,"20":-0.046745820643852715,"21":0.06584805568406471,"22":0.003414602252853707,"23":-0.03573999233399359,"24":-0.04592222320968989,"25":-0.06563186018612602,"26":0.0540050079686639,"27":-0.018647553716920312,"28":-0.12515058410961102,"29":0.011925554322575383,"30":-0.07414016986123913,"31":-0.07158286060361818,"32":0.0004755056325325859,"33":0.06096245752661835,"34":-0.07397292067159082,"35":-0.0072713873092826176,"36":0.014976986936673844,"37":-0.096786810096497,"38":0.026218752129055285,"39":-0.0005565761742226488,"40":0.08802099651775702,"41":0.009157517926965154,"42":-0.08549402144370549,"43":-0.05340894061939936,"44":-0.03303556819432215,"45":0.0030153800125838856,"46":-0.06903218179681347,"47":0.058876034294261116,"48":0.012159594380273935,"49":0.08595909545339316,"50":-0.009120738616484964,"51":-0.02967528289384874,"52":-0.08137763689264237,"53":-0.019272391168150847,"54":0.01947731854202167,"55":0.02289406450422829,"56":0.01495790085722636,"57":-0.02579485885574442,"58":-0.04347578614700992,"59":-0.055813057263571955,"60":0.0015121882332645195,"61":0.12566997437391234,"62":0.06535766808668658,"63":0.033129295679019385,"64":0.015028401593188115,"65":0.030681255144773413,"66":-0.01896456182171451,"67":-0.012820139110775959,"68":0.013624181432842159,"69":-0.04391755616219545,"70":0.01614705974894093,"71":0.09374853770274315,"72":-0.08718944997614585,"73":0.06484199921764075,"74":0.02706046344681859,"75":-0.007601069930748798,"76":0.10321510226019165,"77":0.006467723313922029,"78":-0.01471087616279447,"79":0.08273549150823763,"80":0.00605229937222527,"81":0.037433970575811104,"82":-0.009768968690039369,"83":0.14776433186808008,"84":-0.027525988727503583,"85":-0.059706979817119046,"86":0.034700319415422926,"87":0.014016632735927188,"88":0.019531161186262195,"89":-0.03552917657295441,"90":0.05975781699452527,"91":0.012029566858699275,"92":-0.04935117496933229,"93":0.004036270574649222,"94":-0.09086648860332451,"95":-0.05895562279476821,"96":-0.007557033077844104,"97":0.04676031208257732,"98":-0.11038989958927173,"99":-0.018113958727288184,"100":-0.001573533963163847,"101":-0.03494842678049355,"102":-0.01105761851624726,"103":0.026254894487784897,"104":-0.061318430303723116,"105":-0.04391000334356786,"106":-0.12201499547488003,"107":0.0722178499663057,"108":0.05309362327367492,"109":-0.005878096681574755,"110":0.059733126627686366,"111":0.09089677357639427,"112":-0.0070300081125534465,"113":0.09980358743510707,"114":0.024604590768720364,"115":0.027065271601241062,"116":0.056718437962051275,"117":0.028281678839616936,"118":0.02004389433814898,"119":0.06195054939166793,"120":0.05976629387999412,"121":-0.030995713233373048,"122":-0.013704143320478545,"123":0.06794483977255968,"124":-0.09441146953100328,"125":0.074120650830453,"126":-0.03851661793074823,"127":-0.019816336230580472,"128":-0.000016724492595242385,"129":0.037310388394767836,"130":0.01925755391556672,"131":-0.026895896302393828,"132":0.022931720753163527,"133":0.023610682589265363,"134":-0.02721588091487615,"135":0.08141451082144917,"136":0.016970684828210385,"137":-0.02509821881871983,"138":0.0870227595662946,"139":-0.04558836663326104,"140":0.018396011337553676,"141":-0.04921275209067594,"142":0.023307625905858987,"143":-0.06634435513316114,"144":-0.12351168763936411,"145":0.08146404332707706,"146":-0.07355799880709082,"147":-0.026787629684081757,"148":-0.031057366200991653,"149":-0.019904709717397676,"150":0.028336073260053427,"151":0.030708695647044516,"152":-0.01197854091548858,"153":-0.029170550243115063,"154":0.05183134806920464,"155":0.11659603729965991,"156":-0.012472264886220406,"157":-0.03405652749532476,"158":0.051934673583531224,"159":0.056084939587231326,"160":0.025452481672862962,"161":0.022213643080760258,"162":0.07572827415559803,"163":-0.03915274816976994,"164":0.0017490122974194936,"165":-0.035921704835423805,"166":0.043077890093734174,"167":-0.051224092606276035,"168":-0.021779902089221623,"169":0.06961865353128795,"170":0.00006227509403390516,"171":0.01124438880866431,"172":0.1282229367014703,"173":-0.013103032774894885,"174":-0.059800079524055284,"175":0.006638593844684395,"176":-0.04220998450549063,"177":0.05609676868353952,"178":-0.009280696219387818,"179":0.023906184855468453,"180":0.02943832078807439,"181":-0.011705931849978592,"182":0.05784025135237531,"183":-0.10662067669078638,"184":-0.00025600074915848605,"185":0.021546254579969476,"186":-0.012935709981999213,"187":0.05184203836183822,"188":-0.02454194816600957,"189":0.006262103008938297,"190":-0.042948235607292,"191":-0.02083411352963909,"192":0.05583265182858018,"193":-0.011707979204470625,"194":-0.021415520434694208,"195":-0.03118282007164273,"196":0.10119647339978866,"197":0.06811591602157095,"198":0.09369322879047158,"199":0.024032406152634456,"200":-0.01906625486437294,"201":0.037403851223649275,"202":-0.0432218271930267,"203":0.026902388013675914,"204":0.0037097716456841604,"205":0.05928921597377163,"206":0.03277448210004091,"207":0.011294969670796786,"208":-0.008052391156487086,"209":0.028029707794338603,"210":0.049796716146020076,"211":0.10634798180132438,"212":0.0799343412174078,"213":0.08358927583189604,"214":0.028496794622743085,"215":0.04342964212251717,"216":0.04942844479482274,"217":-0.060760492626556854,"218":-0.0007608552024541277,"219":-0.0236067411820997,"220":-0.07632773462305951,"221":-0.059215633742958705,"222":0.06781196884760558,"223":0.028948466575966593,"224":0.06513328008190265,"225":-0.03243516824461731,"226":0.011332784807007902,"227":0.008373422079469879,"228":0.006434538468055972,"229":-0.010053383999111267,"230":-0.037973769393129034,"231":0.060334350277010715,"232":0.01833451056057304,"233":0.11959295882209492,"234":0.05742277671849769,"235":0.01684060606296297,"236":-0.048018364726337866,"237":-0.032761119126674454,"238":-0.02009621468850606,"239":-0.02812730074615344,"240":-0.09423621350958464,"241":0.05005115479560927,"242":0.09689746001251465,"243":0.05828005294075945,"244":0.03711862282394723,"245":0.10737472338185,"246":-0.02214131383667456,"247":0.023539491706655997,"248":0.04020209734345522,"249":-0.08247666065432628,"250":-0.026551612132865738,"251":0.03659965892576608,"252":0.045861761848200865,"253":-0.015981385796172996,"254":-0.035529304569298856,"255":0.017375619946613463,"256":0.05162228705205158,"257":-0.09242569344424026,"258":-0.016137003151191612,"259":-0.0005760041184820012,"260":0.08839365510031211,"261":0.07117971153087806,"262":-0.006168880875627394,"263":0.07085922464387996,"264":0.0018554734206719281,"265":0.0656743159402048,"266":-0.08325555234733857,"267":-0.037432709339798274,"268":-0.009922199540094644,"269":0.03399582545798253,"270":-0.08193240673591366,"271":-0.04728244947860405,"272":-0.021395980513073256,"273":0.057328896841089376,"274":0.008225225196222341,"275":0.032994115685899376,"276":-0.04919259100653158,"277":0.03612659391243923,"278":-0.05342614202783379,"279":-0.14225021440226862,"280":-0.03967743701033238,"281":0.08583321516063543,"282":0.14710563049316308,"283":-0.006593987016162161,"284":0.08729439791622601,"285":-0.03939408353371476,"286":0.01688458933951527,"287":0.05012410748020407,"288":-0.08166563491696674,"289":0.008252015758089464,"290":0.03653283385242088,"291":-0.0015666846086454323,"292":0.030795813014952964,"293":-0.006308859135905935,"294":0.010574008394914586,"295":-0.07595713740974634,"296":0.04329109822583958,"297":-0.00019179099170521033,"298":0.07135155065057082,"299":-0.0662499372556735,"300":0.052213252582863245,"301":-0.0029817476243698456,"302":-0.007093265590529941,"303":0.0788316475068434,"304":0.015509308253081156,"305":0.06786175500919504,"306":-0.011090754086844453,"307":-0.06302323069650884,"308":0.014303555789757486,"309":0.09628982781702544,"310":0.0008113658594838281,"311":-0.016841285075308902,"312":0.027631332752026668,"313":0.05940328711070071,"314":0.05202853094584428,"315":-0.003937459878117022,"316":-0.01889967335685971,"317":0.0501098485677896,"318":-0.05403225621533926,"319":0.04573533314710179,"320":0.05442210548405331,"321":-0.13548099323160823,"322":-0.0681147445862398,"323":-0.10057200434576387,"324":0.0025482552015474434,"325":-0.01625409993106469,"326":-0.012549227895702035,"327":-0.07727944239452045,"328":0.06632908544183207,"329":0.004090644665980142,"330":-0.03065222201712308,"331":0.010241663859576113,"332":0.045786591048487466,"333":-0.08814061046356154,"334":0.08544517193005449,"335":-0.12531847178339706,"336":-0.03829930000160598,"337":-0.07433434924707497,"338":0.05889441565780364,"339":-0.04321059166078627,"340":-0.007647572179740782,"341":-0.004446988855734148,"342":-0.08006424728213786,"343":-0.008778767337624192,"344":-0.036741069186081235,"345":0.019711928836544317,"346":-0.0007547755503335936,"347":-0.07676078486668046,"348":0.022824213579281948,"349":-0.028088016762332857,"350":-0.024319868060620135,"351":-0.011588536894544706,"352":0.0020818241831865526,"353":0.06006527559135833,"354":-0.05069421370078668,"355":0.07387031044048842,"356":-0.08749397176873863,"357":0.004865720985156617,"358":-0.0674855088438957,"359":0.0495526519654615,"360":0.07184846868003973,"361":-0.054749394608830985,"362":-0.07413996855113524,"363":-0.004875860037224773,"364":-0.013252681889172361,"365":-0.018010459186273125,"366":-0.016515165890275917,"367":0.06507826194174117,"368":0.016291915180771475,"369":0.009461902661156379,"370":-0.03228655513844702,"371":0.06276361671627369,"372":0.08455219352547162,"373":-0.05031804555148468,"374":0.05885098092988963,"375":-0.18933837226193595,"376":-0.09299860504412942,"377":0.0506914292478359,"378":0.02317361976186365}},{"sx":1,"sy":1,"depth":379,"w":{"0":-0.03419754968140275,"1":-0.07560981857372188,"2":-0.11918785867402396,"3":0.06332767779875209,"4":-0.03790446465722938,"5":-0.023697871319398586,"6":-0.06750948238044563,"7":0.06571078220364006,"8":-0.061681224678992036,"9":0.00009691494006896762,"10":0.03538307049045257,"11":0.017624592079040075,"12":0.02555769641970445,"13":-0.055123868632624445,"14":0.0017438224942287954,"15":0.03899532876484144,"16":0.01919066216259989,"17":-0.01247938371932621,"18":-0.10769326775193433,"19":0.1123018820045406,"20":0.04099610129863476,"21":-0.13050876057516694,"22":0.004059407348840604,"23":-0.03235619061263571,"24":-0.05241771198167285,"25":0.0398326636522669,"26":-0.00885122393848401,"27":0.039805897572862625,"28":0.032004126697679006,"29":-0.018146933884812012,"30":-0.009071830521809734,"31":-0.013707933817321463,"32":0.07946030832721981,"33":-0.03204415880740974,"34":0.07463348162508639,"35":-0.04857070612121939,"36":0.032916406305994836,"37":-0.03713577019804895,"38":-0.06252415825261257,"39":-0.08444538967025333,"40":0.03007271995627428,"41":0.03958437605230271,"42":0.023310918381320846,"43":-0.002828382347720354,"44":-0.11874426248147335,"45":-0.07844132242448597,"46":-0.0012797771743845675,"47":0.04809980012496247,"48":0.021815393311437295,"49":-0.040917293555166614,"50":-0.032785716004094426,"51":-0.0927014991719908,"52":0.06005440724355141,"53":0.07045872843499956,"54":0.07047862865965804,"55":-0.03600809803592387,"56":-0.03148012628356886,"57":0.02548554054110694,"58":-0.030225308418003492,"59":-0.052016390194667535,"60":-0.08227210197784501,"61":0.04375781438223802,"62":-0.0034143919554255426,"63":0.07663056842834967,"64":-0.05799342495183525,"65":-0.0543465353541073,"66":0.0030163720442432334,"67":-0.09782589322855383,"68":-0.035370660720614906,"69":-0.027490853715596307,"70":-0.03163705643667548,"71":-0.09875267433394365,"72":-0.049158672277072546,"73":-0.026144443902472454,"74":0.025923561874228066,"75":0.14641820347658974,"76":-0.03695301262652271,"77":-0.016386960146859225,"78":-0.0285167213917002,"79":-0.0846874336820252,"80":-0.030509790822310763,"81":-0.10300677103350338,"82":0.0062214228009381456,"83":0.13521376125492673,"84":-0.03206816651361405,"85":-0.027610425431431312,"86":0.08390192596116303,"87":-0.039690458964422165,"88":0.022890053642879413,"89":0.11073166887203315,"90":-0.0022935264274934635,"91":0.06190398703638321,"92":0.06924579980792397,"93":-0.06702414845999649,"94":-0.048326693401891094,"95":0.007308283774426001,"96":-0.04488543743149902,"97":-0.06729721867463796,"98":0.04237851978609124,"99":0.04551160603785052,"100":-0.0999751022092067,"101":0.009057758008075973,"102":-0.022214269281903093,"103":0.03907794251896397,"104":0.019744036512849505,"105":-0.0878858657164938,"106":-0.03344393932789439,"107":0.10973166066072242,"108":-0.11146903324494649,"109":0.020404721451357674,"110":-0.09533397245777794,"111":-0.027483860002120723,"112":0.07358847754799568,"113":-0.042033109527439494,"114":-0.03922655001027209,"115":-0.011987477746504849,"116":-0.056133489524096546,"117":-0.019521920947297846,"118":0.12241303206197923,"119":-0.0016248639525487788,"120":-0.03541225010296978,"121":-0.007223752540210655,"122":-0.10070137685591957,"123":-0.006321927535414532,"124":-0.007924008757243963,"125":0.06053282120592495,"126":-0.02870759453182304,"127":0.0003761353424607179,"128":0.004719555544766176,"129":-0.06560520815574906,"130":-0.021242481428735978,"131":0.08257959492803765,"132":0.11551343837210819,"133":-0.0631000845416662,"134":-0.023149934143716033,"135":0.041205004836107284,"136":-0.07722807338598953,"137":-0.006040250064367457,"138":0.015421770247089005,"139":-0.016501366097939566,"140":-0.022936266319832727,"141":0.029176121792526797,"142":-0.00885310161371073,"143":-0.04097796048302145,"144":0.053381035834323735,"145":-0.02095346862249566,"146":0.025172513834948732,"147":0.043660112838299514,"148":-0.07288629698735727,"149":0.01758180066866576,"150":0.014697937478234765,"151":0.0640561841683513,"152":-0.01760186675835753,"153":0.009811790774564453,"154":0.02875081709634893,"155":0.04559152403031197,"156":-0.13212598927325403,"157":-0.021615809232254556,"158":-0.09760845537934783,"159":-0.03751858531821201,"160":-0.03212115473339579,"161":-0.0286225689176471,"162":-0.05166302895616278,"163":-0.0030347611040611637,"164":-0.020710207210447674,"165":0.12135009326341901,"166":-0.008020393361234005,"167":0.05206611150698346,"168":0.006139661404332091,"169":0.0672927829518961,"170":-0.029990921051180223,"171":-0.05287164249610397,"172":0.03340597449445987,"173":0.0331157997664358,"174":0.021244333667469265,"175":-0.00579611104306082,"176":0.0448119632534837,"177":-0.021176959507824576,"178":0.003842411163553166,"179":0.05634648520115881,"180":0.06723490701529537,"181":0.005762887879563191,"182":-0.10754928210036406,"183":-0.08054298175821416,"184":0.08634027503506551,"185":-0.011650768192609875,"186":0.033984036267697394,"187":0.026782989961882425,"188":-0.06795629299428635,"189":-0.05678462882239524,"190":0.04635669993339696,"191":0.045516856196469946,"192":0.011144394620605702,"193":0.022282421807642054,"194":-0.02339485147086691,"195":0.07017726257939927,"196":-0.019302047186971993,"197":0.05817902615227738,"198":0.024217922591999935,"199":-0.010867372531883197,"200":-0.10552581412928307,"201":0.0201672107162105,"202":-0.006890571411833177,"203":0.05985247642795067,"204":-0.016992683435654875,"205":0.09002062464526098,"206":-0.017463964665768272,"207":0.032973712580703,"208":0.0615506332927334,"209":-0.014132337219864012,"210":0.0005108236483680492,"211":-0.01165563440293484,"212":-0.003002609881491929,"213":-0.05252545951711203,"214":-0.04191894633561019,"215":0.03276285765977206,"216":0.0602678383279804,"217":0.02368745854070457,"218":-0.003975254739611808,"219":-0.07135891622533302,"220":0.08781484715988361,"221":0.023879960652910454,"222":-0.013295162359930656,"223":0.003275238039326017,"224":0.060269517405398244,"225":0.020248431808047158,"226":0.08618103805432907,"227":-0.04259755605412661,"228":0.051384080195637234,"229":-0.0404846193478441,"230":0.003741105003982545,"231":0.05369022324755996,"232":-0.06571928933972172,"233":0.03374068630094432,"234":0.05086865291601676,"235":0.075922066411723,"236":0.09711497255304298,"237":-0.009688637667965076,"238":0.004616845546993028,"239":-0.02114826728867396,"240":0.0014185488100537436,"241":0.028928933612299514,"242":0.0861700668262475,"243":0.060703237367442056,"244":-0.0268493862994374,"245":-0.003976302624361593,"246":-0.029007041005940412,"247":-0.010786540511121441,"248":0.06389663190846183,"249":-0.014987299619163206,"250":0.021403484349317978,"251":-0.015002026879507456,"252":-0.05350862656340634,"253":0.006839887308675,"254":-0.048929779605465615,"255":-0.039239193802838336,"256":-0.09056129386651761,"257":-0.09143791500886687,"258":-0.016579044506831262,"259":-0.03606835068833606,"260":0.01497845473134768,"261":-0.011745967547361312,"262":-0.08774898734437636,"263":-0.04809931857271852,"264":-0.08278085829147248,"265":-0.06835721947375886,"266":-0.09526022548583196,"267":-0.11539645732794994,"268":-0.0127932366871793,"269":-0.02688203106609969,"270":0.0828217308170387,"271":-0.043454970524769744,"272":-0.0744887469268897,"273":-0.028404367196767293,"274":0.046084908182194205,"275":-0.0045770313234336,"276":-0.13530983921894277,"277":0.018009800789090074,"278":0.11545442678841115,"279":0.0211988006879983,"280":-0.006708773152263869,"281":-0.0031321991794903657,"282":-0.11430035709769305,"283":-0.04370436783664409,"284":-0.056470890977294685,"285":-0.026093993922664243,"286":0.07707285145036867,"287":0.06454929144956355,"288":0.028690255964057835,"289":0.0119405486209743,"290":0.054676163758211334,"291":-0.005207909045208063,"292":-0.015750035956154932,"293":0.04849166730363315,"294":-0.05500225167752538,"295":-0.029272558871468478,"296":-0.044785728342375965,"297":0.003729295236248603,"298":-0.05004813217115313,"299":-0.05956708265266085,"300":0.00239840369505314,"301":0.16672525091244073,"302":-0.07777266403797337,"303":-0.07845671095912196,"304":-0.03212658040458733,"305":0.010276163815656035,"306":0.08156472937474397,"307":0.014976764603551518,"308":-0.04604087573770503,"309":-0.027146117671213724,"310":0.033794239461115136,"311":0.02819005448110261,"312":-0.0197006237891553,"313":0.06917379203062013,"314":0.10475166954017137,"315":-0.04989806644550175,"316":0.002748971669283665,"317":0.02780743038368172,"318":0.08031740905550586,"319":0.0012736144465697076,"320":0.1055850906022721,"321":-0.0845450514950187,"322":0.022148160188096705,"323":-0.0774024807621589,"324":-0.03831713595148337,"325":0.07704357885056262,"326":0.0454542467603471,"327":0.03624356987507756,"328":-0.007072359981322599,"329":-0.009011686476011435,"330":-0.08909789437329735,"331":-0.011602593469405325,"332":-0.01985557651340923,"333":0.04379636023752917,"334":-0.08873138236377452,"335":0.009446225237294527,"336":0.007117646508600011,"337":0.014713471459506392,"338":0.050401634046218884,"339":-0.08112612941788859,"340":-0.11185767080476998,"341":-0.017706468267458562,"342":-0.027818573332532962,"343":0.038023459748329054,"344":-0.024130423608243495,"345":-0.05180952025989415,"346":-0.026179343772969488,"347":-0.02825109391232747,"348":0.07351834008874636,"349":0.00218741751233089,"350":-0.022859476082809173,"351":-0.008381729096717676,"352":-0.016233861235647514,"353":-0.04652533022901191,"354":0.04493537080346513,"355":0.07680074634484231,"356":0.036047980721445,"357":-0.0007064863429117001,"358":-0.07663813816690956,"359":-0.04381371718452395,"360":-0.04680568547373671,"361":0.055535710165373696,"362":0.011109175981288947,"363":0.04261152613495674,"364":-0.03499940305534226,"365":-0.05435494992892094,"366":0.012924954147615894,"367":-0.06631166185555602,"368":-0.004669294026618997,"369":-0.019292489451874752,"370":0.03658301696664836,"371":-0.003897694808019975,"372":0.016633247293531377,"373":0.05191239935498384,"374":-0.03466175520083456,"375":0.08616928212132274,"376":-0.09492901577477689,"377":-0.03437075312794462,"378":0.10367547788937029}},{"sx":1,"sy":1,"depth":379,"w":{"0":0.0021276631141891557,"1":0.02729677996373464,"2":0.14774355816630202,"3":0.23073929517892497,"4":0.16197752036994792,"5":-0.013728834756572937,"6":-0.04797669364640456,"7":0.05594534695431343,"8":0.06268323677810536,"9":0.07899663391277542,"10":0.13824020610901291,"11":-0.02391852893771845,"12":-0.04003458692705134,"13":0.004595948217578369,"14":0.06396349280409376,"15":0.009958699968191861,"16":-0.07919940613739981,"17":0.09840218412821429,"18":-0.038055721532467064,"19":-0.013306597023575705,"20":0.013519334583412255,"21":0.011412120256095221,"22":0.11897551780903295,"23":-0.031556816382387054,"24":0.025917140594487725,"25":0.09793730622717996,"26":0.05027236706509493,"27":0.015606486864361188,"28":0.02625532570093785,"29":0.03401274603230177,"30":-0.06596644700618287,"31":0.14146902417204632,"32":0.055690999307938714,"33":0.022434197299287462,"34":0.02855683895547581,"35":0.06934167123146846,"36":-0.028135262304126846,"37":0.023231068753760326,"38":0.13998756811834503,"39":-0.023526875737692174,"40":0.03653379631994815,"41":0.020474258706830298,"42":-0.040276185921118916,"43":0.044559588119848566,"44":-0.05250571049591044,"45":0.15739063288009345,"46":-0.029947705825081404,"47":-0.007986670791054312,"48":0.08944822358436139,"49":-0.02783063487408984,"50":-0.02705318999269974,"51":-0.03916541186822318,"52":0.10279745507823589,"53":0.040487969166883735,"54":-0.05630543368014511,"55":0.050973938170769825,"56":0.07160701175319753,"57":-0.08289255164464941,"58":-0.027725133169563886,"59":0.0437323711372063,"60":-0.12225905287781792,"61":-0.03060484057472161,"62":-0.0012138600503485849,"63":-0.014525051367193035,"64":-0.021176009033266285,"65":-0.03457119765205504,"66":-0.016595383424402813,"67":-0.01896882577534072,"68":-0.006104132137771401,"69":0.04283743800347469,"70":0.1185582578015659,"71":-0.11529716940352171,"72":0.04351693807528077,"73":0.004285394931757891,"74":-0.0754477961708469,"75":0.06520263894745765,"76":0.037924226645592925,"77":-0.02848320397456366,"78":0.03209392772233351,"79":-0.08737650142097253,"80":0.007188748495397089,"81":-0.03438587787113498,"82":0.05463872722501532,"83":-0.0038095521070561147,"84":0.0009131333634774333,"85":-0.07732745199632064,"86":-0.02883565044822142,"87":0.05897781147595681,"88":-0.11867512500238464,"89":-0.009444804725280517,"90":0.07661287379964994,"91":-0.04637382791336382,"92":0.06160874124813251,"93":-0.047927183387768614,"94":-0.02098401988311351,"95":0.0325225127412902,"96":-0.021527824915479558,"97":-0.05198094207309547,"98":0.001935149541062607,"99":0.09924758263678181,"100":0.019083650377007908,"101":-0.0366592635016529,"102":0.06286191014250889,"103":0.09385430868508793,"104":0.018796096608649306,"105":-0.061147242639226614,"106":0.004188396818143895,"107":0.03309426192466361,"108":-0.07389505798818881,"109":-0.027001421962962808,"110":0.011218168194604021,"111":0.07088387220166327,"112":0.02705155839805632,"113":-0.012981213447261256,"114":0.027338852906652993,"115":0.052642247004672044,"116":-0.03166354936664507,"117":0.0036275002777618106,"118":0.040535372631386624,"119":0.00032756148413608493,"120":-0.04696702270096523,"121":-0.0419023516210573,"122":0.10645631831475115,"123":-0.10233882389184525,"124":-0.04038270411574941,"125":0.03221476519958165,"126":-0.01956004645806691,"127":0.1044100118051036,"128":-0.1036328860846431,"129":0.012176986811255024,"130":0.07922125191399432,"131":-0.08710591276334326,"132":0.039474778648490964,"133":0.03716944248723156,"134":-0.06549888255290648,"135":0.05809271133742445,"136":0.046811489819446696,"137":0.08405936727058397,"138":-0.044924117605688506,"139":0.016010602056045077,"140":-0.015759973623402364,"141":-0.032062288344760784,"142":0.01657226234591209,"143":0.05015818454915644,"144":-0.12138726213332063,"145":-0.018151252206734223,"146":0.02785041755843703,"147":0.011386932925504543,"148":-0.07647466865311056,"149":0.044732675121235854,"150":0.005206503700765719,"151":0.0377290539460969,"152":0.04054736244617757,"153":0.008651064174258073,"154":0.0447147806723216,"155":-0.05236811993652433,"156":-0.06658256246457446,"157":0.026552949337443,"158":-0.03574563843918042,"159":0.09375171670597222,"160":-0.0005607223069862452,"161":-0.03814789383565222,"162":-0.018452148967032872,"163":0.03841420068477642,"164":0.03280256799850663,"165":-0.09075250218648365,"166":0.05545892885881478,"167":0.07639141968666756,"168":0.0023129685623891746,"169":-0.04803557522988636,"170":-0.011723560809413888,"171":0.07239261420391903,"172":0.019333380127910246,"173":0.1337573114512972,"174":0.0735595817078993,"175":-0.015216053999488003,"176":-0.025303783013670613,"177":-0.01480735334622043,"178":0.031078912015892676,"179":0.015887074047076614,"180":0.0048090489387554525,"181":-0.028559607621372884,"182":-0.15957456252891453,"183":0.13454862221026367,"184":0.015466857439674039,"185":0.17139908947694776,"186":0.02427327337391968,"187":0.018116495284129525,"188":-0.08289536960172102,"189":0.047692451287405,"190":-0.02157535373481311,"191":-0.019793533636159967,"192":0.018100502494410038,"193":0.0809671424028226,"194":-0.03138612978235008,"195":-0.12371053549322335,"196":0.03132477263711396,"197":-0.0893390666742295,"198":-0.04810071259885124,"199":-0.013734405632206244,"200":-0.11363081035063041,"201":-0.0952840823353574,"202":0.04793678736258365,"203":-0.023708502021339756,"204":0.024209626741427775,"205":0.08799956302010929,"206":0.008817160976591451,"207":-0.02077272522401477,"208":-0.07435227799298329,"209":0.055320896764273646,"210":-0.032682135137277746,"211":0.0023811736732384046,"212":-0.0070804309209175735,"213":-0.044352732063045255,"214":-0.023932587021472967,"215":0.034505682843872544,"216":0.017421908490147874,"217":0.009920351284417237,"218":-0.008337798026934526,"219":-0.06319374630894878,"220":-0.04582180254779205,"221":0.05457967874861999,"222":0.05308205187195375,"223":-0.013742537056513383,"224":-0.06441097836162721,"225":-0.005791651026267637,"226":0.026708884071553755,"227":-0.03370431881977252,"228":0.027305320047051593,"229":0.08970509184668089,"230":0.018826335527164447,"231":0.09460625568783608,"232":-0.018189221322079792,"233":0.03352251252535162,"234":-0.0542918567610935,"235":0.005664949782576702,"236":0.001003617793249334,"237":-0.029205168046944962,"238":0.12088642604907107,"239":-0.022261390709019075,"240":-0.05021621613689196,"241":-0.032278173203861255,"242":-0.004514031839921269,"243":0.04498791542464423,"244":0.027440826869727746,"245":0.056395087319349016,"246":-0.037807916904769596,"247":-0.038746362149305005,"248":0.0034532981490661826,"249":-0.018657646114637473,"250":0.0133002332418945,"251":0.040562002994549554,"252":-0.01749356299295113,"253":0.03434163023574847,"254":0.10570789052883743,"255":0.03181680566677496,"256":0.020702002522791807,"257":-0.04892219312889806,"258":-0.0234492957468676,"259":0.02795076666070677,"260":-0.0046826918874435875,"261":-0.032703788686113504,"262":0.05432071049110611,"263":-0.045968560800793534,"264":-0.05722328891420294,"265":0.013458164621393046,"266":0.01101691283387415,"267":0.09461198498255398,"268":0.01795366948458397,"269":-0.06910615361389247,"270":0.016523065038255933,"271":0.03211178887116945,"272":-0.05229802355732156,"273":0.02684316125205198,"274":0.03974238135784078,"275":0.04467309618177241,"276":0.007195613943554789,"277":0.08191837083255167,"278":0.030098828621458854,"279":-0.03906326741175787,"280":0.033438997451678006,"281":-0.07391493960917336,"282":0.02310673662086145,"283":0.03240717003140337,"284":0.033374815517115346,"285":-0.028228731705403617,"286":-0.03497399828731157,"287":-0.031346811851864866,"288":-0.03436247337839602,"289":-0.06370203678779388,"290":-0.12162300049866764,"291":0.06395159665627818,"292":0.05749915615641606,"293":0.028713293615286788,"294":-0.05512044577998483,"295":0.04869287354291223,"296":0.05116667847833638,"297":-0.04296359533426367,"298":0.02645021727173889,"299":0.026046226258820956,"300":-0.015885383754592582,"301":0.03942872253867124,"302":0.03864913617070054,"303":0.023978115635807543,"304":0.06022788967845551,"305":-0.0035220676486685276,"306":-0.08983546233890338,"307":0.0462442689771148,"308":0.019261915544106365,"309":0.05044194764393771,"310":0.07090368730028157,"311":0.0446094965869059,"312":-0.022150139494349703,"313":-0.08575252909283716,"314":-0.0053319329429937,"315":-0.027773445966105596,"316":-0.008513164324515793,"317":0.027738096717261053,"318":0.05379795901226488,"319":-0.009058168787046773,"320":-0.04476591467109518,"321":-0.0264106246284463,"322":0.001728246723825913,"323":-0.10280562988962841,"324":0.06363068593208537,"325":0.02335548878123036,"326":-0.06705156468161041,"327":-0.07750439719979965,"328":0.015777007681105352,"329":-0.044858773931084096,"330":-0.03638607871333043,"331":-0.04170852837793873,"332":0.016246124215845117,"333":0.10666375966146424,"334":-0.025395676162547485,"335":-0.018938580261844376,"336":0.039600225864153564,"337":-0.027559096719130375,"338":0.07893998187867715,"339":-0.052734508256791504,"340":0.011152523065683196,"341":0.039696471956378356,"342":-0.057279881301887395,"343":0.01436130350071897,"344":-0.07523596710765375,"345":0.06300229375807248,"346":-0.07611941345047624,"347":0.0021377920035744106,"348":-0.02479930257906492,"349":0.03380667646025057,"350":0.04419247000325743,"351":-0.0034139392630110465,"352":-0.05137558436357468,"353":0.034749354370038135,"354":-0.006143976398174727,"355":-0.06593964774916428,"356":-0.0007767235646441547,"357":-0.005272002225450904,"358":-0.03458634829381946,"359":0.009453293110757715,"360":-0.05808672554753705,"361":-0.06940731291335135,"362":0.05908680029847303,"363":0.08277888833740686,"364":0.03581699828756049,"365":0.04917372943492618,"366":0.042023559843120825,"367":-0.046062712589406155,"368":-0.019985431764258373,"369":-0.11004464438196639,"370":0.008686147664140486,"371":-0.014974597754001211,"372":-0.010030980350241228,"373":0.05050324902661435,"374":0.22322050691531228,"375":-0.007809164531151573,"376":-0.10966258608766237,"377":0.03764725827414941,"378":-0.06001766294411668}},{"sx":1,"sy":1,"depth":379,"w":{"0":0.017205960751347317,"1":0.04649768487855295,"2":0.005721552753567551,"3":0.03343988008849211,"4":0.0342091783877501,"5":-0.0011246076255012458,"6":-0.04269170508868906,"7":0.021479089604875313,"8":-0.07665481263004892,"9":0.034872507841122544,"10":-0.07396381733794304,"11":-0.06769490713900148,"12":0.0613670042833045,"13":0.025809257667466126,"14":-0.02335636364006496,"15":0.010127445310009303,"16":0.06848085918802399,"17":0.03715687064253941,"18":0.059722546161416014,"19":-0.0007706737012199847,"20":-0.027109472817672068,"21":0.07018487837366201,"22":0.12195032054677495,"23":0.01327989848321963,"24":0.12752957583080893,"25":0.06414043275964927,"26":0.0034735672098455466,"27":0.06156717705972499,"28":-0.015917567928715154,"29":0.012923429257118785,"30":0.05528176765777037,"31":0.10345451408455107,"32":-0.057663088946487265,"33":0.07058543136867518,"34":-0.04594497721000378,"35":-0.01671532642509097,"36":-0.0036908652545650862,"37":-0.03978326073561172,"38":0.14070562936350087,"39":-0.0770571974494667,"40":0.017281306245737472,"41":-0.08813032149961501,"42":0.07409634353073571,"43":0.056455598229320635,"44":0.01574556903987873,"45":0.1262290028846154,"46":-0.04040273349302418,"47":-0.04616062971045445,"48":-0.10020880426277388,"49":0.04344366957838905,"50":-0.06637941958452834,"51":0.018474694443256234,"52":-0.04190899757404458,"53":0.010447699054759538,"54":-0.026232664935701012,"55":-0.04082222215651591,"56":0.02376908730857843,"57":0.05997304342473941,"58":-0.006338174981247953,"59":0.02994461489438369,"60":0.06579340041360945,"61":0.006009076642907107,"62":0.02412071277791513,"63":0.01264690182566415,"64":-0.02669055261694441,"65":0.005774250648930015,"66":-0.06284128203985283,"67":0.03645221703884555,"68":0.05927349712302178,"69":0.006731663294269211,"70":0.06241332193512391,"71":-0.06525297203334304,"72":0.05348330732689347,"73":0.00037761858559258015,"74":0.015989425537288635,"75":-0.04091977372378375,"76":0.039089997493907576,"77":0.06816227213479333,"78":-0.06915541341627698,"79":0.006239681931213155,"80":0.03542656427577424,"81":0.0196759994575882,"82":-0.07081559522332867,"83":0.05241838642957579,"84":0.011266174883718597,"85":0.023702984287308663,"86":-0.06262568913072754,"87":-0.04844269100450582,"88":-0.004463483884162715,"89":-0.08102163758082301,"90":-0.0430171198273205,"91":0.05206024406019676,"92":-0.02078371966762869,"93":0.050432639497046815,"94":-0.06923635690430661,"95":-0.033686031249018,"96":-0.05539490936171346,"97":-0.023938767043264326,"98":-0.00016037632697020918,"99":-0.012947062089679572,"100":0.09985892846377252,"101":-0.038968301448484066,"102":0.05354753997141331,"103":-0.07612680156780859,"104":0.013575384423253355,"105":0.04426893718846284,"106":0.024542725159770688,"107":-0.03366371626089457,"108":-0.010231356457722397,"109":0.00008795128994742519,"110":0.06337004921037012,"111":0.003568411640857474,"112":-0.02262280146119638,"113":-0.016432930549152607,"114":0.06383546061432482,"115":0.08211633682558218,"116":0.06050765573944288,"117":-0.08810704486863113,"118":-0.0110088669856964,"119":0.029390874482873957,"120":-0.03075254804659897,"121":-0.05392714751386715,"122":-0.013980619203191536,"123":-0.0033712848790121513,"124":-0.01307046144587324,"125":0.023497231438433235,"126":0.0032027329299262313,"127":-0.0032742716047802624,"128":0.10876517566295416,"129":-0.037034073174220465,"130":0.027196122828383577,"131":-0.02845226883193106,"132":-0.04835267946893066,"133":0.00966407424974716,"134":0.1040299212086248,"135":-0.048211898165474276,"136":0.06016893580240982,"137":-0.039068303062400986,"138":-0.04448979934363339,"139":-0.07928095001732544,"140":0.041000161162022694,"141":-0.01898754156328353,"142":0.076802782527953,"143":-0.007851924654348719,"144":0.07834076951613096,"145":-0.00535713484714615,"146":-0.060312102388986474,"147":-0.019991945854971088,"148":0.08423412241929351,"149":0.050765044753800954,"150":-0.03307162328001692,"151":-0.021788054082671704,"152":0.03945927135886691,"153":-0.04244277698159069,"154":-0.006242075766909922,"155":0.04916523961040807,"156":0.06052484899919045,"157":-0.03684718205139723,"158":-0.020050203514873556,"159":-0.13556337052469905,"160":-0.03764904756957357,"161":0.03349305933115516,"162":0.031290529290817874,"163":-0.049175487915698785,"164":0.032738767719594025,"165":-0.03143732159368925,"166":-0.09686835540042638,"167":0.056966008535955626,"168":0.09947616403059828,"169":0.1275441462187226,"170":-0.09402487294412115,"171":-0.014436049979713407,"172":-0.04229746914663376,"173":-0.06017743039835345,"174":-0.0004281561339448303,"175":-0.00018760193461167283,"176":-0.009099322532165445,"177":0.005432082232006053,"178":0.006080069446501162,"179":-0.01047879961915773,"180":-0.014278181497322783,"181":-0.02365381605212692,"182":0.04837586794718041,"183":-0.08064254805691388,"184":0.12860021086003195,"185":-0.07401057967403615,"186":0.032542049686893636,"187":-0.0018243798484082147,"188":-0.02067070767619096,"189":0.08577084614095012,"190":-0.0373686654284526,"191":-0.011363491373539543,"192":-0.03768247033914028,"193":-0.03382304096640445,"194":0.03388856083214963,"195":0.11041530902591488,"196":-0.04615843607963392,"197":-0.06643005667561774,"198":-0.07714642347134239,"199":0.010651238745231018,"200":0.04521930542327238,"201":0.004839111537868513,"202":0.1275366466664987,"203":0.006702539219208463,"204":-0.04988851733282323,"205":-0.012252250110182175,"206":-0.005725724405269991,"207":0.03030782606899864,"208":0.020325630916896126,"209":0.02014063203271558,"210":-0.035069743658501816,"211":-0.048043764496024335,"212":-0.07873748452072696,"213":0.05260849349481593,"214":0.026678112800037675,"215":0.03835952244780438,"216":0.013716389328295796,"217":0.09046531849968248,"218":0.12078936763399122,"219":-0.029671138422107547,"220":-0.06900737751074631,"221":-0.048594421547992823,"222":-0.015294736452673539,"223":0.029539502445775075,"224":0.06507993739345058,"225":0.03777365640979167,"226":0.016979331537081976,"227":-0.06196220765133308,"228":-0.10115854770935656,"229":-0.012535174549193312,"230":0.024085774690887726,"231":-0.05420108782370002,"232":0.005546866068424886,"233":0.029112969662055566,"234":0.028260201131253552,"235":-0.028175442521292053,"236":0.05856981222236202,"237":-0.04342939350105566,"238":-0.0031934477107319523,"239":0.040141053174028635,"240":-0.09406711471868037,"241":-0.020000857817853296,"242":-0.1298908163491273,"243":0.09395902691259035,"244":0.07846349845378142,"245":-0.03903607456650959,"246":0.04561330213281841,"247":0.04408921581480668,"248":-0.019957836905949444,"249":-0.0976825697890498,"250":0.08694108164912179,"251":-0.0507482301681734,"252":0.04172541732804074,"253":-0.04909570669045164,"254":-0.07107114958413037,"255":-0.028532148091536272,"256":-0.08748416383106629,"257":-0.029055952740367572,"258":-0.04715453545412591,"259":0.0640897679709626,"260":0.010967195437512836,"261":0.05668857375318791,"262":0.024467312476280242,"263":-0.03435129086069279,"264":0.039348302430047215,"265":-0.011893324486376604,"266":0.016336420937847245,"267":-0.04598468924763402,"268":0.007915006474630311,"269":-0.042932261445019645,"270":0.06887779213451879,"271":0.08112195499219432,"272":0.018617214768283166,"273":-0.05924999299583002,"274":0.01838423849885256,"275":0.017540443598629527,"276":-0.11849657071349357,"277":-0.00027420825294747277,"278":-0.0716842791746989,"279":-0.08891701524789021,"280":-0.07123751299324461,"281":0.08561683281167103,"282":0.02381803848595063,"283":0.025641535474928256,"284":0.0024507735942549077,"285":-0.01710255249876317,"286":0.05379308073755067,"287":0.03254454610798688,"288":-0.012893269002063506,"289":-0.061409455844455126,"290":0.04215297837456625,"291":0.12521828725900302,"292":-0.10342843772514447,"293":-0.08564239478217124,"294":-0.07861427617199514,"295":0.016975606168744568,"296":-0.022936272663988396,"297":0.08469070366042349,"298":0.043544867894189834,"299":0.024510719358169324,"300":0.022154652882070917,"301":0.008856230987724076,"302":0.022965805204125327,"303":-0.083895452903722,"304":0.02671028999149519,"305":-0.06991315274261725,"306":0.030628656966003056,"307":-0.07456142910987132,"308":-0.038719731634350586,"309":-0.0045410150949609035,"310":-0.023569227787765774,"311":-0.03950149913495573,"312":0.029585360018555752,"313":0.03312044352078609,"314":-0.0465005868433166,"315":-0.053647747772850196,"316":-0.015582202289477992,"317":-0.07750884062176158,"318":0.06189024313402752,"319":0.09602087246093939,"320":-0.0063254031883368655,"321":0.018926876145324647,"322":0.03611487473304343,"323":-0.03226891755989436,"324":0.010034660675478686,"325":0.04158984920147043,"326":-0.11618650527352488,"327":0.05988448482936581,"328":0.02242100101449141,"329":0.014689222666248038,"330":-0.08648293512825979,"331":-0.070795568016902,"332":0.01271999739873204,"333":0.04083784799709287,"334":0.1006776622950579,"335":0.06302566006648586,"336":-0.0760686057314554,"337":0.0003536657923112548,"338":0.02736558391653128,"339":-0.03815038429254156,"340":0.019431795913214853,"341":0.13456490396480805,"342":-0.10384510302688114,"343":-0.0294436449543763,"344":0.018094022414459857,"345":-0.10356978705600599,"346":-0.020431103252710688,"347":-0.010607178382762938,"348":-0.026184808538709435,"349":-0.0595157085176559,"350":0.049303238966158396,"351":-0.07896328238326167,"352":-0.00001576532071405525,"353":0.0183637135680741,"354":-0.031854865132905585,"355":0.07696607811595994,"356":0.07259031332341957,"357":0.05990981326594508,"358":-0.03572402997499181,"359":-0.06124851468501906,"360":-0.0009589064617357999,"361":0.0034806913855566805,"362":-0.09244575894176821,"363":-0.0070196437311885,"364":-0.03978382588485835,"365":0.05355556383269112,"366":0.05041591171280578,"367":-0.005623779310366704,"368":0.03955426553913534,"369":0.1317228723967374,"370":-0.019969196297912162,"371":-0.022709546081666455,"372":0.0030108114721201303,"373":0.007746009990525572,"374":0.07223276165977051,"375":-0.16878898831289976,"376":-0.0276586557902203,"377":-0.13065739311832902,"378":0.05189097626816327}},{"sx":1,"sy":1,"depth":379,"w":{"0":0.10630043726309639,"1":-0.08185099291465228,"2":0.007834771109826829,"3":-0.015133505292814374,"4":0.013024776871843346,"5":0.14932774173684585,"6":-0.02148511931679403,"7":0.005246792124354476,"8":0.0025325669540997723,"9":0.0009269781132306032,"10":0.08329659968532915,"11":0.05779196188732276,"12":0.035503644408862105,"13":-0.06377503953095798,"14":-0.03157203990069867,"15":0.05602136905464945,"16":0.03137627063189547,"17":0.05638632980144317,"18":-0.024634658002235032,"19":0.010644115574816,"20":-0.003164019895990821,"21":0.02305448064501517,"22":0.014085405097597703,"23":-0.03582549488155789,"24":-0.014990509775226585,"25":0.00856673891416827,"26":0.02774251318897826,"27":-0.02312129340323766,"28":0.07330079653968648,"29":-0.019269277790138786,"30":0.04449686552429599,"31":0.02398805130449903,"32":-0.047040759448776406,"33":-0.06755264509527273,"34":-0.1429172538310439,"35":0.036637451361138884,"36":-0.03242256802534069,"37":-0.009244715123723267,"38":-0.05921220163207875,"39":0.14144556832838343,"40":-0.033189127145567106,"41":-0.06773693418824403,"42":-0.04501291056193009,"43":-0.059950219059570944,"44":-0.008690903034001869,"45":-0.09662046812224231,"46":-0.040270022601596206,"47":-0.06846120525668617,"48":0.035644299810603505,"49":0.03216204452814299,"50":-0.0809462775349079,"51":0.09543821300479093,"52":-0.00826832398847055,"53":-0.09462096719984185,"54":-0.010073816988654765,"55":0.15290930532334995,"56":-0.025903032065440274,"57":-0.048254164579287426,"58":0.010993958820799492,"59":-0.06313716236630085,"60":0.033550407669180285,"61":0.004465763439966034,"62":0.11025017442217629,"63":0.06701581179687485,"64":-0.05083130932153359,"65":0.03742123046663025,"66":0.047033657774906555,"67":0.10693061755552086,"68":0.05290809050664297,"69":-0.03371187073785734,"70":0.07252281151920716,"71":0.014812795914264976,"72":0.007266424976825846,"73":-0.007079667120149347,"74":0.008702266832710264,"75":0.10813362323089025,"76":-0.015439770961303247,"77":0.024472828326018898,"78":0.02084382100352449,"79":-0.035236741285598484,"80":-0.0935764370783694,"81":0.052507101203572,"82":-0.05815582737087566,"83":-0.03245866860051973,"84":-0.018785388845661954,"85":-0.06035177322557792,"86":-0.04724483944013736,"87":-0.032286252365247396,"88":0.022955574290570817,"89":-0.028295537101344977,"90":0.11659035896042338,"91":0.03076249303630259,"92":-0.07600808886229067,"93":-0.014410372731313579,"94":0.057068684522270624,"95":0.013319824484886994,"96":-0.010111793884381867,"97":-0.08024667886663814,"98":-0.07250489626528521,"99":-0.08922257404453127,"100":-0.006508479449720961,"101":0.00591951416384974,"102":0.03970366526223745,"103":-0.012276658913236926,"104":0.07237603858986293,"105":-0.0005032178824285943,"106":-0.023529143549125952,"107":0.00953439233817119,"108":-0.00557072607107776,"109":0.002349213572814014,"110":0.038654219225114105,"111":0.07062399517621742,"112":0.09225650829846511,"113":0.0886574484188569,"114":-0.024134528652707304,"115":-0.010246901205857905,"116":0.09056463195806806,"117":0.1318612593190278,"118":-0.030487582812873382,"119":0.021277868577235744,"120":0.06084430585323379,"121":0.017282467517108376,"122":0.00933172649246786,"123":-0.005056533210271959,"124":-0.016167766839402638,"125":-0.004760445280313071,"126":-0.030265625456305126,"127":-0.0023405800828059905,"128":0.01737060344085338,"129":-0.07964577264729819,"130":-0.114981604860493,"131":0.05343396245064281,"132":-0.01647996534402072,"133":-0.09024406902079399,"134":-0.00409098443258756,"135":0.03220127109218472,"136":-0.09041377086545166,"137":0.027627709812860706,"138":-0.00850022747101825,"139":0.022464272278924644,"140":-0.033109079638349484,"141":-0.13527529851207296,"142":-0.05068243660628093,"143":-0.01986040776348174,"144":0.09822877064529965,"145":-0.000270754329380163,"146":0.11222682418684336,"147":0.0600627322899551,"148":0.018081902679858885,"149":-0.02397681106476913,"150":0.003981382164664275,"151":0.043911920073617154,"152":0.08580597747033107,"153":0.0726378990966616,"154":-0.07878189561357095,"155":-0.038470255227701936,"156":0.03391171418062303,"157":-0.026940194066365906,"158":0.07254013153585448,"159":-0.04591100621794472,"160":-0.01206343683056737,"161":-0.006741002040480277,"162":0.039290458884203905,"163":-0.031242485808084863,"164":-0.003874651743932295,"165":0.047093894585209434,"166":0.023101831520227656,"167":0.03240442537956006,"168":-0.07422747458771484,"169":0.06690774013231338,"170":-0.09445007491646963,"171":0.019176176882313576,"172":-0.07930069882128815,"173":-0.08358212367158316,"174":-0.1074178354143547,"175":-0.0049317132844055945,"176":-0.06012863816111928,"177":0.07646671060995101,"178":-0.023345243792656716,"179":0.048585319898822574,"180":0.012720827379801961,"181":-0.005773323829549128,"182":0.19868751727194783,"183":-0.10075992310678479,"184":-0.03189452171873792,"185":-0.12292152588449332,"186":-0.0030200098691099946,"187":0.025198690282473797,"188":-0.06861624521834804,"189":-0.06162147065480629,"190":0.023693849230091678,"191":-0.031144234421825505,"192":0.0456782265896714,"193":0.051784387070232835,"194":-0.10460893078862579,"195":0.03777527945116271,"196":-0.016718750117224387,"197":0.1561355867852371,"198":0.0003211196596961563,"199":0.03928947117558755,"200":-0.07365042231733714,"201":-0.0070701195087520124,"202":0.04249875978191117,"203":0.01006580050442399,"204":0.03177977151657227,"205":-0.03459502601313338,"206":0.03013287705725016,"207":-0.001285604194009088,"208":0.06676084318463336,"209":-0.019130198537680946,"210":-0.040045456293328154,"211":-0.08802821008701013,"212":-0.06256695427062484,"213":0.11482243687431092,"214":-0.05537856287951885,"215":-0.03922830255938403,"216":0.025855594322393743,"217":-0.04334858994219254,"218":-0.017765813688158688,"219":0.11101562743920416,"220":0.05950641847549958,"221":0.014888583861636856,"222":0.008816609315608626,"223":-0.06256735628105282,"224":-0.07221320239049189,"225":-0.08399596367859408,"226":0.019106855077845607,"227":0.08770918347078138,"228":-0.050129489682716986,"229":-0.013367852510532092,"230":-0.01673262709047866,"231":-0.03658407151536471,"232":0.00806242036024436,"233":-0.017690834730069254,"234":-0.06390236551661167,"235":-0.007996616633627057,"236":-0.04149664538715702,"237":-0.0610431589741505,"238":0.011863313826208392,"239":-0.08896298469746984,"240":0.06762449043065971,"241":0.047612192077289915,"242":0.06718661126780316,"243":-0.013539304085173781,"244":-0.02298696321380443,"245":-0.05421853524365289,"246":-0.035408658602339334,"247":0.009887956251920349,"248":0.04049643889951926,"249":-0.0035966827590075186,"250":-0.06370920203852935,"251":-0.0830040919935453,"252":-0.014616908386201343,"253":-0.04430348309996517,"254":0.09239764830646377,"255":0.028143042861155564,"256":-0.06371710274045095,"257":0.09030613917973139,"258":0.0846906498384385,"259":0.03042091887799309,"260":-0.0011200124590032162,"261":0.0317239096206569,"262":0.06920877724920499,"263":-0.019535497799973718,"264":-0.0315101595995233,"265":-0.03495779222617644,"266":-0.03701131551130524,"267":0.01945632568349754,"268":0.003737364691102625,"269":0.07836538461878442,"270":-0.01733473892025813,"271":-0.022510894220901707,"272":-0.02602464059652106,"273":-0.1114554118351687,"274":0.0039018827918841153,"275":0.08964186551340803,"276":-0.016405176957617184,"277":-0.04181238811919072,"278":0.018465028976768137,"279":0.031035741016598114,"280":-0.1269432509541981,"281":-0.1169689228336775,"282":-0.0625897090221433,"283":0.010262392637121958,"284":-0.015210024049308294,"285":0.0727267422867097,"286":0.012564108354681023,"287":0.030483592559042608,"288":0.0008746433665390686,"289":0.07448068292623239,"290":-0.08932852078355046,"291":0.0007256912684665245,"292":-0.05297207125650692,"293":-0.00932244186502971,"294":-0.04898887315685008,"295":0.04067826059586021,"296":0.012768153741473574,"297":-0.011813140598934884,"298":0.01697032351155635,"299":0.07342423052839596,"300":-0.0307154501952937,"301":0.05393815898025555,"302":0.018559091433566086,"303":-0.02165727416544983,"304":-0.015300701100366543,"305":0.00046384703458799797,"306":0.04146685367979687,"307":-0.09156625948076845,"308":-0.08650251684707592,"309":-0.04170377727310953,"310":0.013235559979241305,"311":0.029876469592924868,"312":-0.08714170775796855,"313":-0.0072087028591926285,"314":-0.1271699814024588,"315":0.04389988374896185,"316":0.022426873483963532,"317":-0.0011628008299554068,"318":0.061098253911913564,"319":0.021145418105493884,"320":0.0890738439296103,"321":0.08273549847597,"322":-0.021433737837725148,"323":-0.03935994107429046,"324":0.09042921459179243,"325":0.020506808920787822,"326":0.0952996270896463,"327":0.0025724484843803273,"328":-0.04104402006398342,"329":-0.04378516962327395,"330":0.06734605913265015,"331":0.014424087274861571,"332":-0.05784804848223182,"333":-0.023220091219803705,"334":0.027117152443176414,"335":0.053996658724990536,"336":0.01612995375685698,"337":0.06810371012203603,"338":-0.12186931260475778,"339":-0.012898220715042218,"340":-0.034119416756789714,"341":-0.014628740796938535,"342":-0.09854725506561338,"343":-0.03523627226425852,"344":-0.008889642295586808,"345":-0.007094019273575285,"346":0.022551493404894513,"347":0.010093096323561226,"348":-0.007530594148223452,"349":0.0015683701482063158,"350":0.02635075326339272,"351":0.07401950091643791,"352":0.035666240547450906,"353":0.016784030481638734,"354":-0.12076801494870498,"355":0.028057122925383884,"356":-0.006094345360320157,"357":0.008683927834138953,"358":0.007050524494354734,"359":0.04604749395950543,"360":-0.02273742648501593,"361":-0.03144270731818371,"362":-0.05586518131126399,"363":-0.047557923269319576,"364":-0.03871475780649011,"365":-0.00632809395773114,"366":0.15624455732698925,"367":0.049050919966383964,"368":-0.08010580985823332,"369":-0.04586327433394337,"370":-0.006166546854484302,"371":-0.02547620377746339,"372":-0.01528697904344674,"373":0.033185798433832445,"374":0.052625026813488886,"375":-0.25243242465589166,"376":0.1982350296593868,"377":-0.07859340905433114,"378":0.007813332064072566}},{"sx":1,"sy":1,"depth":379,"w":{"0":0.058407582918569595,"1":-0.06406520355989534,"2":-0.03925916982608363,"3":-0.04569342880935258,"4":-0.0393080726561473,"5":0.016415708764775296,"6":-0.026446640582790264,"7":-0.13270580094300838,"8":0.020134530917884908,"9":-0.008885910212906977,"10":-0.04800518263211407,"11":0.06720912468632062,"12":-0.033787586320694486,"13":0.03566284116114478,"14":0.060833135950364124,"15":-0.022877306126463125,"16":0.1161913104709435,"17":-0.025563976094528307,"18":-0.036291291472981164,"19":0.08182212076072194,"20":-0.06268739546164029,"21":-0.01486534572449453,"22":-0.022592547348678434,"23":-0.02821283505055332,"24":0.06014036849861019,"25":-0.01418392215311805,"26":0.03821643168038432,"27":0.035813217625526486,"28":0.046357525897211455,"29":-0.05306797481176207,"30":-0.020745071352694117,"31":0.03238684347629176,"32":0.003654881927371758,"33":-0.009621888254259374,"34":0.03633987927448985,"35":-0.04864116225517303,"36":0.031947222937205325,"37":-0.013199815825434183,"38":0.06731115456587065,"39":-0.08889796111509563,"40":-0.04336044909339309,"41":0.08165676648568525,"42":-0.04830833791264366,"43":-0.07771979557727937,"44":0.018217608095671706,"45":-0.053102186463443224,"46":-0.054528873337791293,"47":0.031810012828029886,"48":0.06581085256606005,"49":-0.03574810023508919,"50":-0.05618863434143073,"51":-0.017646879780319473,"52":-0.002140642959565101,"53":0.031027832241105995,"54":0.02038239860012614,"55":-0.0038498695071124706,"56":0.05180686248603069,"57":0.041245115976038305,"58":0.08624318057024741,"59":0.03940460039851872,"60":-0.060193530145622974,"61":-0.07153919342816022,"62":-0.00957820171505803,"63":0.014241402043063966,"64":-0.008985349761720718,"65":-0.08098240715392493,"66":-0.022190134012145635,"67":0.062281955923017676,"68":-0.011790268556457246,"69":-0.016270987273570927,"70":0.0407528430470652,"71":-0.030609803759279387,"72":0.0011182263909183573,"73":-0.07325846745866108,"74":-0.07616931005118473,"75":0.060473674977887845,"76":0.047549291616023275,"77":0.028322360179133314,"78":0.0507541734426805,"79":0.005983761631839333,"80":0.16099855747651842,"81":0.04710500516447933,"82":-0.05242767167945119,"83":-0.08057900754533483,"84":0.048540425296584824,"85":0.028076635200189583,"86":-0.07177457650802915,"87":-0.09789582434181882,"88":0.007267928090465452,"89":0.022331023058582027,"90":-0.0519059113196505,"91":0.06011143237144657,"92":-0.07115415041480687,"93":0.007981692980079962,"94":-0.016272491054706302,"95":-0.01986965098244507,"96":-0.052148809101733,"97":-0.032488090384605435,"98":-0.004578701014002753,"99":-0.023784952923327267,"100":0.010363547577051975,"101":-0.0455978758916695,"102":-0.014650002949175074,"103":0.0637487633648729,"104":-0.07919091232059708,"105":0.08731602981828401,"106":0.018524525781142748,"107":-0.02173058690648514,"108":0.018422169143373586,"109":-0.09076426875569396,"110":-0.0702077089739925,"111":-0.03140411506911684,"112":-0.04566836186212897,"113":-0.025956463980477025,"114":-0.10778410623022656,"115":-0.010327961704359038,"116":-0.028410613060025007,"117":0.013101287459729107,"118":-0.01998213704113822,"119":-0.03576282736810772,"120":-0.042407399273714265,"121":-0.054114337678051606,"122":0.023083991209318203,"123":-0.01609406016482044,"124":-0.04259283662978352,"125":0.0017733168470443871,"126":-0.04279229025530475,"127":-0.04815333833583277,"128":-0.06295348620179989,"129":-0.011045790592543804,"130":0.028489504716744257,"131":0.07825655988198342,"132":-0.00030886536422442625,"133":-0.028457551190950395,"134":0.010040204350521486,"135":-0.042221700604657866,"136":-0.13856882957859828,"137":-0.013899153148640072,"138":-0.05322154233720909,"139":0.07040362392446697,"140":0.0265272504682275,"141":-0.16047432669112446,"142":-0.06300099483377707,"143":-0.11925023439690013,"144":0.023742303118225498,"145":-0.005176236821300625,"146":0.031030483933762076,"147":0.04834744744118646,"148":-0.09120390947692372,"149":-0.02358721699240382,"150":-0.06468442550268176,"151":-0.06235377023200574,"152":0.0406129010917904,"153":-0.039717429750213376,"154":-0.014246530265494816,"155":-0.1826519238120375,"156":0.04222766792261033,"157":-0.023303854226583258,"158":-0.049051232501877595,"159":0.06733288747020554,"160":0.05467324978505954,"161":0.023305533771420174,"162":0.08951130100119592,"163":0.005656883718700473,"164":-0.045200741855739995,"165":0.034119721026541434,"166":-0.032621936912083226,"167":0.028346135984898525,"168":-0.004808599346605634,"169":0.002742539204620593,"170":0.05470720371859651,"171":-0.0807485281863038,"172":-0.0016524998131797906,"173":-0.053097816725724646,"174":0.020919079422412556,"175":0.08627699226191225,"176":-0.017131612806807212,"177":0.00887916007622163,"178":0.10640618978353268,"179":0.009532221128661162,"180":-0.006970316066295833,"181":-0.05401975103549131,"182":-0.01563501027030756,"183":-0.00219733047123802,"184":0.0942835394343829,"185":0.07102128579379156,"186":-0.029562173652778752,"187":-0.022836041644814536,"188":-0.06258840873719233,"189":-0.013383323770883254,"190":0.12965213642162104,"191":-0.021852242298342272,"192":0.09143152612589912,"193":0.02644966026126805,"194":0.046443558434578674,"195":-0.011909571461872466,"196":-0.02745732271541224,"197":-0.016969257077618514,"198":-0.026424596324129027,"199":0.04420890536652783,"200":0.07305813243600327,"201":-0.0028711985630056483,"202":-0.021819357874923572,"203":-0.05786661266361483,"204":0.016148861622331687,"205":0.012866381983122434,"206":-0.062373653215343605,"207":-0.07566326721978199,"208":0.046734763219286886,"209":0.03508900766271196,"210":0.02617993030837269,"211":-0.02950923967320628,"212":0.011280732021477505,"213":-0.093383854095484,"214":0.08415585596754203,"215":0.05166931557661151,"216":-0.0424410490589716,"217":-0.02704751969303907,"218":0.00695819458394276,"219":0.07019446191475745,"220":-0.004252619945802976,"221":-0.027594532803196514,"222":0.07509342164177263,"223":-0.011897396709539751,"224":0.0014186847646185526,"225":0.05622218154583194,"226":-0.017128880965219827,"227":-0.009696169848235351,"228":0.031618368864101985,"229":-0.05113777540997307,"230":0.027014117776414222,"231":0.05647225481320061,"232":-0.07591976318505982,"233":0.03994156617060959,"234":0.06147209633636705,"235":0.09169708452148774,"236":0.0012107130362113507,"237":-0.03745076933283157,"238":0.1294170037615201,"239":-0.053291343621859076,"240":-0.014488267014928854,"241":0.11154850625652278,"242":-0.0016717135568346825,"243":-0.018874551319159466,"244":-0.03524724158145496,"245":0.02076607590509994,"246":-0.04681668880620282,"247":-0.011541177763813826,"248":-0.01293608042552971,"249":-0.004946636378985181,"250":0.042093669923733944,"251":0.04983884899716252,"252":0.06467275621204102,"253":0.005471645077144668,"254":0.02814319293584439,"255":0.06282045106284667,"256":-0.05428495434970311,"257":0.0748311161281355,"258":0.019809528582586947,"259":0.03329543850373635,"260":0.005941775456679525,"261":0.005418636569196483,"262":0.006199822725589079,"263":0.08671366577786246,"264":-0.04770759492064035,"265":0.03208531575290151,"266":0.009748217027670559,"267":0.018609801230849647,"268":-0.08958174655461283,"269":0.058333321117370045,"270":0.07563012376603818,"271":0.04658328100639913,"272":-0.032178398059268434,"273":0.09142631510796215,"274":-0.06877032097224602,"275":0.00222412266090396,"276":-0.04599104940231514,"277":0.022418441940069547,"278":0.006488875211664413,"279":-0.17066037034205792,"280":0.12261111982969532,"281":-0.04137191402510197,"282":-0.039631733871504767,"283":-0.027139561454543614,"284":0.009228603326624547,"285":0.04589914935782416,"286":-0.07481334358511017,"287":0.0012649710241633535,"288":-0.0641485231448805,"289":0.0007011345178320968,"290":-0.009834931640100252,"291":-0.08075971995374942,"292":0.02461546973757001,"293":-0.025909314344123205,"294":0.05180369605901802,"295":0.0026117907352575286,"296":-0.030657016756836377,"297":-0.12202032264924365,"298":0.015555043867939742,"299":0.03253071902865566,"300":-0.03145756308498405,"301":-0.020656531304674253,"302":-0.03529818853699547,"303":0.034904479664190156,"304":-0.030508055989885846,"305":-0.01049031206170602,"306":-0.009809387099230554,"307":-0.03999566485679251,"308":-0.007171856001194998,"309":0.08180161359540114,"310":0.027387915336491247,"311":-0.03177932061690675,"312":-0.07853126849986163,"313":0.044623385162436684,"314":0.017142760908543008,"315":-0.029250862977895444,"316":0.022777827115033795,"317":0.0030197200708090206,"318":-0.0029471595705761714,"319":0.021911410545021118,"320":-0.04231378279688461,"321":0.05161929445025546,"322":0.022381054987345054,"323":0.13827765290448912,"324":-0.01256262398350718,"325":-0.02219681014193972,"326":-0.007178631249978227,"327":0.02200375071444291,"328":-0.05651691411733987,"329":-0.007222949111521815,"330":0.015325489048646264,"331":0.029109068389681306,"332":-0.01418053770023303,"333":-0.0250133846477429,"334":0.027052346536255073,"335":0.01170049125534162,"336":0.07377140624611236,"337":0.0014233966095666632,"338":-0.07871995709696249,"339":0.05426081433218997,"340":0.010007552673451485,"341":0.02213886396882084,"342":-0.14379039872788346,"343":-0.08389950550159551,"344":0.04572806910331257,"345":0.052938640413335736,"346":0.010720292405397961,"347":0.013791275731534705,"348":0.04418404126640906,"349":-0.02841394754534099,"350":-0.016418078076216088,"351":-0.03850665819162233,"352":-0.04850934293357465,"353":-0.006108626251629289,"354":0.02598914703602284,"355":-0.012622940873463663,"356":0.07614969153514939,"357":0.08223598852865133,"358":0.013038470325102034,"359":-0.05620011558728461,"360":0.038396912475818855,"361":-0.06995234481490346,"362":0.04384242820377284,"363":0.05479197522144067,"364":-0.0008567248153397205,"365":-0.034587771308753894,"366":0.0017106570911486897,"367":-0.002517180977546451,"368":-0.08169248722870034,"369":0.00862035901998536,"370":0.0013324679626174273,"371":-0.031282702937042065,"372":-0.09142864476382738,"373":0.012634148579299573,"374":-0.04825204054552159,"375":-0.15439634471574684,"376":-0.0003409805187844694,"377":0.15579947086499404,"378":-0.11082638442341393}},{"sx":1,"sy":1,"depth":379,"w":{"0":0.015648002443925342,"1":0.002832282538587556,"2":0.014313284729146992,"3":0.08849720984442926,"4":0.01445733250619602,"5":0.06734700149432156,"6":0.05189346378471337,"7":0.040817525074664164,"8":0.04248683720874522,"9":-0.11394188637753878,"10":0.04799960173450381,"11":-0.06176349745641454,"12":0.0787320764163498,"13":-0.13796585469425524,"14":0.0546055865321867,"15":0.06489883423676351,"16":0.12314471324167439,"17":0.018698157465129345,"18":0.033254477761936345,"19":0.061936679339379325,"20":-0.00839199418969574,"21":0.012201260847282819,"22":-0.009350610077951673,"23":-0.054018466746162556,"24":-0.051286168153151034,"25":0.02197533812741209,"26":0.022406067694864105,"27":-0.02289505358105128,"28":0.022329713493840702,"29":-0.04281424399660531,"30":0.08960173232528358,"31":0.01762429533901544,"32":-0.002934260415646954,"33":-0.05622267366457407,"34":0.04413356555200939,"35":0.037392052564642335,"36":-0.04835311612853434,"37":0.05689583135744489,"38":0.07390644115937738,"39":-0.035377992933115686,"40":0.025796176125424987,"41":-0.0008988467404844679,"42":0.11035947898679808,"43":-0.0017425407102480046,"44":-0.040355738774445045,"45":-0.01079327132798552,"46":0.05899452988529558,"47":0.041042475978103427,"48":0.0763411588244754,"49":0.036370123054164566,"50":0.0006183868165178713,"51":-0.010181516132106862,"52":-0.034997475341356984,"53":0.006911264061864407,"54":0.044439689189945786,"55":0.013701418811049151,"56":0.018590097549233894,"57":-0.020758758004135004,"58":-0.04867473078054401,"59":0.004233705325681671,"60":-0.020148233895728517,"61":0.0898324898654183,"62":0.044331677349399114,"63":0.004169835462926645,"64":0.0071172490010142095,"65":0.02809421494299415,"66":0.0009206229198282904,"67":0.023386557839020335,"68":-0.01541273557251086,"69":0.041898968433199894,"70":-0.042703803989150406,"71":0.0569462374940297,"72":-0.007219782761548779,"73":-0.006878610772805187,"74":0.04176712460243612,"75":-0.0563325799928993,"76":-0.015721016711141966,"77":0.016814153605752686,"78":-0.0021338894770892465,"79":0.01605462456425401,"80":-0.013308183286849615,"81":-0.06583427002888156,"82":0.002266362862886216,"83":0.048125091230391874,"84":0.05937916174754692,"85":0.05469192107188711,"86":0.0868320549673381,"87":0.07743257568836272,"88":0.06983687221597532,"89":0.05024624271136082,"90":-0.0005976982461073102,"91":-0.0012566771853074923,"92":0.035084750848617084,"93":-0.04738536064844399,"94":-0.04317919974499315,"95":0.09183601793265843,"96":0.05112825180383593,"97":-0.01968878168105548,"98":-0.0574047459414192,"99":0.03983504920696785,"100":0.041219295924291556,"101":-0.01972638279677873,"102":0.016590707717343837,"103":0.09231652352616472,"104":0.026660846413340357,"105":0.009609352446375658,"106":-0.03273786936606971,"107":0.008245710821390707,"108":0.05349038267564945,"109":0.07654499423469897,"110":-0.007530099766484923,"111":-0.02303885401607614,"112":0.031341681997245054,"113":-0.04053436772674978,"114":-0.02007665661825931,"115":-0.027889602543365914,"116":-0.03932681020971709,"117":0.0462531089394303,"118":-0.07526531732859158,"119":0.04731065540181637,"120":0.039272896359037926,"121":-0.11487379659954129,"122":0.015227328622274466,"123":-0.05361558397428078,"124":-0.043501885842984,"125":-0.016648455646028473,"126":0.027443781815134207,"127":-0.047950616555903415,"128":0.12112245958712989,"129":-0.035366887489472545,"130":0.001215835674118445,"131":0.00545266584444617,"132":0.012653686836074303,"133":0.040675265520379936,"134":0.05965133390699761,"135":-0.05770802384901902,"136":0.008030873081899013,"137":-0.03358363104492026,"138":-0.08563135367076381,"139":-0.08383685129454577,"140":-0.1263253908813924,"141":-0.02906828291108067,"142":0.03878223585903212,"143":-0.042333353967858874,"144":0.09043993981600491,"145":-0.0020741886490906374,"146":-0.12974423741530156,"147":0.04217735958623751,"148":-0.036024246830176895,"149":-0.03258430236761273,"150":-0.027048452582126684,"151":0.034987509283103874,"152":0.009508439385270111,"153":0.025023399101255117,"154":-0.0014285172338931568,"155":0.07015590043250955,"156":0.020410864479310144,"157":0.1193714896263614,"158":0.049152646162404764,"159":-0.016936492217193448,"160":-0.008864758331401271,"161":-0.05282878073179483,"162":-0.00269966855099651,"163":0.031020936492517824,"164":-0.03602938828025014,"165":0.005692227857097161,"166":-0.07087800261768713,"167":-0.02530114076926299,"168":-0.04816485737371918,"169":-0.012180858483729745,"170":-0.03382064413499899,"171":0.09627171028106758,"172":-0.0072353675582336454,"173":-0.0891906997988415,"174":0.07950842389320191,"175":0.09492221259286464,"176":-0.01285116102362859,"177":0.019444676609859584,"178":-0.004960907795898305,"179":-0.05755543007776627,"180":-0.032249011789028996,"181":-0.0529040794910581,"182":-0.04832681198231685,"183":-0.09680362763609923,"184":-0.006662915267249344,"185":-0.09874360608631375,"186":-0.13404149719215533,"187":-0.0413405832581361,"188":0.05132209101766267,"189":-0.022913971380172003,"190":-0.09797010192258358,"191":-0.03127255204081115,"192":0.0038136146742943217,"193":0.008560663827010135,"194":-0.06116365785932916,"195":0.024174220512182605,"196":-0.010577902714810152,"197":-0.02290971838573583,"198":0.01895175371906601,"199":-0.00825902849361326,"200":0.007179733532780067,"201":0.05091175842527141,"202":-0.06625062065631611,"203":0.009584970840140055,"204":-0.12061392947107723,"205":-0.06281124507976465,"206":-0.051877306119284164,"207":-0.06993066518825601,"208":0.011861375483060774,"209":0.13138760391569482,"210":-0.048855490407194675,"211":0.11629950329787528,"212":-0.0362586214317115,"213":0.007967950130990286,"214":-0.014016127787669351,"215":-0.03437870312375072,"216":-0.027874655203350106,"217":-0.05223810983004497,"218":0.04419994973182602,"219":-0.012314712758465539,"220":-0.07799956431206137,"221":-0.036951639609884436,"222":0.008515370666127243,"223":0.06039149287126255,"224":0.013727148587737709,"225":0.07911616791201957,"226":-0.0005386846363485771,"227":0.039940608451393356,"228":-0.02465957169304256,"229":0.030073243719506478,"230":0.021574682362562315,"231":-0.10303706895900186,"232":-0.016049552367652403,"233":0.012324814626649324,"234":-0.012389463322575008,"235":0.10046394462595847,"236":0.020595223518699888,"237":0.09441108257105522,"238":-0.06660135085582486,"239":0.11389832642503597,"240":-0.00036711805214987317,"241":-0.011876087768414548,"242":0.042836370343721515,"243":0.03402606467035157,"244":0.012985037940204744,"245":0.021562327162230485,"246":-0.048248813424695676,"247":-0.05190557077859938,"248":-0.027979640132699567,"249":0.06308855101685161,"250":0.061440143104403315,"251":-0.028168062710290025,"252":0.032150544813356274,"253":0.005596068728038949,"254":-0.02786754516588932,"255":-0.08172727365015553,"256":0.034218178663734396,"257":0.0018806893714451006,"258":0.11460028757132537,"259":0.06875385364559629,"260":0.03702941479399355,"261":0.007633737469950188,"262":0.07881654200770845,"263":0.0647850073229277,"264":0.04293297769998754,"265":0.03191491729840074,"266":0.04602329665390987,"267":0.07524831229314384,"268":0.021925947184671495,"269":0.034824924082549766,"270":-0.040566352945545274,"271":-0.02508729895937964,"272":0.021759420720797888,"273":0.07203280831685674,"274":0.030885390660503338,"275":-0.037223334304525575,"276":0.04020312222795615,"277":-0.04207300682164702,"278":-0.02122931548303018,"279":-0.010986806847382426,"280":-0.10529641319616716,"281":-0.039395998597976684,"282":-0.029060644550759015,"283":-0.060773319686857466,"284":0.05872351782373496,"285":-0.05861857891854039,"286":-0.02165318143691297,"287":-0.098039904583823,"288":-0.046952603199113575,"289":0.04487263123752717,"290":0.02564729602727431,"291":-0.005450862419240433,"292":0.01771870403906417,"293":-0.06198172470001936,"294":0.002429121579746197,"295":-0.03410018741532555,"296":-0.008215208451805211,"297":-0.07318885663824329,"298":0.10079562195796589,"299":-0.09756641955322388,"300":0.1350706550025361,"301":0.011293944474984764,"302":-0.12677155580225405,"303":0.07406387873550829,"304":-0.00849336689925517,"305":0.10846769844126718,"306":0.014489724372751481,"307":-0.006357781359243929,"308":-0.04233259202884791,"309":0.03410469086168075,"310":0.057809619673939494,"311":-0.030492238370704333,"312":0.038749099223454604,"313":-0.07640409336457735,"314":0.034965733186437024,"315":-0.05300534598258975,"316":-0.02342143302001535,"317":-0.014150746191416071,"318":0.022086521173488954,"319":0.0036622128768251,"320":-0.05480832348776824,"321":0.021652064114742933,"322":0.04760662956033197,"323":-0.07481163626951728,"324":0.061806398002283554,"325":0.04827343603978219,"326":-0.0046552128694448,"327":-0.03765003317189505,"328":0.08683832165489527,"329":-0.024078547580900535,"330":0.03940077740159611,"331":-0.06670879857207167,"332":-0.005683048326666142,"333":0.06914208849170962,"334":-0.03893082247524337,"335":-0.013317697815050595,"336":-0.05984950160731743,"337":0.0215159628867961,"338":0.024739805115656432,"339":-0.04996257092333355,"340":0.031288992802947065,"341":-0.04293611960536829,"342":0.014710665940141794,"343":-0.10515880762497092,"344":0.029623197131769915,"345":-0.08482612769244542,"346":0.10392672021221555,"347":-0.04011273851477451,"348":-0.0456533725235647,"349":0.002466741687744483,"350":-0.027423304748067683,"351":-0.03460057337715639,"352":0.013223980028545601,"353":0.044927875437626615,"354":0.003876669282590395,"355":0.05501283856391494,"356":-0.03920201628150942,"357":-0.050156003505405194,"358":0.03463299441890997,"359":-0.04431753943668527,"360":-0.017216337065255934,"361":0.052536839545878476,"362":-0.01436093083844484,"363":-0.06914852734996761,"364":0.01979929125415582,"365":0.012676384918338458,"366":0.03476431083885208,"367":-0.037822846476677455,"368":-0.09278923532468428,"369":-0.026856967789940962,"370":-0.03257620091416249,"371":-0.05643615574896187,"372":0.002633018031346738,"373":-0.04591793821167375,"374":-0.029816809736659133,"375":-0.041389726708132395,"376":0.07133740407529572,"377":-0.04450089888506425,"378":-0.07068350073650033}},{"sx":1,"sy":1,"depth":379,"w":{"0":-0.0011854550638263038,"1":-0.03681073759137047,"2":-0.04085735943034184,"3":0.0396243611294233,"4":0.012078965733379628,"5":-0.07535239760407085,"6":0.054139334861430834,"7":-0.03707612169432598,"8":-0.05064777415264082,"9":-0.022604936442162465,"10":0.06881951936902037,"11":-0.027064267247414234,"12":0.03859109738036162,"13":0.057623043364572746,"14":-0.02857583538837117,"15":-0.03887592487795928,"16":-0.030992067680138406,"17":-0.015593325003507607,"18":-0.12303937834346669,"19":0.03901905188027367,"20":0.04175222819392601,"21":-0.024094048462474975,"22":0.05304219920900359,"23":-0.004453963385896544,"24":-0.04898052801038086,"25":-0.039765186896117376,"26":-0.0794106042489342,"27":-0.08706882030989371,"28":-0.0261729468776956,"29":0.018870521548955143,"30":0.034351315552497326,"31":-0.05069846255032446,"32":0.05390750288107356,"33":0.043295942040650695,"34":0.02928808561686769,"35":0.05146943083211187,"36":0.020103522844945407,"37":-0.026549692298525465,"38":-0.02634888618645924,"39":-0.00043573291743179875,"40":-0.025815286145446304,"41":0.04723997798762606,"42":0.008101680158857252,"43":-0.015548128431078508,"44":0.046331585257230974,"45":-0.041572701931282124,"46":-0.0032325764858613863,"47":0.03564237198481989,"48":0.07271812240475987,"49":-0.04847517049399975,"50":0.030764696073871584,"51":-0.03939405576765918,"52":0.004260356497230944,"53":-0.10706491624859225,"54":-0.08618249329564578,"55":-0.08186662812406424,"56":-0.004036239161954762,"57":0.09869090647331705,"58":0.06491059349526808,"59":-0.0471637700479093,"60":0.05993830056936408,"61":-0.0398919504615267,"62":-0.04894680285710263,"63":-0.0693721676496876,"64":0.004951645678979518,"65":-0.09791993904055678,"66":0.04913957926366279,"67":-0.012843267080683564,"68":0.044547333893698506,"69":-0.01749184331993431,"70":-0.031178014223548763,"71":0.03535412684628498,"72":-0.08116363086163005,"73":-0.04203265977526737,"74":-0.0469012796509478,"75":0.0011154875006013872,"76":-0.07975782083827711,"77":-0.03927175357727674,"78":0.02960237639388448,"79":-0.06766054288439655,"80":-0.03680169029522103,"81":-0.10635787196174928,"82":-0.02971269697260993,"83":0.07365873413230674,"84":-0.0600956502639227,"85":-0.0338592724856367,"86":0.041774619428993964,"87":0.022510451841774963,"88":0.0035469066527192656,"89":-0.06401432079376222,"90":0.0589536674285363,"91":-0.023199092414956796,"92":0.016199860823504206,"93":0.013416520170694916,"94":0.017349157470192222,"95":-0.048416845333535304,"96":0.07225727433130415,"97":0.04106902394886395,"98":-0.03384654742200699,"99":0.03838001988408604,"100":0.11866449391521694,"101":-0.06157531673999309,"102":0.054809163051521635,"103":0.017063492912825606,"104":0.06064273347222989,"105":-0.034168055471349094,"106":0.005952491357512834,"107":0.08560912905053061,"108":-0.00489735781983095,"109":0.04578357025163404,"110":0.039545733668618355,"111":0.0230909617387289,"112":0.1172382688751871,"113":0.07614720741353997,"114":0.07427219052935966,"115":0.025145033744975457,"116":0.013569155901375397,"117":0.02518055468627024,"118":-0.03494183414931864,"119":0.021142646787567377,"120":0.042744369079324676,"121":0.022548778062388645,"122":-0.0789053370785153,"123":-0.061241126404857474,"124":0.02401553084879831,"125":0.029941080757316687,"126":0.05684422221258167,"127":-0.038743355480114275,"128":-0.10222904722127389,"129":-0.02554418899676141,"130":-0.044485912368606655,"131":-0.015955400896615277,"132":-0.044523544845561126,"133":0.005790107851289509,"134":-0.07196905024110412,"135":0.06919395117845158,"136":-0.01638877349349363,"137":0.022036873801453184,"138":0.01899063790376561,"139":0.043438301422659656,"140":0.09536956446310865,"141":-0.06448378514401261,"142":-0.000653778989656005,"143":-0.03429380013236517,"144":-0.052316621485354,"145":0.05316385825488473,"146":0.06389051761175094,"147":-0.008400961936168442,"148":0.009323650934650023,"149":-0.024768655088497505,"150":0.10502553440542092,"151":-0.003138652842237123,"152":-0.012539486235926423,"153":0.009775894994559697,"154":0.03015057853265288,"155":-0.014209426980687659,"156":-0.07015788441701623,"157":0.06666603611391231,"158":0.017672639934487644,"159":-0.02990686284534689,"160":0.06108165868357446,"161":0.0262945471576927,"162":-0.021693777538164805,"163":0.005582246510638035,"164":0.0031564075378327006,"165":0.002347389833851213,"166":-0.02299185731434925,"167":0.032667297711484584,"168":-0.03527338004971195,"169":0.015928301191322075,"170":-0.03269618596515734,"171":0.006255114611013726,"172":-0.018448219252870778,"173":-0.02935924528974912,"174":0.0268377688359994,"175":-0.030320363307218025,"176":-0.03490246038437738,"177":-0.02768960003708207,"178":-0.03288455890080661,"179":-0.013901823940238525,"180":-0.045612621277940725,"181":0.014707994985335227,"182":-0.03965111041181759,"183":0.03240221165615074,"184":0.029590834617206685,"185":-0.06693577495473843,"186":-0.06789959301651016,"187":-0.023520664492723116,"188":-0.06878586599085436,"189":0.01035670289242584,"190":0.04067190571639932,"191":-0.0872696472177537,"192":-0.05158159322483735,"193":0.008640577759039038,"194":-0.01975233640059404,"195":-0.09363711236102773,"196":-0.03775731038510757,"197":0.054320902923985954,"198":0.014545288003782858,"199":-0.043113025675613814,"200":-0.06819569566632866,"201":0.012197349345522673,"202":-0.08980561729540674,"203":-0.019564707617508625,"204":0.05406204091755035,"205":0.017120517741099538,"206":0.05738149967802834,"207":0.024846953226075212,"208":0.040561539225824325,"209":0.09310229802749917,"210":-0.11003738831729849,"211":0.045483112646523716,"212":-0.08606113024158679,"213":-0.0004036301044518244,"214":-0.04336920657643747,"215":0.05352473198384016,"216":0.0316623681336226,"217":-0.04043255657820469,"218":0.03958285771159461,"219":0.09865572287737477,"220":0.0003195943880287178,"221":0.016928903271894426,"222":-0.09057128538809317,"223":0.02848192449219344,"224":0.07862320614565609,"225":-0.05448525413403256,"226":0.05569209092950786,"227":0.00572371353352749,"228":0.00825506725035835,"229":0.014722367180993828,"230":-0.020357685153664828,"231":-0.0768877864975348,"232":0.014922724818157962,"233":-0.08878293128699503,"234":-0.006712526783483479,"235":0.05128437405373423,"236":-0.10489595519500476,"237":-0.06537200107934286,"238":0.0869193405262743,"239":-0.10609934613396999,"240":-0.04853022609695934,"241":0.03361337596517019,"242":0.029876666271294837,"243":0.006853852752272307,"244":-0.026084016957745964,"245":0.009165797723616812,"246":-0.012927279692613088,"247":0.018382261238522643,"248":-0.005877999265860797,"249":0.03377154426656055,"250":0.013725722750276769,"251":-0.012336595170475589,"252":0.017011181115710053,"253":-0.11401391061537261,"254":0.03545965693216303,"255":0.011280544116783961,"256":-0.028256651894332886,"257":-0.04505412920280186,"258":-0.07602707862436905,"259":-0.08901426056634576,"260":-0.0401056719192379,"261":0.05512375504893786,"262":0.037777177151305734,"263":0.0260996197834455,"264":0.015497374245984049,"265":-0.022186632241880576,"266":-0.017006230019152208,"267":-0.018481055005641008,"268":0.02853602569020252,"269":0.01370084321484829,"270":-0.020994898909855758,"271":-0.08044154392714858,"272":-0.0024883688155804494,"273":-0.06725229859752699,"274":0.08111676519988754,"275":0.03388161020420562,"276":0.04702488977662879,"277":-0.019961606946209205,"278":0.1279681905063214,"279":-0.12293148194968637,"280":-0.02598129788795959,"281":-0.08913833378484784,"282":-0.014886981392011573,"283":0.09136514662919688,"284":0.059979090283042956,"285":-0.05587559567814276,"286":-0.0309877011433999,"287":0.07026822973973781,"288":0.0007982630952507762,"289":0.028681786443826747,"290":0.030657414926259147,"291":-0.09804311061787072,"292":-0.012914427784586792,"293":0.026089119462511353,"294":-0.046991688942308055,"295":-0.08153616946646103,"296":-0.05506342879651243,"297":-0.027355253109985232,"298":-0.08079998568772048,"299":0.02846541794177995,"300":-0.017497699605251594,"301":-0.06718799462279662,"302":0.00031517900473348396,"303":-0.0007406401886611446,"304":-0.0138211641019172,"305":-0.016744499521178416,"306":-0.0015032602467184655,"307":0.05312009075331892,"308":-0.06071931098305292,"309":0.04078575753359872,"310":-0.06130983197237509,"311":0.0533926393328216,"312":-0.003920675036432978,"313":0.07037587837407888,"314":-0.05530120734133235,"315":0.041424827453157106,"316":-0.07363760219488423,"317":0.040531426768189306,"318":-0.017763557794186365,"319":-0.01200648408642427,"320":0.04940083708506096,"321":-0.026673190885145647,"322":-0.0569730576342282,"323":-0.018815928228063192,"324":0.06175788742802606,"325":-0.03688510009120786,"326":0.05236878993136769,"327":0.02243917116677166,"328":0.016823340055750133,"329":0.03136409402752697,"330":-0.05673240403122984,"331":0.10097034351941983,"332":0.013147227103012612,"333":-0.01922052306814218,"334":-0.009237478818463376,"335":-0.05858158378707842,"336":-0.041313506456374736,"337":0.07081570478922014,"338":-0.008949991229726983,"339":-0.022799085841586787,"340":0.058134532837681434,"341":0.03859011180698634,"342":-0.03918985882670145,"343":-0.018135102491029374,"344":0.10000529325317387,"345":-0.03861097478919504,"346":-0.009029469015434976,"347":-0.002601264278176353,"348":0.0337291043843467,"349":-0.018026656265478877,"350":-0.04000608588833074,"351":0.01798366536748621,"352":0.06807362820985588,"353":-0.09366490933772684,"354":-0.08865510869987385,"355":-0.061955770422350814,"356":0.029022353569499275,"357":-0.042013906150962246,"358":-0.013241718885295406,"359":0.02230131917281928,"360":-0.017036933010485696,"361":0.007373562152256686,"362":0.009881564926082779,"363":-0.024166190752023184,"364":0.040927182875732396,"365":0.053283356105879094,"366":-0.014434854781065631,"367":-0.00427368713978304,"368":0.010464535716483182,"369":-0.004660852849830794,"370":0.04101742768514783,"371":0.0012381443519727795,"372":0.02179641384739387,"373":-0.017874191791525766,"374":-0.11147456225976071,"375":-0.0731027054282453,"376":-0.09750620679987998,"377":0.0631469674708272,"378":-0.04735616356375127}},{"sx":1,"sy":1,"depth":379,"w":{"0":0.019118151525114615,"1":0.035008493652809725,"2":0.09668092832950234,"3":0.2859182349997338,"4":0.04752246389651092,"5":0.04602089479360465,"6":-0.05986368494296617,"7":0.11280847095685329,"8":0.036135222523327536,"9":0.0778704351457035,"10":0.2893799007513903,"11":-0.01978112595033897,"12":0.07954971394112696,"13":-0.018174332711750184,"14":0.07980049535228143,"15":0.024496637046065074,"16":0.08291647853505797,"17":0.3285286786064663,"18":0.08728805026444897,"19":0.012817155780876454,"20":0.05062883548357875,"21":0.0846619783564245,"22":0.09120671614392473,"23":0.06033513467861535,"24":0.5837616535465309,"25":0.1102448260005175,"26":-0.007527615418599191,"27":0.04678659945992031,"28":0.05719489556260375,"29":0.019777252874827563,"30":0.2109666828529446,"31":0.7425178982345997,"32":0.1790334774068359,"33":-0.015249521272746647,"34":-0.033605730189294,"35":0.0675872950780029,"36":-0.02847996263503253,"37":0.10973184336197447,"38":0.7290255558813912,"39":0.15028666358208287,"40":0.12491264375680901,"41":-0.09441556900115886,"42":0.04242852355223505,"43":0.08093362222852979,"44":0.14648494189005284,"45":0.6421094026445345,"46":0.17320287711618393,"47":-0.06975904182991925,"48":0.06762937389853563,"49":0.06911538552592886,"50":-0.0246861585841452,"51":0.04599712596141161,"52":0.39335085791385493,"53":-0.0047265310257513906,"54":0.0005980322705702901,"55":0.016163195980361793,"56":-0.04532992240891426,"57":-0.0006538289700322884,"58":0.07268130909796872,"59":0.11397122148415811,"60":0.1243183295440325,"61":-0.11064697382566026,"62":0.04994783904262408,"63":-0.024469237655333577,"64":0.006016461951148557,"65":0.1120737198253976,"66":0.10330768789359547,"67":0.14987659928380165,"68":-0.07601500786966153,"69":0.025035866524917162,"70":0.03913133414818844,"71":0.005604290011049293,"72":0.06887155384576128,"73":0.07091463206991591,"74":0.050763210797215796,"75":-0.02866847641590859,"76":0.005645618082157433,"77":-0.07098683534627356,"78":0.006639672973585927,"79":0.040230665568384824,"80":0.018309842989547766,"81":0.11503982243538761,"82":-0.07501371897996524,"83":0.046540148452733986,"84":-0.10724354483630545,"85":-0.02384179366623276,"86":-0.08345106771401639,"87":0.13740934148849457,"88":-0.10488951420025343,"89":-0.06551374799632256,"90":-0.10736949047587936,"91":0.015626080853116696,"92":0.07595970147401833,"93":-0.01494944599126998,"94":-0.11725571181584683,"95":0.04094962653126422,"96":-0.020363347332296434,"97":0.006874258739881684,"98":-0.02583017397899243,"99":-0.013411427164782904,"100":0.06369503783951298,"101":-0.03479328445416589,"102":0.07576156303827838,"103":0.11424191441301432,"104":-0.1063040283497569,"105":0.03542509791525224,"106":0.011288303902720146,"107":0.08022227315483198,"108":0.0014502476187174768,"109":-0.025407307152123536,"110":0.062092861959496835,"111":-0.05147560949800721,"112":-0.008368013253244672,"113":-0.052614092951659905,"114":0.07687657326895876,"115":0.28272975961874336,"116":0.1600299597048007,"117":-0.06101440176360831,"118":-0.03637437167882989,"119":0.02636765579978304,"120":-0.07884912301844697,"121":0.1886704016270397,"122":0.29807170875812555,"123":0.09833448618419856,"124":0.019288241299719698,"125":-0.013406297917169348,"126":-0.01674814874355233,"127":0.02249409415598612,"128":0.004997460802790407,"129":0.2908072232034184,"130":0.07385714684901734,"131":0.01835883148746457,"132":-0.0636764436727373,"133":0.09991719934017765,"134":0.026031863077770716,"135":0.04519930815098368,"136":0.27836689461465974,"137":0.002235562403236207,"138":0.0617715835837551,"139":-0.029839205493506233,"140":-0.035849315426561584,"141":-0.014086787215345392,"142":-0.010141367684112352,"143":0.12503681742880232,"144":0.09264757349577808,"145":0.012706727708529939,"146":0.05417850648213429,"147":0.021734922543480844,"148":-0.004146238491511608,"149":0.0572128917456967,"150":-0.02533123932731019,"151":0.10183502408835028,"152":-0.018450025291987464,"153":-0.037215943364499994,"154":-0.030384435135429204,"155":0.08140598755628038,"156":0.05030040395899416,"157":0.0400771520597555,"158":0.0015707898225373472,"159":-0.020474854513201322,"160":0.03478382795772071,"161":-0.030883625181344476,"162":0.01466427354052128,"163":-0.03742599115931243,"164":0.0754503161489877,"165":-0.04651579752437213,"166":0.022910853123961784,"167":0.052586808798845704,"168":-0.005782205993784421,"169":-0.030579101806626426,"170":-0.05114160919262995,"171":0.07473312397578025,"172":0.015276308782960567,"173":-0.041007299212538414,"174":-0.05957543337278163,"175":-0.030288072459496936,"176":0.01875853278305495,"177":-0.08362964017397048,"178":0.13887315158856184,"179":-0.054124884164343315,"180":-0.10304014205310032,"181":-0.06656573637352858,"182":0.11424196194622382,"183":0.08586292985518443,"184":-0.05869104155037768,"185":-0.14364405724601295,"186":0.016843979883992763,"187":-0.047036487990802636,"188":-0.08479964900797539,"189":-0.02621098932500897,"190":-0.09781363582741896,"191":0.009712797988291156,"192":-0.04881992916499573,"193":0.017744462679060713,"194":-0.0326679342227495,"195":-0.07068883935570633,"196":-0.0756428499229513,"197":-0.11313454346460719,"198":-0.09401781752405539,"199":0.05778517336821326,"200":0.006447567828524601,"201":-0.031203267797843402,"202":-0.005577708597966557,"203":0.10476238069620672,"204":-0.012011700904332444,"205":0.006168895857860553,"206":0.058409173576958,"207":0.012318777778773047,"208":0.014022560634901739,"209":-0.05253256975659834,"210":0.05365331610513721,"211":0.07533314290597874,"212":0.05867025460367125,"213":0.10071633336640012,"214":-0.01510892289323672,"215":-0.03788188518628869,"216":-0.0887919137589835,"217":0.05777022613063633,"218":0.2714324591758433,"219":0.07469098558791865,"220":0.0270202871673728,"221":0.065558801267204,"222":0.08741121053174647,"223":-0.012912710380175446,"224":0.025715713114793405,"225":0.23531618837653423,"226":-0.06606053129205726,"227":0.050587638988398444,"228":-0.09125791679156649,"229":-0.04380662830933982,"230":0.003346038647923624,"231":0.0343691351687469,"232":0.23772354215722954,"233":0.03565963219153352,"234":0.034557081981606674,"235":0.056473384009038945,"236":-0.030690250193616396,"237":0.007984692469329037,"238":0.08897218227632223,"239":0.14338244437890316,"240":0.08833467219403499,"241":0.029926242919521548,"242":-0.02202809944184633,"243":0.05644156192559379,"244":0.08232117920649722,"245":0.04455046819820804,"246":0.0609326735777397,"247":0.06127207014304263,"248":0.06309059980721289,"249":-0.04199137864938792,"250":0.004621230924313635,"251":0.034212191207725666,"252":0.005047249760574234,"253":0.046205908425284756,"254":-0.05268091717748832,"255":0.014021308702800375,"256":-0.13600945905630113,"257":0.06605408352187336,