
//<![CDATA[

// a few things don't have var in front of them - they update already existing variables the game needs
lanesSide = 3;
patchesAhead = 2;
patchesBehind = 2;
trainIterations = 10000;

// the number of other autonomous vehicles controlled by your network
otherAgents = 6; // max of 10

var num_inputs = (lanesSide * 2 + 1) * (patchesAhead + patchesBehind);
var num_actions = 5;
var temporal_window = 3;
var network_size = num_inputs * temporal_window + num_actions * temporal_window + num_inputs;

// DON'T CHANGE
var layer_defs = [];
    layer_defs.push({
    type: 'input',
    out_sx: 1,
    out_sy: 1,
    out_depth: network_size
});

// CHANGE
layer_defs.push({
    type: 'fc',
    num_neurons: 30,
    activation: 'relu'
});

// DON'T CHANGE
layer_defs.push({
    type: 'regression',
    num_neurons: num_actions
});

var tdtrainer_options = {
    learning_rate: 0.001,
    momentum: 0.0,
    batch_size: 64,
    l2_decay: 0.01
};

var opt = {};
opt.temporal_window = temporal_window;
opt.experience_size = 3000;
opt.start_learn_threshold = 500;
opt.gamma = 0.7;
opt.learning_steps_total = 10000;
opt.learning_steps_burnin = 1000;
opt.epsilon_min = 0.0;
opt.epsilon_test_time = 0.0;
opt.layer_defs = layer_defs;
opt.tdtrainer_options = tdtrainer_options;

brain = new deepqlearn.Brain(num_inputs, num_actions, opt);

learn = function (state, lastReward) {
brain.backward(lastReward);
var action = brain.forward(state);

draw_net();
draw_stats();

return action;
}

//]]>

/*###########*/
if (brain) {
brain.value_net.fromJSON({"layers":[{"out_depth":127,"out_sx":1,"out_sy":1,"layer_type":"input"},{"out_depth":30,"out_sx":1,"out_sy":1,"layer_type":"fc","num_inputs":127,"l1_decay_mul":0,"l2_decay_mul":1,"filters":[{"sx":1,"sy":1,"depth":127,"w":{"0":0.07196083049501592,"1":-0.053686605332231734,"2":-0.042520917672659385,"3":-0.06143830471896515,"4":-0.05895557719544191,"5":0.05839778060848553,"6":-0.18712348981173493,"7":0.09807925383817452,"8":-0.08240560460807378,"9":-0.02399443844766543,"10":-0.09123526621592093,"11":-0.05207698514809279,"12":-0.011570901203182972,"13":0.061544725579664276,"14":0.1403151458876776,"15":0.006321917326885566,"16":-0.021370852504673327,"17":0.03205553401807415,"18":0.0038093480384315623,"19":0.05203695487160358,"20":0.0565640796231693,"21":0.08447162431494111,"22":-0.15838272080291976,"23":0.1599389661934688,"24":0.1172949650501659,"25":-0.009562672845987129,"26":0.04672964524654273,"27":0.12744753818383145,"28":-0.08887415540846132,"29":0.012092484768285816,"30":-0.04833410921142635,"31":-0.03776232801164142,"32":-0.1576373320794202,"33":0.006709492657150412,"34":0.05960781785440011,"35":0.07707987352401209,"36":0.07818235759671932,"37":-0.16472140208082436,"38":0.026049688310241407,"39":-0.01638308776019318,"40":0.023848587173188083,"41":0.15076911199963858,"42":-0.00904377191592012,"43":-0.01647350440271715,"44":-0.015739770945009036,"45":-0.18125322278639755,"46":-0.10216917350257787,"47":-0.1068139045435775,"48":0.14829486945318632,"49":-0.06335784837243964,"50":0.01805007459305758,"51":-0.018341999734703723,"52":-0.06526219863194095,"53":-0.030603680538375897,"54":-0.04781947116446366,"55":-0.048803264318219346,"56":-0.05373847653460463,"57":0.08995158717802376,"58":0.11077883019166039,"59":-0.03746178543990027,"60":0.1384549766247735,"61":0.035709553086597,"62":-0.017348240072205992,"63":0.004830498887987878,"64":-0.029278858374163275,"65":0.0056379194086771285,"66":0.019399483544147823,"67":-0.08027174954455357,"68":0.1328319841777136,"69":-0.1517014512123788,"70":-0.050683419890152036,"71":0.0639400373327881,"72":0.10629122496849147,"73":-0.17986928968644794,"74":-0.03084566445234421,"75":-0.03263279644276653,"76":0.029220316501704417,"77":0.10961630686805322,"78":-0.10857329057685279,"79":0.0932664812571919,"80":0.014673792731986875,"81":0.051277317041013,"82":-0.017455750468726865,"83":0.02839626450778957,"84":0.010167034980792668,"85":0.009470681998158998,"86":0.08478850126612217,"87":0.0014796148835794789,"88":-0.1228147241269313,"89":0.03616151577029714,"90":-0.1122028666305276,"91":-0.09566547967893477,"92":-0.04236486380935302,"93":-0.05028335510206202,"94":-0.0036381189518288524,"95":0.08768486354285468,"96":-0.03847869907172178,"97":0.07709671735899778,"98":-0.1157352028197181,"99":0.010504341603200658,"100":-0.072876937909932,"101":0.009370863805961947,"102":0.03633801767864665,"103":-0.03040610815175255,"104":0.04663441275903271,"105":-0.11588845143744207,"106":0.03999303373944239,"107":0.14175160120732472,"108":0.0894895701939691,"109":0.023473771795551244,"110":-0.11369578471283887,"111":0.0015229251033135687,"112":-0.007969966771078167,"113":-0.015318123953320537,"114":0.10205277342021421,"115":0.15429187445129336,"116":-0.08723652172496527,"117":0.12506076138869476,"118":-0.022012844171957112,"119":-0.003184647796721714,"120":-0.06066673382196613,"121":-0.1354272373889926,"122":-0.10641171378619523,"123":0.10926480996866415,"124":-0.11905714682564167,"125":0.07728381035462352,"126":0.09911150783703944}},{"sx":1,"sy":1,"depth":127,"w":{"0":-0.0681568308037549,"1":-0.08146518861473272,"2":-0.07674594873780621,"3":-0.1345494944985094,"4":-0.029243306387670222,"5":0.15108949687527143,"6":-0.0057369168050429905,"7":-0.006957989964386358,"8":-0.015421295069175382,"9":-0.07464549163386419,"10":0.09894601335424183,"11":0.11780040486462455,"12":-0.06460166152305358,"13":-0.02672226643510151,"14":0.08001588304522934,"15":0.15025337283846935,"16":0.19124872521524772,"17":-0.09133251779044181,"18":0.20436308116459687,"19":0.07400408886777456,"20":-0.19178413171682757,"21":0.18119058218431058,"22":0.020272091798956903,"23":-0.04680534689609095,"24":0.0011444184087795403,"25":-0.02159266795699306,"26":-0.029012655199813612,"27":0.060521917424109825,"28":-0.0962862035495502,"29":0.007290678650891082,"30":0.14775683360464792,"31":-0.1664020704798854,"32":-0.13894098904049362,"33":-0.007555901973713015,"34":-0.14240245956325137,"35":-0.007647381303274005,"36":0.041872500209064314,"37":0.031679774125184294,"38":-0.11198305056898304,"39":-0.09960953695050763,"40":-0.02034750748460465,"41":0.09762818420527623,"42":0.052744926381414814,"43":-0.019460142875700134,"44":-0.16849755987433854,"45":0.026382329480476786,"46":0.07352822567893924,"47":-0.029400078887349624,"48":-0.001347211481833557,"49":-0.0062344803887531474,"50":-0.1783929593984505,"51":-0.03286174084002872,"52":0.12915745692711733,"53":-0.034108414739198484,"54":0.0238434078664329,"55":-0.037492648117216025,"56":0.007352588248404837,"57":0.019685839372208934,"58":-0.076190868944108,"59":-0.041629151797049395,"60":0.08547740878698984,"61":0.014504756403017901,"62":-0.01990220352868518,"63":-0.015939688684656075,"64":0.13078146414646413,"65":0.11279437230855086,"66":-0.012996134842386594,"67":0.04384685108272835,"68":-0.009250848538294663,"69":-0.03858802717158194,"70":0.019893712573569176,"71":0.09792672572448691,"72":-0.19315166552782925,"73":-0.031050673459772138,"74":-0.007732568226455136,"75":0.09145413058730384,"76":-0.05786261748210657,"77":-0.14135972208705191,"78":0.13538604912113428,"79":-0.12497436731343446,"80":0.08332284315671512,"81":-0.000033072208131934265,"82":0.07242456993608468,"83":0.06254415393089054,"84":0.017583927398008892,"85":0.02797726481957315,"86":-0.08624122454706636,"87":-0.004171311348353446,"88":-0.0707711689481799,"89":0.033568418246155356,"90":0.017272403999599704,"91":0.030652776158268148,"92":-0.020383718539812797,"93":-0.009744509902667406,"94":-0.07062351238038875,"95":0.03794491862381851,"96":-0.09340320926784916,"97":-0.11274744391688739,"98":0.0837974252831917,"99":0.02987227886885229,"100":0.20164996318391407,"101":0.03493817356749228,"102":-0.08671101478513323,"103":0.02409707995967467,"104":0.05849995655505306,"105":0.0806994446204973,"106":0.03893435845092782,"107":-0.020504738065721114,"108":0.01002324951790327,"109":-0.04365724212935719,"110":0.08756254223278859,"111":0.049150193770043836,"112":0.08664012124773537,"113":0.10684424476698114,"114":0.09386598915901266,"115":0.1483911106407116,"116":-0.017869485720957347,"117":0.0020048295871414397,"118":-0.04028789839580868,"119":-0.08915989573055445,"120":0.019509174652450386,"121":-0.018177746371727952,"122":0.03641336938531438,"123":0.030314278301649008,"124":0.1371385519583063,"125":0.015306420967869704,"126":-0.0003054817139729843}},{"sx":1,"sy":1,"depth":127,"w":{"0":0.031124401303486267,"1":0.03426608209495884,"2":0.04138573460265392,"3":0.046945262090199245,"4":0.009208497840289652,"5":0.09620387763348189,"6":0.07197220201597634,"7":0.09819588046929179,"8":0.024885960960206385,"9":0.014927382506823754,"10":-0.06656675776342016,"11":0.03476173936630451,"12":-0.03595318389040435,"13":-0.16477378959964012,"14":0.031751472130827005,"15":-0.06641038916211539,"16":-0.07024534399805965,"17":-0.056202378068272094,"18":-0.04240423541575054,"19":0.12177835666773541,"20":-0.05991048991854841,"21":-0.03033184580056274,"22":0.12130912530337164,"23":-0.016852963067313414,"24":0.0302812747217479,"25":0.18169747866300917,"26":0.1307766299353776,"27":0.08421265252660184,"28":0.07799708621400052,"29":0.018174690892914094,"30":0.06816237059781297,"31":-0.007142539808704964,"32":0.045948347104719074,"33":0.07677121428419738,"34":0.06587128297829782,"35":-0.01554176108637513,"36":0.18341154081225738,"37":0.04021179129283274,"38":0.044654075649067176,"39":-0.04088504723877998,"40":0.044639429488894634,"41":0.08195228620767529,"42":-0.06740015237103665,"43":-0.08876578089288206,"44":0.15654963945375514,"45":0.06143657466041946,"46":0.07806618857426857,"47":-0.018675748167373014,"48":0.024117046970953036,"49":0.10300302777710643,"50":0.03153449047476463,"51":0.07963173711422944,"52":-0.05560043807770419,"53":-0.009180342394586814,"54":0.050511365578509035,"55":-0.08021841511553654,"56":0.05013410215990334,"57":0.004239804267251596,"58":-0.03537624664628272,"59":0.0812399946748042,"60":-0.0021204634288139734,"61":-0.11237266788779096,"62":-0.20770818650733605,"63":0.017361617444247742,"64":0.09593643463270371,"65":0.08505924695989835,"66":-0.02988813356847322,"67":0.06723001135380614,"68":0.03937049031994339,"69":0.10092021197549302,"70":-0.09105224903379987,"71":-0.06021408246298692,"72":-0.12371457188951746,"73":-0.014605391129218364,"74":-0.02900479735284878,"75":-0.06202855535565456,"76":-0.034824308922151444,"77":0.08791366722675495,"78":0.15714534124502907,"79":-0.009658408584042133,"80":-0.04622831700045922,"81":-0.059124967088116,"82":-0.07270633839420414,"83":0.015282355367183368,"84":0.13687226783044817,"85":0.04539980996078756,"86":0.04712151460461733,"87":-0.002187509378959609,"88":0.07849908142050242,"89":-0.042565314090184075,"90":-0.11540909652758934,"91":-0.003533581026772633,"92":-0.06413576581289238,"93":-0.11363176315899882,"94":0.10343909290587802,"95":0.03308039823381046,"96":-0.003784691559331548,"97":-0.037989802152054455,"98":0.0017663793218893548,"99":-0.08511276502165531,"100":-0.07554878491808406,"101":-0.04984165972178699,"102":-0.0829800214179808,"103":-0.017497393509218195,"104":-0.20932751503482597,"105":-0.0468840830836947,"106":-0.048869435385746146,"107":0.1336455625870504,"108":-0.07554725898784484,"109":-0.04282089691496763,"110":0.07258200039573554,"111":0.022881848441262693,"112":-0.01198386457339123,"113":-0.09256612348754088,"114":-0.01288397379866664,"115":-0.07800972245387884,"116":-0.022296510521657084,"117":-0.18166814934152115,"118":-0.04454795043106006,"119":0.023348034972542238,"120":0.012079115902326007,"121":0.016475926125307492,"122":-0.13666368245655297,"123":-0.025861315541689446,"124":-0.06642657670027148,"125":-0.039171977668878234,"126":-0.0411182756481528}},{"sx":1,"sy":1,"depth":127,"w":{"0":-0.08071048123509174,"1":-0.00684086276039462,"2":0.07885402231232826,"3":-0.04632423398809337,"4":-0.008649100437528994,"5":-0.06273705087174014,"6":0.026965277043794506,"7":-0.026390591038016397,"8":-0.08070476537094569,"9":-0.060766555775524284,"10":0.1088845263065178,"11":-0.05825577702502518,"12":-0.0040186942771749425,"13":0.06230415022124388,"14":-0.022075658366745406,"15":-0.03463571126020821,"16":0.08849370321284919,"17":-0.18367491649526535,"18":0.025890646221856068,"19":0.07843620629819592,"20":0.05988781552541549,"21":0.03479599754494918,"22":-0.14922409988813792,"23":-0.071219962404668,"24":-0.059759855441624675,"25":0.07258466253483736,"26":0.006577551370673657,"27":-0.11785860493433672,"28":-0.09921361150347999,"29":-0.026998766575321197,"30":0.062188647088816246,"31":0.09776981390489571,"32":-0.030250003596709398,"33":0.12775482081976994,"34":0.1993001346491826,"35":0.00041684617794057396,"36":0.006913130526070512,"37":-0.01676335488327315,"38":-0.13357322913109376,"39":-0.09978636922173777,"40":-0.08996868922865825,"41":-0.047981327966735314,"42":0.13238089698216346,"43":-0.11003839172367871,"44":0.14110160995488746,"45":0.07257284211959579,"46":0.025426712146516036,"47":-0.015886179229472438,"48":0.06856994603323462,"49":-0.017457347505293583,"50":0.002853322181211862,"51":0.014436396111855317,"52":0.0065186932738995965,"53":-0.029553113515329403,"54":0.04476882828692851,"55":-0.06598960632567992,"56":-0.030593272263839493,"57":0.024330467578794656,"58":-0.048193017766681084,"59":-0.0992521199193629,"60":0.09779841372685229,"61":0.07126565672651639,"62":0.10713944580363385,"63":-0.06874774780022022,"64":-0.06208309208010976,"65":-0.013916253122707506,"66":0.07236848814092914,"67":-0.11994247682947312,"68":-0.08745861519946543,"69":-0.09687068067011816,"70":0.012685669748916432,"71":0.047298757122506044,"72":-0.10005014053772385,"73":-0.1628020611453401,"74":-0.14930070907396495,"75":0.10235930922144264,"76":0.030480271230655602,"77":-0.08034113726225965,"78":-0.057738671854213976,"79":-0.03715963579973552,"80":0.08164743938478267,"81":0.03458724823846013,"82":-0.0634224883799005,"83":0.04985990470237511,"84":0.06539304100670483,"85":-0.089779025513746,"86":-0.05694252447449311,"87":0.03515026840170114,"88":-0.10407804916918437,"89":-0.09426328857696092,"90":0.0020938354155642007,"91":0.2341414962130164,"92":0.05707035069158649,"93":0.13353304594382176,"94":0.08312825482256758,"95":-0.11521408021415017,"96":0.08782072152855301,"97":-0.07824570900782225,"98":0.02698486050704762,"99":0.052141243795556465,"100":-0.043284267647493116,"101":0.0018487852469839321,"102":0.020241876641338783,"103":-0.16585557530287873,"104":-0.10930003527277049,"105":-0.025793542402849663,"106":0.05531554586548258,"107":-0.08559674577738662,"108":0.0012844084871988272,"109":0.03657014230044765,"110":0.025291337053617104,"111":-0.007333937861777517,"112":0.1463463705244856,"113":0.013247114628051693,"114":0.13529049296410403,"115":0.14052121686369456,"116":-0.03007066132938928,"117":-0.004800701507965768,"118":-0.04927073689730498,"119":-0.08517237590988389,"120":-0.040789128495174395,"121":0.1954632147802514,"122":-0.15105246771547481,"123":-0.003859100854249561,"124":-0.08082821545504484,"125":-0.06773466141370758,"126":0.004161722612748427}},{"sx":1,"sy":1,"depth":127,"w":{"0":0.010649228083545046,"1":-0.05628309701107107,"2":0.007324564752851725,"3":0.09934398786126901,"4":-0.16840772505194687,"5":-0.00033667481462615806,"6":0.009096812882581184,"7":0.1423896641698137,"8":-0.008944509096456367,"9":0.05944116799838302,"10":-0.038838897769451715,"11":0.1704455165533455,"12":0.01036069346041904,"13":-0.19066272131277043,"14":0.13161359204914805,"15":-0.010972255392739555,"16":0.10682272513822019,"17":0.07406726684113112,"18":0.03642433849241694,"19":-0.08947901804119561,"20":0.04860269675643956,"21":0.01464421505169282,"22":-0.1612935908964448,"23":0.045483732749705144,"24":0.06418991017096135,"25":0.056196467280545025,"26":0.06361224910289735,"27":-0.06224624588387211,"28":0.07373718972730217,"29":0.08711260764602895,"30":0.0904672127185377,"31":0.10643972786841216,"32":-0.027317749261372655,"33":-0.029839430756721432,"34":0.0477065344528298,"35":-0.028447825326703233,"36":-0.011962174966777601,"37":-0.21842411024096828,"38":0.0664235403199768,"39":0.07421434660317866,"40":-0.028102119954003375,"41":0.0011999673481468663,"42":-0.0585851423215352,"43":0.0011093966999261315,"44":0.05967833023939028,"45":-0.11760832130328851,"46":0.05969355470745535,"47":0.004903695006120088,"48":0.0586909466973964,"49":0.03128187734076096,"50":0.04219974866010448,"51":-0.045498537583042405,"52":0.04994948098832455,"53":-0.21151269485579202,"54":0.03613950645726239,"55":-0.1360951157846239,"56":0.05522039850946002,"57":-0.11391155878246344,"58":0.045872570241659257,"59":-0.14162856805150348,"60":-0.002634737823834431,"61":0.03453092985216109,"62":0.02530423129570022,"63":0.06530627064200148,"64":-0.019871769493596828,"65":-0.03256475719280762,"66":0.020733369013145878,"67":0.0514554990785502,"68":0.06196715810382391,"69":-0.009525726869530213,"70":-0.1284790899701742,"71":-0.01282409879404992,"72":-0.10687078815185232,"73":0.048637204949934496,"74":0.026427025084671114,"75":-0.036549908054327736,"76":-0.1971457556028287,"77":-0.02359400717478687,"78":-0.09534667106627531,"79":0.06349375727882964,"80":0.15997977447995876,"81":0.03867111270894826,"82":-0.009952125728755366,"83":-0.12695501435803283,"84":-0.04274676187612191,"85":0.14017115181947581,"86":0.09021289558663019,"87":-0.004066026366987295,"88":0.03098193795346409,"89":-0.013247354763316416,"90":-0.04852685166814885,"91":-0.002560324148381366,"92":-0.11664124435940058,"93":-0.06505659885817837,"94":0.08754062163290195,"95":0.010922208127809878,"96":-0.11201107114905907,"97":0.1588021425512133,"98":-0.05754230051632318,"99":-0.03570328982724778,"100":0.18052427666680373,"101":-0.025716170851294014,"102":0.06940483115557189,"103":0.015583574331443056,"104":-0.10289103158143786,"105":-0.06412672560430431,"106":0.03246007570918995,"107":-0.03584191985649153,"108":0.03417574732711741,"109":0.004882011536889229,"110":-0.08923086474198819,"111":-0.07463973220238933,"112":-0.16035832110052503,"113":-0.023548324851788704,"114":-0.1550029520489982,"115":0.000635361266645305,"116":-0.04653263818161965,"117":-0.04362159564373014,"118":-0.12392740504516923,"119":-0.08675423696859456,"120":-0.10428293769767277,"121":0.03004591123993079,"122":0.08560517487022144,"123":-0.07088104853742463,"124":0.02527636887332738,"125":0.017260658698156187,"126":-0.05667221752777628}},{"sx":1,"sy":1,"depth":127,"w":{"0":0.0930194046734798,"1":0.03991367570847285,"2":-0.013874668985527826,"3":-0.0878230434555687,"4":0.08668777974430374,"5":0.08945538861085292,"6":-0.0980872970181109,"7":0.002949669951853469,"8":0.0518175851717898,"9":-0.06506556909473941,"10":-0.06718717533345614,"11":0.010942022960827354,"12":0.20352763155785744,"13":-0.12181554731875106,"14":0.014945700690693262,"15":-0.0003011350830053644,"16":0.07645624527714981,"17":0.1929599414577578,"18":0.17121065451226614,"19":0.01651620879706199,"20":-0.04757637993776819,"21":0.03730832521791184,"22":0.07809201590680741,"23":-0.10784802814720121,"24":0.11890582160347195,"25":-0.11337566734224587,"26":-0.10355348641289455,"27":0.09977253128708781,"28":-0.10617887428521351,"29":0.0203179703669787,"30":-0.018055308874204718,"31":-0.023410770182639904,"32":-0.027528567112565072,"33":-0.23633537185538142,"34":-0.1222942339265939,"35":0.14623807910316403,"36":0.1422224297806174,"37":0.037729246208524504,"38":0.05906537519241285,"39":-0.14755159168390233,"40":-0.0629259842204819,"41":-0.06577956798714472,"42":0.06360801271843788,"43":-0.012036153036024016,"44":0.03592990125485847,"45":0.028478599072987738,"46":-0.038723904382388395,"47":0.03974580165491435,"48":0.12942965435158077,"49":0.009894638693247663,"50":0.07126944529038769,"51":-0.015368073594645234,"52":-0.06199844611716517,"53":0.12711477911934313,"54":0.0033104525323891664,"55":0.13581371107102327,"56":0.13856176440851328,"57":0.18284464454331978,"58":0.09110891253013371,"59":-0.018894399915182904,"60":-0.07574445888999275,"61":0.1243744648932719,"62":-0.015338388268154157,"63":-0.033949167086002444,"64":-0.09218671323709367,"65":0.11867889065099992,"66":-0.09438453027055968,"67":0.022372382223501238,"68":0.034059510646099155,"69":0.07284156069020364,"70":0.0016214489376110003,"71":-0.05908802551038758,"72":0.09117583886496414,"73":0.12232264107392117,"74":0.027708167035103922,"75":-0.049936084620182335,"76":-0.012180104505519602,"77":0.09231957220292075,"78":-0.009051631261884035,"79":-0.11316867911660015,"80":0.11397145793641154,"81":-0.005439278022484304,"82":-0.0993963890423699,"83":-0.03243719717193615,"84":-0.052790794180388054,"85":0.06921105959442414,"86":-0.03905567528074051,"87":-0.1448511376978138,"88":-0.030884543758945077,"89":-0.03639061031229377,"90":-0.02945109300507205,"91":-0.07095587541777908,"92":-0.0850229771354202,"93":-0.045820084194611935,"94":-0.06746856851992775,"95":-0.016120542875887784,"96":-0.15185533479145236,"97":-0.14274147374181842,"98":-0.14695940072978672,"99":-0.022350619532596375,"100":0.1416849498249564,"101":-0.015945146528008595,"102":0.03421116919253363,"103":-0.07217166738282461,"104":0.045805248762755914,"105":0.134539692670098,"106":-0.13614012556095909,"107":0.016429308960834964,"108":0.0038196252236092237,"109":0.010448395270456105,"110":0.12436509474193892,"111":0.05776561172530764,"112":-0.06628832398501883,"113":0.04211508829927388,"114":-0.009873168923159831,"115":-0.02678160171835945,"116":-0.02516541175975357,"117":-0.13688562878591273,"118":0.013789604731891133,"119":-0.07974014428959299,"120":0.006046164170855468,"121":-0.06553243867909822,"122":-0.013644652069396506,"123":0.034080857066710574,"124":-0.00007837246168037396,"125":0.035199938958537624,"126":0.041986709254686005}},{"sx":1,"sy":1,"depth":127,"w":{"0":-0.07179054184380086,"1":0.044577791800486,"2":-0.011299912057376923,"3":-0.03157606541745561,"4":0.04796799387812351,"5":-0.048381953338815266,"6":-0.12111555149895291,"7":-0.04497212538697607,"8":-0.020005981963444868,"9":0.18633237656250534,"10":-0.07217333028098326,"11":0.08489184466682789,"12":-0.01635081251062967,"13":-0.09579635797094394,"14":0.08501986729364532,"15":0.18089587164711593,"16":-0.0478235980013084,"17":0.20162446253391392,"18":0.09478947991277663,"19":-0.008624498471607562,"20":-0.09243125364766035,"21":-0.046845794761614976,"22":0.028674631993658675,"23":0.004997947412583997,"24":-0.10868022623662518,"25":0.055224845934655376,"26":0.18336258048524004,"27":0.04805882343699955,"28":-0.06096912679274117,"29":0.22468672518320293,"30":-0.06869703619001796,"31":0.008944148695194642,"32":0.04207040227229117,"33":-0.07687459235498047,"34":-0.03979430533853326,"35":-0.043020339911643224,"36":-0.0421134983290736,"37":-0.005463453201198103,"38":0.23264546618976492,"39":0.0717473717653944,"40":-0.06353710363259997,"41":0.28843121457218923,"42":0.09437520454792395,"43":0.01237508370950366,"44":-0.08016697145462369,"45":0.019313581138649068,"46":0.02556083070172132,"47":0.10980223248000685,"48":0.04452702482555243,"49":0.03608494002355679,"50":0.06307505108638513,"51":0.08205213682896036,"52":-0.11751649115119477,"53":-0.0284328471037466,"54":-0.08748736712751044,"55":-0.030884857091539913,"56":0.04105394904529297,"57":0.015025910542182044,"58":0.04901974767361492,"59":-0.12688282105121984,"60":-0.16790018117824523,"61":0.07671036530921843,"62":0.06379735941100048,"63":0.09616173785815625,"64":0.05535041303729269,"65":-0.10263038851102389,"66":0.015189151522046505,"67":0.23974653201030263,"68":0.004874162235883532,"69":0.09213795640027338,"70":-0.11152350422734773,"71":0.07234363781122305,"72":0.0124414813001743,"73":-0.04300116103742441,"74":0.05600756838571397,"75":0.12898266222173557,"76":0.07635828082522933,"77":0.09855578766554715,"78":0.07365587588352235,"79":0.03505682671590815,"80":-0.16168795680574405,"81":-0.05378659493589115,"82":-0.0734463256418878,"83":0.03558357248659412,"84":-0.18473344342397394,"85":-0.10221855843433052,"86":-0.027641950323057583,"87":0.008089601706009107,"88":0.02850968680509496,"89":-0.12058770242360296,"90":0.1191351859349421,"91":0.013393168905958147,"92":0.04092592312020814,"93":0.04482676682521647,"94":-0.08691276160727826,"95":-0.003941014982303053,"96":0.07903835518252271,"97":-0.03176049662530303,"98":-0.09876720558941322,"99":0.03905891023800957,"100":-0.1301477946480776,"101":-0.0822228987693554,"102":0.04447673967441467,"103":0.0734970494339982,"104":0.011698855548935135,"105":-0.018777086088733148,"106":-0.014022739191462326,"107":-0.08034589616911512,"108":-0.03633033157118731,"109":-0.00590823684513356,"110":0.07913495913746975,"111":-0.020499248487518728,"112":-0.07453758371548033,"113":0.06944135930524112,"114":0.09905964027155545,"115":0.01194219983301434,"116":0.07487563323806426,"117":0.12735194725886895,"118":-0.040095187483194454,"119":0.06603863786982302,"120":0.11288998942880218,"121":-0.08733704131336434,"122":-0.0005346404779775813,"123":0.04347032772771284,"124":-0.13027879383717977,"125":0.053307934184780595,"126":-0.010345645249178134}},{"sx":1,"sy":1,"depth":127,"w":{"0":0.011592255195121741,"1":-0.06240294480059241,"2":-0.017381485233607427,"3":-0.03064196783641185,"4":0.10775788104481199,"5":0.05542331208199614,"6":-0.057604382135981784,"7":-0.0005672168460170995,"8":-0.003002354393716608,"9":0.14510658686443112,"10":0.10628521438268197,"11":0.026352352741767286,"12":0.05926765662855898,"13":-0.1557428702113153,"14":0.005647480574874925,"15":0.027622857046823972,"16":0.10726144220739296,"17":0.029697024511693895,"18":-0.0566434142462965,"19":0.25925627604495677,"20":-0.10052509117894658,"21":-0.014997562703784651,"22":-0.10967812081752124,"23":-0.01844489568602144,"24":0.1482751568024675,"25":-0.0704302530296766,"26":-0.014963533569160895,"27":0.10809870631038128,"28":-0.06087759085767491,"29":0.12992060523937393,"30":0.10538871137000068,"31":-0.04019426162954573,"32":0.06103038838201568,"33":0.14880917390558218,"34":0.005740427419814823,"35":0.12122781918257819,"36":-0.032292844630959085,"37":0.021390326195801425,"38":-0.05110969356841197,"39":0.01732181912591395,"40":-0.002559251164851877,"41":0.15070678949352886,"42":0.10459382539092563,"43":0.04071812761641869,"44":0.20206942386071525,"45":-0.013478181794481348,"46":0.005691037356303004,"47":0.11152432135185571,"48":0.0067674041897445095,"49":0.013919412460148496,"50":-0.08024927763320212,"51":-0.036343084538723626,"52":0.009251281321898579,"53":-0.1149777015916781,"54":-0.15560838374434094,"55":0.06957889355858744,"56":-0.11306686135355978,"57":-0.11259544594778263,"58":-0.14046933834522235,"59":-0.008939483176776366,"60":-0.04062031400173697,"61":-0.07670047681779711,"62":-0.01235965126112765,"63":-0.1913991174999284,"64":0.025841168671821877,"65":-0.023149740274037944,"66":-0.056467463070832925,"67":-0.03196358299856593,"68":0.10850817748864586,"69":-0.058922026823692374,"70":0.03286283825364429,"71":-0.03540692076451495,"72":-0.10318054890796978,"73":0.055655174007057766,"74":-0.050233658410109495,"75":0.08350557782172364,"76":-0.01505315528308961,"77":0.044659001701349496,"78":0.020308618881249053,"79":0.1370962757314239,"80":0.0247119249104915,"81":-0.08068394025621377,"82":-0.1606972113647439,"83":0.007531157436858693,"84":-0.04760483385154055,"85":0.04275233579476945,"86":0.018626087891341882,"87":0.028613943747314623,"88":0.13126796337260663,"89":0.05736811391330882,"90":-0.12538226303567704,"91":-0.11991301833950825,"92":-0.0025509436312442534,"93":0.06726343309827282,"94":0.04634769870659898,"95":-0.035388592662554785,"96":-0.055223606382525006,"97":-0.12193475287514491,"98":-0.0967980329905395,"99":0.14837731487550976,"100":0.0118689456665802,"101":-0.08906159594511691,"102":-0.11384198846557447,"103":0.07949193635522077,"104":-0.01933858348993227,"105":0.04911603195985547,"106":-0.14891495457517287,"107":-0.02314821977299831,"108":0.05364167407172055,"109":0.15360065001824205,"110":-0.0795717401646826,"111":-0.018250828958882852,"112":-0.014686805298177837,"113":-0.22005104843929446,"114":-0.00767499110563983,"115":0.017957903616628093,"116":0.08274893744276125,"117":0.10948764279215835,"118":-0.06074837667521291,"119":-0.007443472593686408,"120":-0.12133309865479092,"121":0.11834641011873616,"122":-0.08790824360739416,"123":-0.06590524625211472,"124":-0.09322728395368458,"125":0.025413610252840363,"126":-0.027175236368764816}},{"sx":1,"sy":1,"depth":127,"w":{"0":0.002727008758871024,"1":0.054671563339000605,"2":0.0786376652055494,"3":0.03707842347182751,"4":0.015080387892207284,"5":0.13363088231359652,"6":-0.020049810760071656,"7":-0.011115456577239821,"8":0.06607396231731245,"9":-0.05368915088140279,"10":0.10397146775773436,"11":-0.010990056480003082,"12":-0.0037461835220470086,"13":0.03566546451283303,"14":-0.04126126737749069,"15":-0.006940282870006539,"16":-0.06203124316892248,"17":-0.06355011124418,"18":-0.15769534850739603,"19":-0.07745678502772645,"20":0.01769012918902911,"21":0.12578117888459842,"22":0.0778190105594169,"23":-0.1116966975134096,"24":-0.07185485610873227,"25":0.06257504470755848,"26":-0.08008282699840645,"27":0.08059522874164654,"28":-0.04210840741834312,"29":-0.05697056672827442,"30":0.0000063632268448172876,"31":-0.04502807969905109,"32":-0.005275931771377706,"33":0.08256862187892056,"34":-0.024554488832394965,"35":0.14127413222189122,"36":-0.009111710878246403,"37":0.15368215108375854,"38":0.10595374145398134,"39":-0.07487815217264371,"40":-0.15939556884476247,"41":-0.10755587095824307,"42":-0.13291360397008173,"43":-0.005343664263590551,"44":0.01476509543999211,"45":0.06864434929011566,"46":-0.03691434435983155,"47":-0.005841003410337337,"48":0.19989626948961278,"49":0.026143581150912962,"50":-0.012695963931815464,"51":0.02468204741319429,"52":0.14803611270011968,"53":0.009032411336107025,"54":-0.15145224003326987,"55":-0.03753955747220341,"56":-0.05110557433065152,"57":-0.1281686994131577,"58":-0.10728342031446242,"59":-0.07358575565050347,"60":-0.0017422167649735307,"61":-0.021222357948636736,"62":0.04355084362068608,"63":-0.034358870350738986,"64":0.042162552901063806,"65":-0.18055249115840122,"66":-0.06099383427227929,"67":0.04775112630817841,"68":0.02911779650544105,"69":0.0285143602716037,"70":-0.08283753409509,"71":-0.009717172298647088,"72":0.15066048582245087,"73":0.10620302327442553,"74":-0.06555723450867157,"75":0.07293895498807941,"76":-0.1194069884808717,"77":0.08017519691661007,"78":-0.012959943879042379,"79":0.02650915381326503,"80":-0.022466420094131245,"81":0.005037789588256861,"82":-0.03555595080819737,"83":-0.01819171678372372,"84":-0.022303225984950468,"85":-0.026457792826887577,"86":0.013722982597038953,"87":0.06943127310944983,"88":-0.011644985178250569,"89":-0.16532791171502195,"90":0.01715342237935311,"91":-0.004991110675197495,"92":-0.019931866135834805,"93":-0.0822664394914105,"94":-0.018053633672475543,"95":0.26280670481560375,"96":-0.210308099834913,"97":0.12711449052145704,"98":0.10867192335334488,"99":-0.04456699094675166,"100":-0.04187409600662093,"101":-0.12791244033244314,"102":-0.06404001557658345,"103":-0.07101215491836786,"104":-0.020489437132875467,"105":0.010396883348622455,"106":-0.012571486435873979,"107":-0.022406957078024835,"108":-0.022369659366662572,"109":-0.05621209105102854,"110":0.04107074911083711,"111":-0.051896902002236026,"112":-0.051438116047461305,"113":0.08418074995496817,"114":0.11308534603099733,"115":0.0170701068801552,"116":-0.11412058239591115,"117":-0.06631395495129358,"118":0.01428581455170472,"119":-0.1567113287469279,"120":0.016016403416131267,"121":0.008068627173625165,"122":0.025341173499320642,"123":-0.012055748702098997,"124":-0.16778947413754572,"125":-0.055089210230446176,"126":-0.1331614960848341}},{"sx":1,"sy":1,"depth":127,"w":{"0":0.1682337277897132,"1":0.10911186702818367,"2":-0.06382553365341209,"3":0.10903354900118815,"4":-0.1311080880666053,"5":0.038590631437050264,"6":0.0966024772561831,"7":-0.04338231711359082,"8":0.034322310649605274,"9":0.13958817552403258,"10":-0.11397823141732114,"11":0.03275627245173731,"12":0.11857845039517895,"13":-0.047214914914398866,"14":0.11572674523729576,"15":-0.06911522473429516,"16":-0.023616890849901956,"17":-0.04625608238016298,"18":0.01589062642155047,"19":-0.029119330997042215,"20":-0.0512728616388169,"21":-0.08040521664757588,"22":-0.04279361257325571,"23":-0.028502681154836923,"24":0.03449070717020792,"25":-0.019311340615903068,"26":-0.1623241101049101,"27":-0.014291108816163984,"28":-0.04167810009780149,"29":0.10003834215436477,"30":0.12932692401559054,"31":-0.06630435439832959,"32":-0.054753009873738594,"33":-0.015856046324442857,"34":-0.1136012622358883,"35":0.0005214085499617142,"36":0.027426010924678647,"37":-0.05867110566734679,"38":-0.08949310059306641,"39":-0.03350368538423947,"40":0.025700071011863824,"41":-0.04525091148803453,"42":0.03138824078822912,"43":-0.2497580579646518,"44":-0.2582998133378543,"45":0.0671217637889623,"46":0.028448027160264667,"47":-0.0517115705161021,"48":-0.18039442123488078,"49":-0.02269955626694033,"50":0.03863088456839396,"51":0.12572177783695873,"52":0.1120618096563832,"53":-0.05142210179465166,"54":-0.1981274226056883,"55":-0.016345552452181694,"56":0.08197370414121824,"57":-0.10565716236849981,"58":0.011085363104660031,"59":-0.15626294539236193,"60":0.09514360617892832,"61":0.042182169964467726,"62":0.026585948015952963,"63":0.0289901898146254,"64":-0.027615012818557348,"65":-0.002414615771928433,"66":0.032265740307892685,"67":-0.12146270170572347,"68":-0.09690834820457672,"69":-0.18483043668902763,"70":-0.045401416946326274,"71":-0.1719121888253178,"72":0.07037579010534502,"73":0.02052301543252789,"74":0.06170375158391945,"75":-0.11683733942862519,"76":-0.03312377338756149,"77":-0.02908133486650445,"78":-0.07526953190475608,"79":-0.0651074067973275,"80":-0.08523490684216896,"81":0.12278362180607384,"82":0.12253212933097479,"83":0.008026575808052149,"84":-0.19066193136011275,"85":-0.09342912681556505,"86":-0.04092176953778397,"87":0.04819420658980354,"88":0.04430346805336231,"89":0.11151766241391317,"90":-0.03215868041534551,"91":0.06102051347040281,"92":-0.006966395939360889,"93":0.039323357722936866,"94":-0.1844759851990054,"95":0.06156317516903024,"96":-0.023824558575696844,"97":-0.09117327474291757,"98":-0.10147761810935982,"99":-0.018141189136290092,"100":0.05482772530626061,"101":0.012254634496422955,"102":0.03882038016374348,"103":0.017658392423779902,"104":-0.020881731531327333,"105":0.018484006955998264,"106":0.0020028916241439,"107":-0.009653653537614507,"108":0.2633828417161153,"109":0.02430393962517613,"110":0.05078258635614882,"111":-0.04363599382179455,"112":0.008120520659387677,"113":-0.02605012969875488,"114":-0.07286725657462927,"115":0.04402581128779989,"116":0.039344664540315225,"117":-0.035655769602559555,"118":-0.06709389067422558,"119":0.0955746934378561,"120":0.014321129967106504,"121":0.13891779366231818,"122":0.06413020636827116,"123":0.024080003341927367,"124":0.03744827289919098,"125":0.0420331905763299,"126":-0.06779182348601981}},{"sx":1,"sy":1,"depth":127,"w":{"0":-0.0023159396108601315,"1":0.06889019542191996,"2":0.017735491105760736,"3":-0.05160151529430056,"4":-0.11334198193398914,"5":-0.014661057190186474,"6":-0.0803151050987058,"7":0.09309228828867598,"8":0.038766144517615654,"9":-0.1559514923888896,"10":0.10375620368407612,"11":0.03268152701500066,"12":-0.14325494624555254,"13":0.01782899093212778,"14":0.008966924074545562,"15":-0.10376612904825255,"16":0.05453881135444992,"17":0.04990729130182424,"18":0.011899975338874082,"19":-0.12805182101975063,"20":0.1072067365141375,"21":-0.057777513193605905,"22":-0.14950735222853265,"23":-0.055667137924807916,"24":0.011328240519153612,"25":0.028199680027745606,"26":-0.1433855242949697,"27":-0.01210336306971787,"28":-0.019804477427177572,"29":-0.10370957303773606,"30":0.16876177265566808,"31":-0.02597917853178974,"32":-0.20769228391931496,"33":0.14550736322208566,"34":0.07158698661190165,"35":0.10463323441284865,"36":-0.10015903715353534,"37":0.06435545528817278,"38":0.030571984538674015,"39":-0.00017156981606202093,"40":0.026707354429236056,"41":0.09386298779003771,"42":0.025991813260735262,"43":-0.14659547129206643,"44":0.008577397867208045,"45":0.07747760446343209,"46":0.07514501480607066,"47":0.0594133176558735,"48":0.024498771004549332,"49":0.04665091205614153,"50":-0.018807227799924185,"51":0.06255453143140366,"52":-0.19012653489379527,"53":-0.013607735247530329,"54":-0.11678071689994814,"55":0.10205284843264717,"56":0.07400811380550974,"57":0.006087810314481681,"58":-0.058992905933894016,"59":-0.031212072598122823,"60":-0.15858463188110855,"61":-0.04463165512670715,"62":-0.02070402522046618,"63":0.02150981263045431,"64":-0.0164804595220855,"65":0.04320966156678382,"66":0.08489960526918852,"67":-0.04721413821360889,"68":0.12403430754555544,"69":0.10394068862674344,"70":-0.002260817061694392,"71":-0.13528048850455213,"72":0.052005312201745736,"73":-0.091054412074698,"74":0.010751487737228633,"75":-0.04426501499588217,"76":-0.010651833255969457,"77":0.00960509379062667,"78":0.09441642394477044,"79":-0.033973850625315626,"80":0.09026208101667887,"81":0.08966442521028929,"82":0.06513770495785333,"83":-0.058731335328001774,"84":-0.06413283386770269,"85":-0.018817686902052277,"86":-0.01812983260195127,"87":0.08191791279979121,"88":0.028514694938085276,"89":0.050689048846332636,"90":-0.037756528883114704,"91":0.043676492455042064,"92":-0.011189568834616132,"93":-0.10173525772300211,"94":-0.13198423313676572,"95":-0.003110236746228077,"96":-0.16228506142625684,"97":0.07337709287358624,"98":0.0430551828543406,"99":0.22909798115691507,"100":-0.03944354943294686,"101":0.10473039415980423,"102":0.01949192239884856,"103":0.02911403822427688,"104":-0.056098210922231495,"105":-0.05976178127456071,"106":0.09116964178879132,"107":-0.0616729652124735,"108":0.04750832706526057,"109":-0.044985769258318375,"110":-0.07757524443426152,"111":-0.04013249348033257,"112":0.03261368833191367,"113":0.08340099327538619,"114":0.047229153659427515,"115":-0.020060438918803797,"116":-0.017987625315873803,"117":0.07325783694668121,"118":-0.001953630168370608,"119":0.10044357869872134,"120":-0.13782862810118438,"121":0.04777262103683658,"122":-0.243047012052608,"123":0.003937621648037325,"124":0.07316497804682177,"125":0.04964624827874803,"126":-0.06209040218020987}},{"sx":1,"sy":1,"depth":127,"w":{"0":0.015416068073175663,"1":0.026344722502979492,"2":0.07883919599785262,"3":0.0070756607173707445,"4":0.059052091517236505,"5":0.04037182550805437,"6":0.08275895619139828,"7":-0.0019130816210444065,"8":-0.09774786870115607,"9":0.10026143195021889,"10":0.1139101472175591,"11":0.036003467881303125,"12":0.0031748593901873234,"13":0.031940035755317814,"14":0.0670991325308351,"15":0.0868529637946711,"16":-0.03362983521222563,"17":-0.07635696298893835,"18":0.028583173969845922,"19":0.07752676969727933,"20":-0.09827098168455599,"21":-0.1253690353787606,"22":-0.08739624846327482,"23":-0.2775100965263099,"24":0.09328344589001551,"25":0.07635971226884893,"26":0.001456088185881964,"27":0.004789092162057532,"28":-0.05398350409368218,"29":-0.0814934856392716,"30":0.061724108233968844,"31":0.048902661418419015,"32":-0.012554856830464357,"33":-0.08972452110546977,"34":0.12003294828945714,"35":0.028906957685116468,"36":0.03177879709123318,"37":-0.00022520717528708468,"38":-0.12784847742392427,"39":-0.03000356024207141,"40":0.1508663582700039,"41":-0.09580033340424733,"42":-0.029359433603011277,"43":0.11495918465230852,"44":-0.1166160884875652,"45":-0.18869226176136566,"46":-0.0588928287300893,"47":-0.11200251045091356,"48":0.1021073254692158,"49":0.03930295596455851,"50":0.21012568938298895,"51":0.012681679541429798,"52":0.006013579949437526,"53":-0.02344888032549825,"54":-0.0763674604811772,"55":-0.027914523642952868,"56":-0.102590513515677,"57":-0.08032711602385753,"58":0.004491838098112366,"59":-0.08227072899331259,"60":0.0326027588254596,"61":-0.04523577784120873,"62":0.03595193514434447,"63":-0.04437051772964308,"64":0.1711522785704025,"65":-0.0017316133652555657,"66":0.06511841915706894,"67":-0.08530301360272707,"68":0.02964989906376285,"69":-0.010515519959470317,"70":0.16993247714856743,"71":-0.15480111569451363,"72":-0.19552183052023622,"73":0.0815973440818165,"74":-0.04636069401159477,"75":-0.049221678811403186,"76":-0.05655536616028719,"77":0.09849507465034568,"78":-0.0657565734972601,"79":0.11238065468327635,"80":-0.004612553438994964,"81":-0.10314467104933994,"82":-0.0399582687567223,"83":-0.0032251936314371733,"84":-0.0018900593372815039,"85":-0.014747093008083113,"86":0.025672583227811074,"87":-0.07385174561178988,"88":0.05645035523804379,"89":0.04273313538180767,"90":-0.045963538687615865,"91":0.09026810995284465,"92":0.036374309145498177,"93":0.11861947422294415,"94":0.009522660594288872,"95":0.18057788639117436,"96":-0.013082360732173,"97":-0.11407690387704117,"98":0.0005439767653215547,"99":0.11324969308936457,"100":0.10721401666290702,"101":0.001078528583700164,"102":-0.009716935714754207,"103":-0.0046688053571368885,"104":-0.16111889933866946,"105":-0.02064348042897773,"106":0.0011585788670497041,"107":0.11852183489481607,"108":0.019985113637823276,"109":-0.08134199271316195,"110":-0.0531454160434297,"111":-0.03773183186976973,"112":0.14387889765387518,"113":0.016298245431026957,"114":0.08077542964049148,"115":-0.08685133610824086,"116":0.007968786475823931,"117":0.008306308998376508,"118":-0.055512508551334445,"119":0.05975178702221838,"120":0.09246919385814438,"121":0.025951588745869787,"122":-0.10309078036929308,"123":0.004002538331361022,"124":-0.03675355036259778,"125":-0.08898819587902446,"126":-0.0077059180983721064}},{"sx":1,"sy":1,"depth":127,"w":{"0":0.08226538100012011,"1":0.04861435675283819,"2":0.05699236347116175,"3":-0.08302948077160972,"4":-0.024761036883917304,"5":-0.07527079793248945,"6":-0.10050464515492706,"7":-0.09178750016258087,"8":-0.010560851974913427,"9":-0.15712799729549706,"10":-0.04569049405506146,"11":-0.03288549301068148,"12":0.043033171648435994,"13":0.062649566016827,"14":-0.08171277670292725,"15":0.08705414802939859,"16":-0.05044418995973268,"17":-0.044440548095801904,"18":-0.051924156876862075,"19":-0.11750444306864632,"20":-0.09337425464049766,"21":-0.014820993220448808,"22":-0.05856113519856927,"23":-0.1933035966015237,"24":0.02957762849733571,"25":0.01963913513971711,"26":0.07974747507011262,"27":0.16296766317660935,"28":-0.03857963327300144,"29":-0.05188198921557206,"30":0.030050126864399184,"31":-0.07048138190738218,"32":0.08345571603231233,"33":0.08298517461663912,"34":0.02315965476957019,"35":0.18721688378325074,"36":-0.059799710052628914,"37":-0.016897482938325933,"38":-0.14236841023639613,"39":-0.12046726608056109,"40":0.04756304886225974,"41":-0.12658310104904327,"42":0.014159728243147414,"43":-0.09111970772815954,"44":0.047143118201665175,"45":-0.011835656618277414,"46":0.06178506456039485,"47":-0.07667262123597353,"48":-0.09705108389019244,"49":-0.14822840470091012,"50":0.01642128144260073,"51":0.013819228067629306,"52":0.02423438982764103,"53":0.05945170518068402,"54":-0.033294560920949824,"55":0.06705856137211143,"56":0.031002199367155526,"57":-0.07611164132572967,"58":0.05891220555200735,"59":0.0011493985053810068,"60":0.09759377277574388,"61":-0.04957487909524505,"62":0.020460313673424553,"63":-0.05048186091364641,"64":-0.10516751494526068,"65":-0.13597164096740355,"66":0.010742193639516225,"67":-0.03380928065964251,"68":-0.06938926439964517,"69":0.006107027892714226,"70":-0.013773046138730222,"71":0.08866536773070972,"72":-0.02765563571038779,"73":-0.14099248936077483,"74":-0.04099544088376781,"75":-0.08247426307395132,"76":-0.09893463529694134,"77":0.15523151204234512,"78":-0.05097253345404914,"79":-0.03290096348662631,"80":0.08050840083869405,"81":-0.20512870347184461,"82":0.047474684041116925,"83":0.0512258656834947,"84":0.10512782011704447,"85":0.06721023929296938,"86":0.003364643729181045,"87":0.1432393123994408,"88":0.1452530331704742,"89":0.002138892438245645,"90":-0.05598114434974264,"91":0.03903628873918092,"92":-0.10067935666534217,"93":-0.049951468186309446,"94":0.16410214440552226,"95":0.1770236949639568,"96":0.013438402021365415,"97":-0.17190739411204614,"98":0.039031427590194255,"99":-0.06809843417565745,"100":0.0630488621115926,"101":-0.043759609019809985,"102":-0.11894881197990834,"103":-0.0656926396293843,"104":0.02969903907461452,"105":0.20374614471064612,"106":0.12736211100466902,"107":-0.05301446660727137,"108":0.036736397028171504,"109":-0.1173639347148332,"110":0.05017918807271337,"111":0.0007158029964721346,"112":0.04031280213511901,"113":0.07064783317236209,"114":0.05710106982951268,"115":0.05462998523670475,"116":-0.07388441813500082,"117":-0.11485680577641176,"118":-0.010162172661216117,"119":0.07507105559252678,"120":0.16365935604065956,"121":0.012478534564246874,"122":-0.03961929146190352,"123":0.03339160498211636,"124":0.015357358199011677,"125":0.05427314748377848,"126":0.07816647845872207}},{"sx":1,"sy":1,"depth":127,"w":{"0":-0.036569031874215716,"1":0.06918742361856686,"2":-0.015423061884127414,"3":0.010914754872842674,"4":0.07745476645346343,"5":0.17285884938021248,"6":0.10623825163033729,"7":0.0014957868082091225,"8":-0.15410377773026318,"9":0.07288589590845693,"10":0.02263854657401337,"11":0.1503544058575911,"12":0.010033689257796794,"13":-0.010809209563413061,"14":-0.0408615432136884,"15":0.03667221189150525,"16":-0.03263934052192963,"17":0.0869315611406103,"18":0.11915686343953583,"19":-0.08345461646375658,"20":-0.06764677745890796,"21":0.06024805331015208,"22":0.0004274942162872837,"23":0.035707356113302245,"24":-0.04920997652263129,"25":-0.009127671445800102,"26":0.05489150093293065,"27":0.06173983510905296,"28":0.04634377916095964,"29":0.08441397575231957,"30":0.09355602511390396,"31":-0.02121316780231307,"32":0.011524913924469296,"33":0.10425141514956879,"34":0.056735113795718335,"35":0.05926692164149263,"36":0.014204704264629449,"37":0.10375127650825205,"38":-0.09919564787973902,"39":-0.04954104932827918,"40":-0.014469525727888826,"41":-0.03135343554297083,"42":0.02950237601627775,"43":0.03847808339357574,"44":-0.10846547917141733,"45":0.06071972434020018,"46":-0.06501882021325814,"47":-0.03816555849359924,"48":-0.016980918326292102,"49":-0.009226011648018445,"50":0.09344692624991865,"51":-0.2233099913782358,"52":-0.035755859071442804,"53":-0.15471217569018428,"54":0.24851726520117354,"55":0.01372459038171105,"56":-0.02931274487746162,"57":-0.09599373062410313,"58":0.06460219907275877,"59":0.05844710701964593,"60":0.16178888795972676,"61":0.10696129514372822,"62":-0.005752728935521297,"63":0.12083597329375004,"64":0.004461925830693927,"65":0.05821902375272314,"66":-0.07653516306816514,"67":-0.13485131693625116,"68":-0.037476993517406625,"69":-0.03790262677530595,"70":0.0801572265129673,"71":0.12872143518053147,"72":0.06448825131217142,"73":0.12882788703480125,"74":-0.002360020367144068,"75":0.006996711434629677,"76":-0.21493224732618166,"77":-0.00786987325686819,"78":-0.00412973667237304,"79":0.03128400210088887,"80":0.04900352777695663,"81":-0.061916395655823984,"82":0.04110810501967117,"83":0.029422842313199443,"84":0.13988554359506047,"85":0.030375381799680006,"86":0.12284199475659359,"87":-0.05411525931193089,"88":0.12141115130714786,"89":0.020454117475794613,"90":0.042866635924949915,"91":0.11529324318507286,"92":0.036361006700629056,"93":-0.049261470064685654,"94":0.09630680319974629,"95":0.002454809301517121,"96":-0.084045762708587,"97":0.19700193217948414,"98":0.16679246210814866,"99":0.10049453453114561,"100":0.00016225801933400586,"101":0.10114084394721469,"102":0.020242263467971238,"103":0.07885367285485421,"104":0.07405929793591669,"105":0.04554230945716653,"106":-0.1478620040479766,"107":0.0925187209473131,"108":0.011539956336792405,"109":0.07743509892779932,"110":-0.12258244650519644,"111":0.027172966777780763,"112":-0.1309380964737218,"113":-0.05226836808390603,"114":0.16538290489240753,"115":0.008332578400715919,"116":-0.15439611728464406,"117":0.06112158409745332,"118":0.09257207923589517,"119":0.1794307184142643,"120":-0.057616769310364066,"121":0.015780183891532445,"122":-0.02554185393679073,"123":0.03163067513706441,"124":-0.1019641865909504,"125":-0.10876284514577288,"126":-0.0015466469339689229}},{"sx":1,"sy":1,"depth":127,"w":{"0":0.0034670138798953668,"1":-0.052662315628174555,"2":0.02921601385656079,"3":-0.05333431955621025,"4":0.02372379785427179,"5":0.10308513024016296,"6":-0.04970519282400868,"7":0.02715691623474777,"8":0.09716615212949993,"9":0.10952027658233054,"10":0.029050413405880177,"11":0.05147574161092153,"12":0.08812604080277456,"13":-0.08608159854607052,"14":0.14159597376223387,"15":0.017302861396824368,"16":0.030250626607710638,"17":0.043757737470857365,"18":-0.05666985044016377,"19":0.04512996360734618,"20":0.09122955188914358,"21":0.0038626892062101417,"22":0.003402435574476421,"23":-0.011765975330194368,"24":0.04248508691016831,"25":0.04090442897953255,"26":-0.013850410612230555,"27":-0.07428138888541762,"28":0.08405424560290682,"29":-0.11232129653554239,"30":-0.00889428736039202,"31":0.03845311073984943,"32":0.021906906279725982,"33":-0.05173597932960311,"34":-0.02102472158493047,"35":-0.10219897962743923,"36":-0.007601611281593774,"37":-0.009756961418263106,"38":-0.12714652424264705,"39":-0.005027376648977972,"40":-0.08406464090513815,"41":-0.01781742126227248,"42":-0.10971009279233879,"43":-0.019817429319570937,"44":0.019818764155653475,"45":-0.013238027552456377,"46":-0.003496693380229792,"47":0.03747239408795772,"48":0.08395883672280222,"49":0.0007154772051252957,"50":0.18596099442258604,"51":-0.10788752906519662,"52":0.08260637445512344,"53":0.01623681173920926,"54":0.009110617513926524,"55":-0.0026553072281335815,"56":-0.006421466707850117,"57":-0.05250386197921006,"58":-0.1281682577787341,"59":-0.05242916991630121,"60":0.14574170609061007,"61":-0.015595716722495353,"62":-0.005998321144925242,"63":0.07176000068391375,"64":-0.06364232423218479,"65":0.005094314369001703,"66":-0.13323239670028025,"67":-0.024691827680482985,"68":0.04519167176112777,"69":0.10913858748364648,"70":0.07580496216398945,"71":0.11997808697595198,"72":-0.004852716283341968,"73":-0.10097696298115973,"74":0.18106246531396625,"75":-0.10584180699443553,"76":-0.028728926048468825,"77":-0.008622713054345801,"78":0.08133268248889376,"79":0.05763997601011212,"80":-0.02995816657463239,"81":0.0002817881796549083,"82":-0.006758429861687539,"83":-0.02101030061463915,"84":-0.17307638437889708,"85":-0.12855553667099662,"86":-0.08053635274510591,"87":-0.15135876881133484,"88":-0.07295151720911548,"89":0.014151141878020251,"90":0.019535333434830205,"91":0.016564804192633006,"92":0.0027631786914397846,"93":-0.037373949133641504,"94":-0.0946680017974796,"95":-0.06278812081972521,"96":0.0006223174786027996,"97":0.07792623520874314,"98":0.1396898273362792,"99":0.07347279887237461,"100":-0.02478970093663369,"101":0.12442306560190006,"102":0.04631768316175987,"103":-0.08455371944069734,"104":0.06610686532140633,"105":0.05798537789575811,"106":0.041855274790084385,"107":-0.07137115261141343,"108":0.031251447916748755,"109":-0.2022920783703904,"110":-0.05244862958696931,"111":0.05496535761256187,"112":0.039604007159087545,"113":0.038184573897278445,"114":0.04358128700031774,"115":-0.06405345505370574,"116":0.031083052222745707,"117":0.02510736530426263,"118":-0.011131683816442167,"119":-0.08394785337366557,"120":0.039557830928164575,"121":-0.051582401242325666,"122":-0.030370873664539045,"123":-0.09723899201341152,"124":-0.1442265947213117,"125":-0.14764119694303388,"126":-0.03242225278339464}},{"sx":1,"sy":1,"depth":127,"w":{"0":0.14206270342489996,"1":0.05481491123496065,"2":-0.1420619892422377,"3":0.02875599510420351,"4":-0.08798838900875082,"5":0.1429720980561046,"6":0.04122925411367753,"7":-0.018338682163720567,"8":0.037515267124561616,"9":0.05818608891358209,"10":0.11678468965451463,"11":0.1394883055980754,"12":-0.012262667235894172,"13":-0.12868500772642646,"14":-0.08476936022277448,"15":0.1705213739040675,"16":-0.003639656881836059,"17":0.06643506780621004,"18":0.029140766448446945,"19":0.04377130538810124,"20":-0.021620938367691953,"21":-0.03716931473450239,"22":0.01837965840832914,"23":-0.061773807200854,"24":-0.010086170802127616,"25":0.06517698043026646,"26":-0.04011964170285633,"27":0.006366687117175558,"28":-0.08549496694349029,"29":0.08555696915373938,"30":0.037048121464284225,"31":0.05941017641686796,"32":0.05606851599293808,"33":-0.040588750068665816,"34":0.08190641059101887,"35":-0.04416067333667117,"36":-0.06472057482120425,"37":-0.07440342250111923,"38":0.05430128230401027,"39":-0.04755444201910914,"40":-0.0414430835227171,"41":-0.07019817596439365,"42":-0.084124100792951,"43":0.138008218622977,"44":-0.08250970319130772,"45":-0.14113978693643964,"46":0.034800775842164754,"47":0.14060469989745003,"48":-0.11829284957405728,"49":-0.07946345464719425,"50":0.20821770074518758,"51":-0.1628898687807346,"52":0.0885979441121877,"53":0.0021164812470987637,"54":-0.10663430077764008,"55":0.01714611743205582,"56":0.07496536889466775,"57":-0.021864899914796877,"58":0.043505677707046886,"59":-0.006556732413184833,"60":0.10773629453812192,"61":-0.04490026806453581,"62":0.00987623338771601,"63":-0.004853372514306193,"64":-0.10900082042489445,"65":-0.002901342156359055,"66":-0.053205472079692236,"67":0.012655959404790971,"68":0.03567265120465674,"69":0.024796428853024178,"70":0.07361803271957355,"71":-0.14087273940756548,"72":-0.19371355878543012,"73":-0.04991357797858097,"74":0.10700649055882329,"75":0.037898583593718414,"76":0.08638624952209305,"77":-0.15450568158350106,"78":-0.03890381167372862,"79":-0.06624132781368981,"80":0.06922174402901586,"81":0.08352291576907782,"82":0.12238139583944876,"83":0.04015433019444107,"84":0.0603041378751913,"85":0.056565720132811845,"86":0.1629423346481023,"87":0.09707907583847958,"88":-0.006780498169689932,"89":0.06330800471072051,"90":0.032463067838786046,"91":-0.01727574955994065,"92":0.007789541111026317,"93":-0.05368478440974846,"94":-0.19580021486735874,"95":-0.00841299005243771,"96":-0.05749747960584111,"97":-0.046286648029529635,"98":-0.08368290447083039,"99":-0.05943133832915827,"100":0.06444904932033925,"101":0.07837120416404551,"102":0.09779613030176343,"103":-0.011177444399087147,"104":0.020376524373638235,"105":0.04873590584035591,"106":0.028704842494914024,"107":-0.01686425284608341,"108":0.1543280856896662,"109":0.002116987289553121,"110":0.15012364184297977,"111":-0.04887531374217627,"112":0.0585396632035159,"113":0.19320903828647487,"114":0.07698108814533634,"115":-0.008513395326880923,"116":0.009328971943054046,"117":-0.04632653701621802,"118":0.05335100078802083,"119":-0.2093439873503286,"120":0.051265152133346314,"121":-0.1125464523993337,"122":-0.034839826300361726,"123":0.04113630207655865,"124":-0.039943617489495584,"125":0.04489455849590328,"126":-0.13716165763686525}},{"sx":1,"sy":1,"depth":127,"w":{"0":0.07943107676786648,"1":0.08183962707105848,"2":0.17241659842913615,"3":0.026257305867680724,"4":-0.016793279580309274,"5":0.09463295520721567,"6":0.05269149594585206,"7":0.10584614341304385,"8":0.1515699078856787,"9":0.06878912750346505,"10":-0.013094237880276775,"11":0.09386414457260774,"12":0.03408486245842177,"13":0.15216372927239447,"14":-0.029912429915712413,"15":0.1071629721413013,"16":0.04472010637774024,"17":-0.03129293581423032,"18":-0.06221942432903019,"19":0.009863448518642553,"20":0.08755873527797416,"21":0.0702406062363298,"22":-0.082227907729718,"23":0.05814054240041827,"24":0.058616611672711635,"25":0.11899182110488148,"26":-0.12824149274140662,"27":-0.050469607727258156,"28":0.047559426418842345,"29":0.22149790462986232,"30":-0.00010590318519838021,"31":0.19042341268918636,"32":0.09136169844420303,"33":0.05204214289508767,"34":0.09551251615469113,"35":0.048866597426131135,"36":0.03723940604457284,"37":-0.0011017243628611418,"38":-0.07933884816246244,"39":0.06249096474991211,"40":-0.17562722671211048,"41":-0.023172979761863523,"42":-0.044436113155861205,"43":0.046346955211496774,"44":-0.02561818504564803,"45":-0.05510694810189363,"46":0.15125885137002973,"47":-0.025535957244777877,"48":-0.057377280966348025,"49":-0.013284982777194285,"50":-0.05201114913827759,"51":0.11783110964766601,"52":-0.03931358556271855,"53":-0.06304585270467986,"54":-0.11398014895423847,"55":0.03086347467289501,"56":0.0395642428198764,"57":0.016693459645572277,"58":0.01836837256772608,"59":0.0920337489351957,"60":0.012339014265024002,"61":-0.031102694095941658,"62":0.04772314340893488,"63":0.030075535088009156,"64":0.06657692048519981,"65":0.12506038680831064,"66":-0.12275038394805074,"67":-0.019620491485943,"68":-0.07654286134882161,"69":0.009141879561297432,"70":-0.07838900539291985,"71":-0.029392692962420065,"72":-0.024535656963100463,"73":-0.0696060630675897,"74":0.09299376529661113,"75":0.006498513972627698,"76":0.13904113941307947,"77":0.08573398304162955,"78":-0.07582988531928105,"79":0.0016346283363020562,"80":0.07754518067311855,"81":0.007149754048906561,"82":0.08409688393598501,"83":0.07382996834894773,"84":0.024596157663548217,"85":0.09293627898473984,"86":0.051652337819149734,"87":0.11472807000683123,"88":0.014470795864806374,"89":0.05984990118399428,"90":0.0273818683272348,"91":0.12125353538842637,"92":0.16219481482652293,"93":0.06291838619402779,"94":0.06615791739121225,"95":0.015984753170444184,"96":0.021712518857350583,"97":-0.056717703035880945,"98":0.04123453668283426,"99":-0.007071196055410809,"100":0.18915147726305898,"101":-0.13803630332628714,"102":0.0282860365130641,"103":-0.012197036161059856,"104":-0.0999851555680688,"105":-0.07951403727431267,"106":0.1299343922951556,"107":0.050313500880820324,"108":-0.008123644634702748,"109":0.0423922601497774,"110":0.1380458849942417,"111":0.023316812724615905,"112":0.11574001471738832,"113":0.01408234802477242,"114":0.0972690663126713,"115":0.18897906011927987,"116":-0.10274357689996746,"117":-0.011976674202097073,"118":-0.009110815184876605,"119":0.028282146350830168,"120":-0.05824433494203479,"121":-0.11091809539348715,"122":0.0250884486614098,"123":0.021359253278911784,"124":-0.03305377353240296,"125":-0.031892049327760304,"126":0.007797866280255497}},{"sx":1,"sy":1,"depth":127,"w":{"0":-0.11793268944284467,"1":-0.06604407630778739,"2":0.0003100587937685273,"3":-0.004917969498961291,"4":0.1268354161380283,"5":0.04054002880307004,"6":-0.0043567254054575205,"7":-0.08044369773034618,"8":0.09219546007969984,"9":0.05838192929764679,"10":0.013869463738954337,"11":-0.022060236305279837,"12":0.016488714826857286,"13":0.036225751872734344,"14":-0.028455433590413894,"15":-0.12481775515827818,"16":0.14913854350619857,"17":0.04003352177691927,"18":0.07316436509973738,"19":0.11751481051191037,"20":0.01441141018183564,"21":-0.048647362240460366,"22":-0.01297454852512602,"23":0.11552328515241014,"24":0.05806388388333174,"25":-0.034537917411434305,"26":-0.06293014261077529,"27":0.030825929511362177,"28":-0.10276275894471798,"29":0.006495139520689939,"30":-0.07429736509931638,"31":-0.09706261381124011,"32":0.1397175681556333,"33":-0.007471972051973496,"34":0.0008388018940908603,"35":0.025590495355588667,"36":-0.09964667762997066,"37":-0.04970836910939726,"38":0.017533943870774366,"39":0.02452990091487741,"40":-0.030444068751422297,"41":-0.21560127842988358,"42":-0.0934565252300805,"43":-0.11379487153952772,"44":-0.052509899035590356,"45":0.02750649132556465,"46":-0.10413395373216687,"47":-0.002420040201398005,"48":-0.18152982578212107,"49":-0.014813141801818638,"50":-0.04082971816718128,"51":-0.12514522122425245,"52":-0.001508115334695357,"53":0.07793869554641564,"54":0.05737114872512038,"55":0.010211009700575641,"56":0.03563699082915489,"57":-0.11702280457823137,"58":-0.08309361098532998,"59":-0.041087653088821875,"60":-0.0782412357989232,"61":0.04310685294208788,"62":0.14453029381743362,"63":0.0033567983763852925,"64":-0.02194883540591146,"65":0.00017175344357183965,"66":0.11682904270501498,"67":0.04163872382783981,"68":-0.16285595350002283,"69":-0.10521858076645375,"70":-0.0022526040786320623,"71":-0.01435049881377728,"72":0.017342032628832996,"73":-0.08089303112699835,"74":0.156321179071328,"75":-0.0931681192021279,"76":-0.11034416306609318,"77":0.042654844421682526,"78":-0.030037717573877007,"79":-0.03334272357552943,"80":-0.04751280696356089,"81":-0.04051146082823444,"82":-0.06461867185697684,"83":-0.0931933632183781,"84":0.1495284123207874,"85":-0.05496893914769665,"86":-0.18505569992549528,"87":-0.05114415114827206,"88":0.1993901789225089,"89":0.0441627973304235,"90":0.1107664229431254,"91":0.0930908515333666,"92":0.07894040917398176,"93":0.08101291832095886,"94":0.10209967356579112,"95":0.03143707658473048,"96":-0.1918661667328563,"97":-0.03798226129835252,"98":0.14131214394583935,"99":0.12205122027934458,"100":0.04383565425823145,"101":-0.01723653091495944,"102":-0.12432400743813252,"103":0.03522069574403373,"104":-0.041856181568449155,"105":-0.043234935159354566,"106":-0.10900142309247761,"107":-0.1409025343257537,"108":0.024728752651300246,"109":-0.03267629859572725,"110":0.13548961844504917,"111":0.12068862066901812,"112":-0.08392495526664173,"113":-0.02617902141795952,"114":0.030705002437507567,"115":0.1448492115960289,"116":0.027693259150360087,"117":-0.015434355706823647,"118":-0.10314756536721514,"119":0.035165470196156984,"120":-0.07637582029651838,"121":0.03359407364003094,"122":-0.011929898443793661,"123":-0.06664839471791714,"124":0.019102318506444917,"125":-0.10449151474145572,"126":0.06464368983017754}},{"sx":1,"sy":1,"depth":127,"w":{"0":0.08735434893872501,"1":-0.11004853833865333,"2":0.043471641283846826,"3":0.058124461123864414,"4":-0.017172307400681677,"5":0.017313065706592332,"6":-0.1801761838812109,"7":0.14433861393422737,"8":-0.03702313218023357,"9":0.1734722602403479,"10":0.05917837604405228,"11":-0.04050251506054577,"12":-0.01521387526303999,"13":0.09587744549611601,"14":0.05509288969566381,"15":0.016890174764124688,"16":0.11264218919996466,"17":-0.07153938661209952,"18":-0.038380524691773256,"19":0.06766720413644955,"20":-0.11832646577770844,"21":0.04409721767410521,"22":-0.038635560666025144,"23":-0.08050887367766003,"24":-0.0009016714035519355,"25":0.02445732676010458,"26":0.02430919856375166,"27":-0.13012790996448148,"28":-0.0732388779397075,"29":-0.11040737347436122,"30":0.05799174207924633,"31":-0.008114767503344722,"32":0.02526158222679479,"33":0.03043854311070018,"34":-0.06638508301787584,"35":-0.01057936681009847,"36":0.1887599425756937,"37":0.16997831814033945,"38":0.067307850913442,"39":-0.20239496487469782,"40":0.21077024474159933,"41":-0.2072317435813785,"42":0.15065989006503744,"43":0.10334616287444871,"44":0.004096657865860858,"45":-0.07511619589064991,"46":-0.09467590307583351,"47":-0.08197506549069798,"48":0.008880878664178374,"49":0.031707069681602335,"50":0.07411541583687226,"51":0.008198327569292514,"52":0.06282262381296076,"53":0.1091977653110701,"54":-0.04952349605251861,"55":-0.1380064551725672,"56":-0.15894208881582345,"57":0.07224845071552889,"58":-0.16373715995406554,"59":-0.08133445818082256,"60":-0.0659416870340556,"61":0.035197134144359384,"62":0.052863134005058966,"63":-0.08551808448042102,"64":0.1337027951373162,"65":-0.1248665800021211,"66":0.15542770945883738,"67":-0.20951036419127808,"68":-0.0439893869637405,"69":0.038961801281211385,"70":0.1442787218908619,"71":0.1606772290105406,"72":-0.058188261602718575,"73":-0.055942950799874595,"74":-0.030950437187174964,"75":0.07993685039316684,"76":0.0759068330238771,"77":0.041592177283012836,"78":0.18995322475961587,"79":0.04396032862468592,"80":0.056428992278522175,"81":0.06652685107105147,"82":0.12029261922240575,"83":-0.13257364812429626,"84":-0.06209603787016259,"85":-0.022647387637896633,"86":0.05051374348151329,"87":-0.017461923826969164,"88":0.18360394625630955,"89":0.02224958752129421,"90":-0.04078788473296891,"91":-0.01757886308016095,"92":-0.04108446044228098,"93":-0.011444062919012987,"94":0.006254169635584583,"95":-0.0733554801113389,"96":-0.052474467247648364,"97":-0.10543047765131255,"98":-0.08724032607036573,"99":-0.1066558941961922,"100":0.005066016329927517,"101":0.018020098688962833,"102":-0.15274718711571827,"103":0.11314856770573503,"104":0.00030961378701101894,"105":-0.08356823335083921,"106":-0.041536446476772716,"107":-0.13083561072570216,"108":-0.06502820879717064,"109":-0.05614171443362456,"110":0.09387167644560745,"111":0.0017919626698786292,"112":0.09260920671334733,"113":0.0643158906089412,"114":-0.159052246204464,"115":0.06143548914945342,"116":0.09844269586411572,"117":-0.046007746896223216,"118":-0.0156886335070254,"119":-0.01508477405074193,"120":-0.04975388718745633,"121":-0.01198318333757723,"122":-0.08752993883855578,"123":-0.03287461573515855,"124":-0.07252059955849385,"125":-0.0036622348650182583,"126":-0.03887417684692604}},{"sx":1,"sy":1,"depth":127,"w":{"0":-0.1032050024471417,"1":0.08251233923740031,"2":-0.08968307403655236,"3":0.22311055848898534,"4":-0.044117608340231235,"5":-0.053619539169328774,"6":0.13349300516755072,"7":0.06695580353579773,"8":-0.029727660333120822,"9":0.07464528358460258,"10":0.0015542874322616576,"11":0.002004183745762762,"12":0.04270316346051521,"13":-0.18541039374669627,"14":0.046680009238521676,"15":0.03017183920858983,"16":-0.07707136489917661,"17":0.008861292383959454,"18":-0.08504187323510178,"19":-0.040257489820161106,"20":-0.031157911003079634,"21":-0.06923769512476224,"22":0.0589664679350928,"23":0.030581804802061355,"24":-0.07251292890242406,"25":0.11277969428944397,"26":-0.0039610727984389265,"27":0.05971645275233639,"28":-0.030298031648981955,"29":0.07028038942698238,"30":-0.07424278159508589,"31":0.04194891066298325,"32":0.0468752690949204,"33":-0.1776979873672026,"34":0.23670689283661503,"35":0.03100006253776668,"36":-0.004119617210918276,"37":0.05527248659796294,"38":0.056175089859401346,"39":0.06412444976711425,"40":-0.0350509587824469,"41":0.05455561014719782,"42":0.01707925747820898,"43":-0.014033181653763577,"44":0.0776318917195071,"45":-0.016329374142805875,"46":-0.12193279624220685,"47":-0.0902159136052454,"48":-0.28045758941308946,"49":-0.05711576796526037,"50":0.062426607787602964,"51":-0.03732905538196786,"52":0.0080028019849587,"53":0.028436850257705606,"54":0.021480779148734024,"55":0.07396051422198759,"56":0.14828273533837685,"57":0.010280623753183333,"58":-0.06272110815157715,"59":-0.045013235599100684,"60":-0.06168398701626142,"61":0.04157585508355768,"62":0.07207853969282221,"63":-0.08009455733343004,"64":-0.009942701031268493,"65":-0.023014390283965146,"66":-0.01272429512095158,"67":0.08534751768994871,"68":0.04347947193850236,"69":0.0949135007363698,"70":-0.015955926057702626,"71":-0.0036270903168642886,"72":-0.045393271138335585,"73":0.07718846266294077,"74":-0.04546332351188872,"75":0.0014443610017046687,"76":-0.10772269024041625,"77":-0.039386570337935516,"78":-0.07312415665256597,"79":-0.1120157359854004,"80":0.018768376449326406,"81":0.11681308871127327,"82":0.003873237048336597,"83":0.011815721300185794,"84":0.08233321313557543,"85":0.021166660711413605,"86":0.09308564460036006,"87":-0.05327182280083756,"88":0.1287352603846513,"89":0.04746157837718914,"90":-0.011815831688575877,"91":-0.027153133335632282,"92":-0.03517621031682335,"93":-0.004538508208870262,"94":0.05746082962173054,"95":-0.00876280585130814,"96":-0.05754109888911391,"97":-0.027475554050606248,"98":0.017083434518148196,"99":-0.0894587947543357,"100":-0.002984080316536928,"101":-0.07059929227140306,"102":-0.15102918501938198,"103":-0.11319314496063015,"104":0.19954054531577514,"105":-0.053830302651711015,"106":0.06555596903379995,"107":-0.26459456067983145,"108":-0.028194187975276834,"109":0.09519403085130104,"110":0.0014116485556775794,"111":0.03240239911042701,"112":0.052402251326480694,"113":-0.04234602619061015,"114":0.09069182792060218,"115":-0.003982764243323766,"116":0.07045654529704032,"117":-0.049838057736041726,"118":-0.10081314582891569,"119":0.004155269409135626,"120":0.057836387552582844,"121":-0.13997510619388212,"122":0.03786564556917174,"123":0.00366201813395161,"124":-0.022844023705176044,"125":0.1913257313438313,"126":0.012405283925734914}},{"sx":1,"sy":1,"depth":127,"w":{"0":0.013147131626318578,"1":-0.0021756698950272505,"2":0.027631205825342384,"3":-0.04900765536695397,"4":0.12961486231241548,"5":-0.04975545961005126,"6":0.16946061010551505,"7":0.12340064313863426,"8":0.035670685333094254,"9":-0.023161004151365745,"10":-0.039156775156366015,"11":-0.013369628461306923,"12":-0.01157429949468769,"13":-0.06155312058743456,"14":-0.06423758886580669,"15":0.08019737813474434,"16":0.005072216433014287,"17":-0.03462382555957138,"18":-0.10105375244799003,"19":0.06567655652638106,"20":-0.07592479105006693,"21":-0.021510455597262827,"22":-0.07470797265502044,"23":0.11316258625492048,"24":0.12390952037246705,"25":0.009431325906089973,"26":-0.07033465441265353,"27":-0.08946560972344085,"28":0.24773471257762578,"29":-0.10996301760604837,"30":0.20964496631143859,"31":0.0066555783567616295,"32":0.094741349641453,"33":0.09209115133518797,"34":0.09830269400028391,"35":0.02398917111782876,"36":0.06989729778363477,"37":0.17482918112716583,"38":0.00031773220810424297,"39":0.10658854971536899,"40":-0.03412737407418858,"41":0.0006680498367160078,"42":-0.12141241305691856,"43":-0.022771820363464892,"44":0.06337963516860609,"45":0.04770259810860129,"46":0.06929387192110312,"47":-0.04315017510941094,"48":0.046583186673398856,"49":-0.04238301606710967,"50":-0.03676748033286175,"51":0.06351577477037271,"52":0.08181031868861245,"53":0.019919045035274637,"54":0.05393494381721567,"55":0.012969066495294156,"56":0.01566921825775107,"57":0.13823729010162134,"58":0.02477602246535507,"59":0.1388985866231793,"60":0.13803019236099542,"61":0.07454567988138777,"62":0.04404278249498344,"63":0.04400665716579248,"64":0.1864277998633254,"65":0.005917342468061034,"66":0.05190599517065707,"67":0.17511328898896564,"68":0.140430545297816,"69":-0.03666433096528789,"70":-0.15602937153583787,"71":-0.03993841349577301,"72":0.21219731098447453,"73":-0.08750042375327784,"74":-0.07994729989782265,"75":0.06615676157944862,"76":-0.062151342133826386,"77":-0.0290830729673594,"78":-0.011190827553583162,"79":-0.04897138948624636,"80":0.09211004855625403,"81":0.06428925039577084,"82":-0.049488645084967184,"83":0.14179436201964127,"84":-0.0018098921024554823,"85":0.05087286801451275,"86":-0.03344554968856082,"87":-0.15929282389555713,"88":-0.05668830774017121,"89":0.024393577898666342,"90":0.031849571702961384,"91":-0.025670438440696202,"92":0.020532477111028298,"93":0.014122246947890308,"94":0.07540127041675244,"95":-0.08125554638312192,"96":-0.0026313024566107525,"97":-0.03884682699871082,"98":0.07758319013984806,"99":-0.07357522837997107,"100":-0.018993081063262786,"101":-0.03524513714186825,"102":0.02519442886424908,"103":-0.13457228035139193,"104":0.1181641260438698,"105":0.13488566632579,"106":0.0811130014186275,"107":-0.019650658403954944,"108":0.018498129204889507,"109":-0.015111142401067028,"110":-0.030344549427378485,"111":-0.07594295755296854,"112":0.0825085867999599,"113":0.15775314344114452,"114":-0.03739736075023296,"115":-0.10312382317244946,"116":0.2045047489914548,"117":-0.08701372644422199,"118":-0.011550219946816062,"119":0.08151593919301449,"120":0.19180779925897948,"121":0.06575782634618926,"122":-0.04316253695973931,"123":-0.01741003036435359,"124":0.15169932311342973,"125":0.04574088169700732,"126":0.09566089079449687}},{"sx":1,"sy":1,"depth":127,"w":{"0":0.016497405495214917,"1":-0.1970799021297763,"2":-0.12272872927255422,"3":0.07742852758172174,"4":-0.12667603122383472,"5":-0.14989530291221193,"6":-0.010005711771247351,"7":-0.077175024811047,"8":0.10878281459249661,"9":-0.03815647100660949,"10":-0.00008009181234558693,"11":-0.09162505635731366,"12":-0.027992992846113715,"13":-0.127764744949413,"14":-0.08181779876916127,"15":0.08112858476949593,"16":0.02312329786013767,"17":0.1620479830895292,"18":-0.09911231475658935,"19":-0.14248215395395186,"20":-0.19811521487642603,"21":-0.0362460400060978,"22":0.0020787601196249525,"23":0.03027049176686142,"24":-0.10775324312271407,"25":0.09086533085655227,"26":-0.03131380396573498,"27":0.18422767111969335,"28":-0.04631690782976624,"29":-0.1436781147113403,"30":-0.0636004059640566,"31":0.04918790800053718,"32":-0.09253065638763942,"33":0.02761165233209348,"34":-0.08373683224079623,"35":0.03269068772887624,"36":0.05370707159678717,"37":0.02046757826772444,"38":0.09597450215319653,"39":-0.02938259549994818,"40":-0.17647410996192922,"41":-0.0596412099919127,"42":-0.012113845319542517,"43":-0.03357651243412801,"44":0.13958955856400887,"45":0.017583587968874152,"46":-0.05751346849654566,"47":-0.113846027309774,"48":-0.019860771032579456,"49":0.07337445695271018,"50":-0.08214652205390054,"51":0.03963149149999203,"52":-0.04937753854415082,"53":0.10066918357826188,"54":0.041718984083214054,"55":-0.03891562721464622,"56":0.10617979424240896,"57":0.16855045748728423,"58":-0.026535253778242833,"59":-0.09602392576407781,"60":-0.01617383417411121,"61":0.14645490421950633,"62":0.044430994149482844,"63":0.1863044842800072,"64":-0.04029662835338519,"65":0.010213083165612697,"66":0.013722839742999227,"67":0.14524402202413136,"68":-0.012475249903593697,"69":0.07278206321051324,"70":0.014531792023885175,"71":-0.02764847937599639,"72":0.03173492899675768,"73":0.04494536466969383,"74":-0.07833496658714299,"75":-0.0369485724464429,"76":0.025291765274120425,"77":-0.21500988172882327,"78":-0.14677709547433274,"79":0.014074150108221812,"80":-0.03443595385147268,"81":0.018186426111796515,"82":0.0317465731478553,"83":0.13253718842240483,"84":0.013336339881221905,"85":-0.027252951569233956,"86":-0.17684274272197745,"87":-0.1150952261634465,"88":0.03918305395570595,"89":-0.004316079399915476,"90":-0.037471672653713525,"91":-0.13152514757512246,"92":-0.03990934776960624,"93":-0.07898184274526714,"94":0.018587889358770895,"95":-0.06352797997274597,"96":-0.09331110806064588,"97":-0.14826147513638055,"98":0.09981105612102605,"99":0.09036904596519127,"100":0.1096238673242902,"101":-0.19430386195750632,"102":0.24752221120296947,"103":-0.023725413531534338,"104":-0.17700809999983685,"105":-0.1433675923219027,"106":0.04136443276613059,"107":-0.019819645521657204,"108":0.00899261492070135,"109":0.1726533178424175,"110":-0.08197336900437587,"111":-0.10509718664496318,"112":-0.140458618896217,"113":-0.07995778376848983,"114":0.09645974610595257,"115":0.0035371200415467803,"116":-0.08211503007749592,"117":0.11371346572881982,"118":-0.07331984950019384,"119":-0.07163619831137218,"120":-0.032159063954723933,"121":0.09235248174659695,"122":-0.09031533159387986,"123":-0.11192819055257405,"124":-0.10037158754755077,"125":-0.028971802041177278,"126":-0.05829157283771538}},{"sx":1,"sy":1,"depth":127,"w":{"0":-0.18770460010882017,"1":0.08699555852456141,"2":0.11583250897543684,"3":-0.029925404787166158,"4":0.047847292277858194,"5":0.08086808368838799,"6":0.057397339951199285,"7":0.09903510711392458,"8":0.05590228153612385,"9":-0.04329803577662953,"10":0.0411647662442415,"11":-0.079524664164472,"12":0.025452077239466787,"13":0.03953218823158579,"14":-0.005214144521917018,"15":-0.15632320159727053,"16":0.04949582195652998,"17":-0.09549974793788131,"18":0.014562152196355075,"19":0.21159166130939158,"20":-0.11603101796149501,"21":0.02594170586040115,"22":0.0942788467480183,"23":-0.09341251742932347,"24":0.16418251739136785,"25":0.031552679744241634,"26":-0.16938746430134186,"27":-0.1534181772995898,"28":0.017140985125254058,"29":-0.053943218682619115,"30":-0.05854061380132761,"31":-0.020716815043209557,"32":-0.12473832461239034,"33":-0.019419197535369196,"34":-0.16308426717919816,"35":0.19729255792163733,"36":0.05687268936329125,"37":0.018102117226882854,"38":-0.13367515206136316,"39":0.006461016277100637,"40":-0.01220967120435061,"41":-0.039823598968233336,"42":0.07971693233098914,"43":0.0704472886192799,"44":0.03901001879489516,"45":-0.10746650303740263,"46":0.06363331748511218,"47":0.05646542713964697,"48":-0.002821455649904009,"49":-0.02504418880701959,"50":0.0869386243823287,"51":-0.024330569260126295,"52":-0.002700424932195506,"53":0.15445378945677526,"54":0.12612277173121628,"55":-0.03634671804498966,"56":-0.05434055046374838,"57":0.057011668217163455,"58":0.021969430793531728,"59":-0.03839375427623071,"60":0.02404799656331053,"61":-0.02251843702359618,"62":0.07922861594669703,"63":-0.018605756600384264,"64":-0.10693075509273554,"65":-0.06388389222128384,"66":-0.07083354409531557,"67":0.11506303782360049,"68":0.05375871172150843,"69":-0.10127017069557834,"70":0.15236377140407778,"71":0.03692798880619385,"72":-0.04532867407524501,"73":0.07453518889966801,"74":0.03395183801497608,"75":-0.11241960211076839,"76":-0.007738200028645413,"77":0.08417704518402402,"78":0.11941591106955005,"79":0.03493614834550032,"80":-0.08467213613581807,"81":0.021870802819447227,"82":-0.06233640302314468,"83":-0.0776050232150683,"84":0.05615167625831597,"85":0.0037472116556652047,"86":-0.0754959534738384,"87":0.12631390878782897,"88":-0.10756797025185633,"89":0.039160035266301706,"90":-0.06573201301395969,"91":0.022788562507094694,"92":-0.00041745694327705843,"93":-0.03547441513814913,"94":-0.06294807149473546,"95":-0.027556321788714047,"96":0.05578163424896179,"97":-0.026449169605193532,"98":0.13534200970787916,"99":0.020706287576531306,"100":0.021548294373546318,"101":-0.018650577471045166,"102":0.03282318360028315,"103":0.08178862435987602,"104":-0.07129875770335581,"105":0.08771236960272252,"106":-0.0312105226743349,"107":-0.1577887253686908,"108":0.1872506490947618,"109":-0.024122181980780106,"110":0.20359442182221718,"111":0.03475981428812384,"112":0.03551024577252289,"113":-0.003806275354324686,"114":-0.14485837467369386,"115":-0.012405676398037286,"116":-0.10850549703726974,"117":-0.051151349957235095,"118":0.00417163735134056,"119":-0.10011266769235488,"120":-0.016306346797399774,"121":-0.13341210030647713,"122":-0.017353316439458578,"123":-0.11824786002819682,"124":0.11057244763909381,"125":-0.1722919584894924,"126":-0.10950400844530313}},{"sx":1,"sy":1,"depth":127,"w":{"0":0.026614562953271536,"1":0.04092359649088712,"2":0.03332070423799366,"3":0.07059585875702018,"4":-0.13011541369836896,"5":-0.08584761524536369,"6":-0.10758358842292694,"7":-0.16010757360457745,"8":0.19179268190715304,"9":-0.11795840053857974,"10":-0.12380818415461799,"11":-0.07629224847339111,"12":0.008468540534320206,"13":0.1221709430163771,"14":-0.003008573464517896,"15":0.13094559419469787,"16":-0.10755703336912499,"17":-0.1729908033118412,"18":-0.049422146865388046,"19":-0.06364977549090717,"20":0.02304333941447168,"21":-0.034565518978607046,"22":0.10017014140501654,"23":0.041401516572827424,"24":0.21906210186478717,"25":0.0028900938081081896,"26":-0.04636301835231673,"27":0.010055973655172242,"28":-0.08240739228783922,"29":0.16742239442483736,"30":-0.027142687494810983,"31":0.14599256023091026,"32":-0.04683411980737953,"33":0.035639224947755406,"34":0.03604264863650296,"35":0.034364326465784585,"36":-0.03975669377501921,"37":-0.036065505019130036,"38":0.10538208782970666,"39":0.11953152019178707,"40":0.12020473081523043,"41":-0.023054468703287447,"42":0.005523547320685254,"43":0.12732584263227587,"44":-0.04658391186830478,"45":0.12053072409464068,"46":-0.14283578868336416,"47":0.14524615908124724,"48":0.04339124537375898,"49":0.0608920935994243,"50":0.1542618389267266,"51":0.25043103988224213,"52":-0.0377071751939746,"53":0.1141025408544938,"54":-0.09018890996283639,"55":-0.038524795363828405,"56":0.017155361961451523,"57":0.11665669028480313,"58":-0.02840693647183475,"59":0.036050386647473724,"60":0.04441322751313024,"61":0.04281828558311552,"62":0.024106774556508594,"63":-0.009645985714272757,"64":-0.14907526277703081,"65":0.19126709286869972,"66":0.05281056873554195,"67":-0.1256019777102997,"68":-0.03506588036419813,"69":0.024078810513702524,"70":-0.0417320611385404,"71":0.0540251196391701,"72":-0.03777790727067914,"73":0.003184054578749043,"74":0.08184739711658788,"75":-0.08253637072057608,"76":-0.0017375054578956323,"77":-0.009221615317722847,"78":0.15198410588336922,"79":0.04824093377351988,"80":0.10974001219983702,"81":-0.047677520378778475,"82":-0.02331460734731432,"83":-0.06494225942674041,"84":0.08366002790578093,"85":-0.13949846358221343,"86":-0.024073839730232954,"87":-0.021781648392019265,"88":0.03793875955790375,"89":0.060076929896885164,"90":-0.02887865124525001,"91":-0.010360315842883255,"92":0.0809184372302807,"93":-0.028505749448176243,"94":-0.18448095674754977,"95":0.09579771163702956,"96":0.1540330292392063,"97":-0.13228332864194822,"98":-0.059968805690440864,"99":-0.09752451227112909,"100":0.02396961952556972,"101":0.14284343303047567,"102":0.03273887313272117,"103":-0.08007146012432288,"104":0.09193440635397832,"105":0.009548487805358118,"106":-0.05329469276943227,"107":-0.08633986455621466,"108":-0.0750834035629836,"109":0.12956923572230042,"110":0.03952384594745603,"111":0.1043680958046112,"112":0.06976078689487818,"113":0.173067021483886,"114":0.05619319792795249,"115":-0.09727933006672644,"116":-0.004221627888414716,"117":-0.08215931042275085,"118":-0.012743138870800854,"119":-0.062330501940124454,"120":0.21184243251805868,"121":-0.06947279694993715,"122":0.17063103240104358,"123":0.008457964801272859,"124":0.08827239376173521,"125":0.0010427028205627427,"126":0.09245920993979807}},{"sx":1,"sy":1,"depth":127,"w":{"0":-0.07061699190255923,"1":0.12981175969203024,"2":0.17222496746088284,"3":-0.044845928749929306,"4":0.268097450486692,"5":0.13835641579925106,"6":-0.07028911088013749,"7":0.01092449979702251,"8":0.11004044469984346,"9":-0.06893602855187207,"10":-0.06407825973933642,"11":0.026570329308944218,"12":-0.0951045025471437,"13":-0.04839198084934179,"14":-0.17699276686436527,"15":-0.03665090017965131,"16":-0.0027705234507348704,"17":0.04696757204534297,"18":-0.006666154102043936,"19":-0.06953187987344836,"20":0.06070809629953046,"21":-0.06361888436983756,"22":-0.04485782462436511,"23":-0.08406166511525866,"24":-0.0384340229355129,"25":-0.09357138000899166,"26":-0.1905677130334956,"27":-0.0922168033785432,"28":-0.06473574347360748,"29":-0.015063368427460703,"30":0.0004227066923682565,"31":0.00541120851204233,"32":0.0016749992602856077,"33":0.05847331953934834,"34":-0.11381581535615075,"35":-0.05899350421362783,"36":0.006637924561560328,"37":-0.07554989532743234,"38":-0.0332879776092573,"39":0.012516003762238005,"40":-0.08609322613762944,"41":0.05648955119353707,"42":-0.017177923837357584,"43":-0.08501984528775369,"44":-0.028882776690215214,"45":-0.00827575285209561,"46":-0.07007246028357889,"47":0.01764623983501941,"48":-0.07345394660026812,"49":0.06801365965193068,"50":0.04047778855329127,"51":0.09322640801468325,"52":-0.06742882182391131,"53":0.2593263808366704,"54":-0.02391085740231683,"55":0.024582801086480033,"56":-0.005700257484696638,"57":-0.09270349396776624,"58":0.04405013147070535,"59":0.07049914569833843,"60":-0.039834326013375096,"61":0.1041202552649811,"62":-0.027807228217406207,"63":0.02867353064493092,"64":-0.10715968153326255,"65":0.04919858095992452,"66":-0.009559665296028537,"67":-0.10244268991368582,"68":-0.12932198721152072,"69":-0.08241616152713903,"70":-0.006152402483579879,"71":-0.03224725853187283,"72":-0.19917818724838443,"73":-0.10316054793971342,"74":-0.04550466960653752,"75":-0.08834650481923026,"76":-0.02047562680616023,"77":0.16081704359434465,"78":-0.028851236141603818,"79":-0.03443209581712262,"80":0.19909310095149782,"81":0.10174052591945186,"82":-0.047958780077694156,"83":0.12377881670223292,"84":0.08437820934948478,"85":0.011964977237361228,"86":0.030233004974780982,"87":0.15177137582469052,"88":-0.06833431051266048,"89":-0.053815744372432375,"90":-0.02210864016520333,"91":-0.0016227574363638544,"92":-0.016593155746243926,"93":-0.11346787324574065,"94":-0.061716454558202384,"95":0.07081303452258338,"96":-0.025861759116480757,"97":-0.12861116954027432,"98":0.06477063631989127,"99":0.05310416849923679,"100":0.11822447826886555,"101":-0.10631223775211993,"102":-0.09483280513010202,"103":-0.12008001003978591,"104":-0.10360032689778381,"105":-0.03050598382204371,"106":0.02010799837041792,"107":0.03261642032390597,"108":-0.07488497271937947,"109":-0.11007240894955048,"110":-0.013071836784705516,"111":0.09597098001709799,"112":-0.18231539139683473,"113":-0.1053470993798458,"114":0.1408773828065802,"115":-0.06904490847232439,"116":0.009467812811583808,"117":0.08219111906626807,"118":0.08079857783751579,"119":-0.13779737259083458,"120":-0.028072566253216746,"121":0.08672724895561393,"122":0.1468448030056206,"123":0.00811593646600601,"124":-0.1158513670321314,"125":-0.03273182062681698,"126":0.14046521806363235}},{"sx":1,"sy":1,"depth":127,"w":{"0":0.02755838361285554,"1":-0.0437687499813002,"2":-0.005714674697816627,"3":0.04277906533866064,"4":0.07056338403763113,"5":-0.13051195557450507,"6":0.01895804825722057,"7":-0.01573992553106464,"8":0.04783405131950678,"9":-0.07932361988594482,"10":-0.08943864914629787,"11":-0.07763571140766351,"12":-0.018847819407238064,"13":0.0473255848164768,"14":0.06966330591150799,"15":-0.002392747462646931,"16":0.10635144825868316,"17":-0.13274206707662223,"18":-0.10488545420223429,"19":0.04238030411754077,"20":-0.129297460221496,"21":-0.0158389453677258,"22":0.07922360357635626,"23":-0.011723818444384262,"24":0.020790871432400944,"25":-0.00180166705000199,"26":0.09611120472270528,"27":-0.0021238388362587236,"28":-0.017127767017764504,"29":-0.04765793540678193,"30":-0.2446272008971831,"31":0.10373740372084551,"32":0.007553664421459513,"33":0.07341218460180318,"34":-0.13201759240037506,"35":-0.04269536672452552,"36":-0.12361505906253113,"37":0.06182541080847366,"38":-0.045094654860281885,"39":-0.0006645268309906527,"40":-0.10664286214885377,"41":-0.02224015677931849,"42":-0.035122370718886145,"43":0.04810584633455959,"44":-0.07243750955135637,"45":-0.005516804880535591,"46":-0.010101573524949883,"47":-0.019545869792678083,"48":-0.06269649537995635,"49":0.06018448845327248,"50":-0.07233123181284397,"51":0.007190949120479728,"52":-0.022120459907058174,"53":0.032262121091080675,"54":-0.006441255027963777,"55":-0.0017533925704924548,"56":-0.08759616035054064,"57":0.09980225803052814,"58":0.00013783537997525753,"59":-0.07998502469311157,"60":0.021058739535423032,"61":0.0649679560130249,"62":-0.0014771023077607786,"63":0.14978962604473753,"64":-0.0004343791804712027,"65":0.03245956536042287,"66":0.004635859087870333,"67":0.13177607470064953,"68":-0.038824433959495454,"69":0.09702581469360501,"70":0.09158067353431282,"71":-0.032524857469251246,"72":-0.014881597892059215,"73":0.13484939989436714,"74":0.015512702680237305,"75":-0.09571263158702101,"76":0.10962720897193894,"77":-0.02050707940136807,"78":0.06418279037765806,"79":-0.12421921779144855,"80":0.02213138722089708,"81":-0.11152940527236753,"82":0.17008884798563073,"83":-0.06564923886370656,"84":0.12713151138101372,"85":-0.013277208160580591,"86":0.05315017842579254,"87":0.0010182098550297974,"88":0.049697728620731726,"89":0.038275204296341354,"90":-0.04915157915396366,"91":-0.028028977367183197,"92":0.007227736858403982,"93":-0.024965063594992294,"94":-0.0158859003660867,"95":0.10745216465408154,"96":-0.009846070993262939,"97":0.11342453532600566,"98":-0.17997540622901162,"99":0.14386074435210633,"100":0.01648484385145628,"101":-0.14835879084075565,"102":0.013761235662836623,"103":-0.04187901098934639,"104":0.14201713501429636,"105":-0.022444460048318,"106":-0.10624896464961536,"107":-0.006170152244892024,"108":0.04353756191003826,"109":-0.08201923220688671,"110":-0.17149946108053502,"111":0.06677464251576232,"112":-0.12639809451820108,"113":-0.08790924475137554,"114":0.07686143122192934,"115":-0.06277019808211472,"116":-0.022448531566536683,"117":0.02875953923165085,"118":-0.053847313131494504,"119":0.0439599905407707,"120":0.0369835160335512,"121":-0.09113788216723728,"122":-0.2687233953688921,"123":0.13665242479909487,"124":0.039169338409179064,"125":0.1899886500826947,"126":0.2197031032673549}},{"sx":1,"sy":1,"depth":127,"w":{"0":-0.11239988308507538,"1":-0.03518821329065527,"2":0.013373304557158178,"3":0.03133138192822143,"4":-0.13672350772478764,"5":0.20450217461857248,"6":0.01547671670380186,"7":-0.07111323568539232,"8":-0.15779271428053696,"9":0.21616672641076265,"10":0.15433461000185378,"11":0.11076116686693951,"12":-0.09519473541836294,"13":-0.016642871792301096,"14":0.044212585808036144,"15":-0.028358586003392673,"16":-0.045536493913152815,"17":0.048297287973894557,"18":-0.19273744666014442,"19":-0.0755421771275686,"20":-0.07678954016398162,"21":0.013948870120633216,"22":-0.0036745683004385157,"23":0.06895269008671426,"24":0.015619962256297743,"25":-0.045075921991889485,"26":-0.047411921661492815,"27":-0.09463929929880131,"28":-0.022989928529701074,"29":-0.024179452347618337,"30":-0.07386351817385227,"31":0.15861375051862212,"32":-0.06876962006162135,"33":-0.10881396310196054,"34":0.035414552985434805,"35":-0.0005433159938574383,"36":0.06327682057721683,"37":-0.10191890832170863,"38":-0.04278179524633082,"39":-0.022093517203996074,"40":-0.0532018959598986,"41":0.17103650325835423,"42":0.11971049855484052,"43":0.0889292300585522,"44":0.03764444372050396,"45":-0.06517504655096489,"46":-0.12067833039056132,"47":0.08537058630170825,"48":0.12421244382646149,"49":-0.046435604326839075,"50":-0.02931983809042643,"51":-0.01889040882481567,"52":0.03841580307739286,"53":0.033715281823289894,"54":-0.052487104336463655,"55":0.017704384146476324,"56":0.009321915385818927,"57":0.023962157370406204,"58":-0.022182330599613186,"59":-0.12279143134290277,"60":-0.06272565692723737,"61":-0.008863086507094926,"62":0.010429844495942517,"63":-0.043055283336904004,"64":0.024078994111639707,"65":0.15615331382512404,"66":-0.006995813438992259,"67":0.03963616418471912,"68":-0.07792522934726752,"69":-0.05657934685206525,"70":0.07328266945242753,"71":-0.0948707300965928,"72":-0.01216024425767641,"73":-0.04410837666316818,"74":0.010719501193456524,"75":0.13420244687193636,"76":0.028958349977822206,"77":0.03688147135338913,"78":0.14266420322397547,"79":-0.011901223538666954,"80":0.03419300774531319,"81":-0.09272721231529517,"82":0.12165341599501137,"83":0.08512462576358099,"84":0.026444866382786213,"85":0.03255832409748314,"86":-0.09199802986986985,"87":-0.058000782478636784,"88":-0.08146503103002943,"89":-0.03240709055504413,"90":-0.0684681313267,"91":-0.02142828511997262,"92":-0.04737543311833428,"93":-0.06764354214525194,"94":0.11323560895357307,"95":0.18136054668539503,"96":0.04837327258922225,"97":0.023828515719722578,"98":0.024769148009784813,"99":-0.08149505205761684,"100":-0.003846186824695996,"101":-0.17889196947212682,"102":-0.027257186487184983,"103":-0.07569572857720404,"104":-0.01653977552944993,"105":0.07103715140261603,"106":-0.01965661957191263,"107":0.11809823649421601,"108":-0.08738043826575498,"109":0.08044542325312191,"110":-0.04479236897724359,"111":-0.04316160491405303,"112":0.05465378109015312,"113":0.05877138420272517,"114":-0.07102847238735598,"115":-0.014420754733440571,"116":-0.16307047632773508,"117":-0.038531091587562113,"118":0.006469669922148887,"119":-0.001013406382201208,"120":0.12854477226714595,"121":-0.06594511784380382,"122":0.06532581527679997,"123":-0.15303876082625872,"124":-0.0024740753627102026,"125":0.11975727568294048,"126":-0.12109065741885243}},{"sx":1,"sy":1,"depth":127,"w":{"0":0.1401412558210439,"1":-0.020289152860072462,"2":-0.01193806832891315,"3":-0.19450125871463028,"4":0.05272822944066024,"5":-0.14804897598358518,"6":0.10120158756512122,"7":-0.01499395911235986,"8":0.13759383875946724,"9":0.04804083925927665,"10":-0.0956356054604755,"11":-0.04840260629739516,"12":-0.06327549799276593,"13":0.033039216048589455,"14":-0.06322970029512054,"15":0.03890570211829021,"16":0.18669016046003967,"17":-0.01627520359219457,"18":0.13490266122458475,"19":0.05803932624617461,"20":-0.02428663128833229,"21":0.12361279207677424,"22":0.04581905164643171,"23":0.05926677701829056,"24":0.0008599676011150679,"25":0.1353398789682408,"26":-0.05312159063072508,"27":-0.04456649322040136,"28":-0.01741407587112957,"29":-0.012195857981297924,"30":0.06300509088443136,"31":-0.016414988603553334,"32":-0.07649772088713487,"33":0.03633063465955058,"34":-0.03410232162662366,"35":-0.007808629921062251,"36":-0.024800681752710777,"37":0.006600626100649881,"38":-0.06635816613422582,"39":0.06168781130425065,"40":0.07293689636373052,"41":-0.04242920582255756,"42":0.19582136622355073,"43":0.017292296308894724,"44":0.0910144889154079,"45":0.0446139561084469,"46":0.005677777426177687,"47":0.042668645425490856,"48":-0.014757247656699463,"49":-0.20762749818584408,"50":-0.10176111737219276,"51":0.02671007120188642,"52":-0.012818670067373805,"53":0.04737191774461652,"54":0.014461496557386388,"55":0.03513023745638537,"56":-0.019758964684656384,"57":-0.010089247785486807,"58":-0.07341549918614189,"59":0.019362025254908252,"60":0.15687211134262924,"61":-0.19146386856686468,"62":0.06468091823401272,"63":-0.07683374346555855,"64":0.12410791031087907,"65":-0.19403071870065952,"66":0.052354386490754246,"67":-0.053073285843584186,"68":-0.041212477598194144,"69":0.12749897306577776,"70":-0.05578430130060609,"71":-0.007921977694175245,"72":-0.009236332146731634,"73":0.12627584424948868,"74":0.1006466148502708,"75":-0.15282875425153702,"76":0.015713062950972845,"77":0.11868691777248186,"78":-0.0024587153649376467,"79":0.12352063716002526,"80":-0.051211723792120946,"81":0.032288775355872455,"82":0.024770688539208476,"83":-0.04098573757651842,"84":0.06487011062341932,"85":-0.025390909392775537,"86":-0.09982204551576512,"87":-0.08366695421771929,"88":0.06636171779605352,"89":0.05072054811482284,"90":-0.042805996987337516,"91":-0.038278039859640026,"92":0.060495797959821254,"93":-0.015887454979812338,"94":0.07527876945608898,"95":0.17473027680176578,"96":0.05166382168143217,"97":0.011228366322005544,"98":-0.08361480702649565,"99":0.13634896760717613,"100":-0.10508834966816652,"101":0.10145602720133919,"102":0.09840652048297698,"103":0.08600522471155479,"104":-0.23947896150301953,"105":-0.0851554817907045,"106":-0.03137108164450845,"107":0.054721324123151546,"108":-0.01742152944676583,"109":0.08998344145896195,"110":0.0199204264126929,"111":0.09738048267521367,"112":0.09132045090293191,"113":-0.02616664018025574,"114":-0.08472769125243938,"115":0.03413577448845426,"116":-0.06808503576226672,"117":-0.080881458899248,"118":-0.0908702525383481,"119":0.0793014473131153,"120":0.10825603686085773,"121":0.016425146187125785,"122":0.08998442169159239,"123":-0.10777588663247742,"124":-0.03743616953708009,"125":0.009256706950060188,"126":-0.036828756277184974}},{"sx":1,"sy":1,"depth":127,"w":{"0":0.0036379715243287127,"1":-0.05724978352567147,"2":-0.03774518531464182,"3":-0.07829252044592575,"4":0.004618398159927851,"5":0.016829569577319726,"6":0.02598472068230598,"7":0.06524123443041614,"8":0.06265318311714214,"9":0.09201039582896166,"10":-0.13453432791292227,"11":0.09027060000707672,"12":0.0008970013004680786,"13":0.030325917192258,"14":-0.02120407666318413,"15":0.16646462164398515,"16":0.06475335527436835,"17":-0.0055755048298406825,"18":0.011792581379442576,"19":0.06253928607175444,"20":0.16230778554720982,"21":-0.005566603062997798,"22":0.033650025966973605,"23":-0.09405033690138612,"24":0.05009459168649937,"25":0.1385155294736249,"26":-0.12433431681944399,"27":-0.1523465908965155,"28":0.21523648951897106,"29":-0.005670809526022837,"30":0.01687595187011046,"31":-0.1134011009652852,"32":-0.029388323495375037,"33":-0.10989351313942154,"34":-0.17143941721177075,"35":0.012200576441801298,"36":0.10139209362452363,"37":-0.007230713475579149,"38":-0.05874590114102427,"39":0.13739893376184276,"40":-0.08135661575587222,"41":0.09813299424360733,"42":0.08518159644506176,"43":0.0030598486321032057,"44":-0.016803962064241347,"45":-0.09350152290436486,"46":-0.12632575626963113,"47":-0.06818866991652384,"48":0.035745532481531714,"49":-0.09008645127161279,"50":0.00845788965979649,"51":-0.041418975909686385,"52":-0.04732672272828613,"53":-0.10695689224410447,"54":0.01703720963934257,"55":-0.042677985905995426,"56":-0.005960931090488979,"57":0.07825927572653782,"58":-0.04576321455771905,"59":-0.131278383621153,"60":-0.011289621485796365,"61":0.015326148317507973,"62":0.0032158732472190896,"63":-0.0641006301234256,"64":-0.02529016108654182,"65":0.13274571832319237,"66":-0.013032731120766155,"67":0.04244971846921218,"68":-0.0427870074156447,"69":0.007209014510282833,"70":0.04439910470538665,"71":0.05203864598188582,"72":-0.0907484353984392,"73":0.01877336231375883,"74":-0.18089245029868772,"75":-0.13552879841429175,"76":-0.10379195794481998,"77":-0.04880605219021963,"78":-0.06780364628751366,"79":-0.13354387620169259,"80":-0.1845628394437803,"81":0.06825597686580179,"82":-0.11298161981051742,"83":-0.051800238218837086,"84":-0.12077124839912919,"85":0.019980612921176675,"86":-0.17506682382228445,"87":-0.018103852098026514,"88":-0.014370120753463035,"89":0.023583710222163625,"90":-0.01038797571613187,"91":0.036109724936822366,"92":-0.11200416296656782,"93":0.005323130038953731,"94":0.03753302542118456,"95":0.004828576340787023,"96":0.031063632859501453,"97":0.005858930311374316,"98":0.10831606346593979,"99":0.10002214264184278,"100":0.03899088118855379,"101":-0.11107912820896351,"102":-0.14898735973085264,"103":0.008278766999969213,"104":-0.056143390810473905,"105":0.1279533835212356,"106":0.04569604554649821,"107":0.023357901930775683,"108":0.0035467735987761866,"109":0.016078487155244032,"110":-0.02427897907871828,"111":-0.033964082594886584,"112":-0.03575717715056626,"113":0.07646721532031868,"114":-0.05011227877895601,"115":0.13627697447218196,"116":-0.08908151535538286,"117":-0.19351093383594958,"118":0.06349031011171193,"119":0.19341148851191967,"120":0.10815717134773667,"121":0.06584663092401227,"122":0.049942749068430436,"123":-0.03254637261903967,"124":0.12920780505062804,"125":-0.030262724336752183,"126":0.0008641737001396689}},{"sx":1,"sy":1,"depth":127,"w":{"0":-0.03792462194779058,"1":-0.03811777521558734,"2":-0.04558883969512852,"3":-0.008972448422808574,"4":0.007120548537359078,"5":-0.050584699589047134,"6":-0.05508218553281667,"7":-0.0944881839384487,"8":-0.13113018105515734,"9":0.07151609098210919,"10":0.030847927621841725,"11":-0.0051135661541135986,"12":-0.06820719433022938,"13":0.16851172685840105,"14":0.036025522630372266,"15":-0.010442052160755421,"16":-0.059024987674373565,"17":0.05388272178940792,"18":0.15232235885605505,"19":-0.0302338719903315,"20":0.09086511975418718,"21":0.1776994571808489,"22":-0.07065505398023778,"23":0.03958667669455816,"24":0.15622330457063316,"25":-0.04710433604495649,"26":-0.09472401357614685,"27":0.060798520725011206,"28":0.06628375073065854,"29":0.06935397449575453,"30":-0.015785550624704554,"31":-0.02921264856064758,"32":-0.10482418817523353,"33":0.080736222810241,"34":0.010332294653328898,"35":-0.03283924543154125,"36":0.08932969313089476,"37":-0.03226704514154366,"38":-0.06228995930193813,"39":-0.037529666357013984,"40":-0.08630350391710646,"41":0.03984679637232155,"42":-0.05928397690722362,"43":-0.05758840024829956,"44":0.1413643806402664,"45":0.20986848594743746,"46":0.17187730476974147,"47":-0.039500968590707994,"48":-0.16679725772066933,"49":-0.185510245422044,"50":0.0969959622388912,"51":0.008900238413568087,"52":0.1473828587635862,"53":0.013369471977884805,"54":0.0033513605704402183,"55":-0.012101762050251244,"56":-0.07601759593583338,"57":0.10913781467212229,"58":0.0890781867842714,"59":0.0887764484146356,"60":0.1609839074145294,"61":0.007085195541318633,"62":0.0791310464592506,"63":-0.10226643500308197,"64":0.033002261094944314,"65":0.04797641436298875,"66":0.009374472139761366,"67":-0.032536812738198896,"68":-0.1455982462606912,"69":0.1908819536285904,"70":0.1398440640760078,"71":-0.07001393920054867,"72":0.04079196479467271,"73":0.02619292935703952,"74":0.04774073153227243,"75":0.06300869908379088,"76":-0.03404019512801774,"77":-0.019634500628361806,