
//<![CDATA[

// a few things don't have var in front of them - they update already existing variables the game needs
lanesSide = 3;
patchesAhead = 8;
patchesBehind = 5;
trainIterations = 10000;

// the number of other autonomous vehicles controlled by your network
otherAgents = 6; // max of 10

var num_inputs = (lanesSide * 2 + 1) * (patchesAhead + patchesBehind);
var num_actions = 5;
var temporal_window = 3;
var network_size = num_inputs * temporal_window + num_actions * temporal_window + num_inputs;

// DON'T CHANGE
var layer_defs = [];
    layer_defs.push({
    type: 'input',
    out_sx: 1,
    out_sy: 1,
    out_depth: network_size
});

// CHANGE
layer_defs.push({
    type: 'fc',
    num_neurons: 30,
    activation: 'relu'
});


// DON'T CHANGE
layer_defs.push({
    type: 'regression',
    num_neurons: num_actions
});

var tdtrainer_options = {
    learning_rate: 0.001,
    momentum: 0.0,
    batch_size: 64,
    l2_decay: 0.01
};

var opt = {};
opt.temporal_window = temporal_window;
opt.experience_size = 3000;
opt.start_learn_threshold = 500;
opt.gamma = 0.7;
opt.learning_steps_total = 10000;
opt.learning_steps_burnin = 1000;
opt.epsilon_min = 0.0;
opt.epsilon_test_time = 0.0;
opt.layer_defs = layer_defs;
opt.tdtrainer_options = tdtrainer_options;

brain = new deepqlearn.Brain(num_inputs, num_actions, opt);

learn = function (state, lastReward) {
brain.backward(lastReward);
var action = brain.forward(state);

draw_net();
draw_stats();

return action;
}

//]]>

/*###########*/
if (brain) {
brain.value_net.fromJSON({"layers":[{"out_depth":379,"out_sx":1,"out_sy":1,"layer_type":"input"},{"out_depth":30,"out_sx":1,"out_sy":1,"layer_type":"fc","num_inputs":379,"l1_decay_mul":0,"l2_decay_mul":1,"filters":[{"sx":1,"sy":1,"depth":379,"w":{"0":0.03068703273837077,"1":0.013810114100762712,"2":0.02636100574721532,"3":-0.00017147045512043923,"4":-0.10365998004539266,"5":0.07968153967579723,"6":-0.08500005858033576,"7":-0.03344287427306311,"8":-0.028561061078642147,"9":-0.08279932158412291,"10":-0.010184753411854174,"11":0.001937902839174852,"12":0.01966748218616421,"13":0.021011819806470353,"14":0.045144621051155,"15":0.06639508784046133,"16":0.06281052536674288,"17":-0.006256580088655955,"18":-0.024610055479450783,"19":-0.021314947567224456,"20":0.022751006615557304,"21":-0.034311890086506945,"22":-0.09427779829584959,"23":-0.07945472065645313,"24":-0.05603249855040833,"25":-0.06969886736531872,"26":0.0003187099607360581,"27":-0.01217040270792605,"28":-0.09121238522115117,"29":-0.007756904414021604,"30":0.020838253107484137,"31":0.006898765365726632,"32":0.025808943485276993,"33":-0.006386578793971,"34":-0.03861703357483799,"35":0.06265874058174004,"36":0.013727989141895035,"37":0.11594684240475808,"38":-0.04562757456715613,"39":-0.04368093464184206,"40":0.06812615972646957,"41":0.040068803024358966,"42":-0.01927406270560664,"43":-0.018707865333691513,"44":-0.017066923065358834,"45":0.041922246835385875,"46":0.004963556491210784,"47":-0.09588644512152535,"48":0.003812424706412156,"49":0.021784497481911382,"50":0.14248982248043726,"51":-0.0560338403717802,"52":0.0016263827384055006,"53":0.008100259584693513,"54":-0.04531896118476814,"55":-0.059970697913166796,"56":-0.04725494983297433,"57":0.004258934227517503,"58":-0.0022172017467842506,"59":0.04835571631682688,"60":0.03366169777923019,"61":-0.0210594493939315,"62":0.07017301295798284,"63":0.055915937639689745,"64":-0.01847484711240412,"65":0.03590130141677501,"66":0.0035901245207313236,"67":0.033441852833633524,"68":0.019306880339267644,"69":0.04984024933744529,"70":-0.0017440561563728074,"71":0.007356152162214743,"72":-0.11467249656397505,"73":-0.044929837179296224,"74":-0.03419816879641896,"75":0.10989167407071926,"76":-0.005271449059505372,"77":0.011627508398662717,"78":-0.03871838317995532,"79":-0.04510509999582744,"80":-0.034900212001630355,"81":-0.006511805368684748,"82":-0.05314087949279834,"83":-0.013203588676682589,"84":0.02392091231828516,"85":0.07734782189455543,"86":-0.0009608198448851582,"87":-0.0015123054036228567,"88":-0.004515273933341586,"89":-0.011253106698002686,"90":0.057684762148088285,"91":-0.04814024742170057,"92":-0.06155155056132869,"93":-0.025821138237706858,"94":-0.011741985438953906,"95":-0.005531473879311848,"96":-0.04597547923525485,"97":0.015366090125374286,"98":0.05532932020053953,"99":0.013532959887649566,"100":-0.019627095140228066,"101":0.02700841556877591,"102":0.0519284346703881,"103":0.021014297867688225,"104":0.028423433224646914,"105":0.04533693799986563,"106":0.012248524955232919,"107":-0.04704721912494628,"108":0.03447407460961097,"109":0.049400863474339,"110":-0.06605775097675388,"111":0.07786292832913806,"112":0.0024968493739670043,"113":-0.08289503894573924,"114":0.1058948353876803,"115":0.008594327581704723,"116":0.06633776295462702,"117":-0.06150667211859515,"118":-0.04586580008771126,"119":-0.04102230719195438,"120":-0.002018982700497154,"121":0.005288154420974561,"122":0.01009849503718765,"123":-0.010105788544773663,"124":0.013876820276440431,"125":-0.0064222929850718,"126":-0.014744977690357057,"127":0.032745804707781406,"128":0.05450756647204532,"129":-0.03731578203794153,"130":0.04488082617357473,"131":0.010876250196355049,"132":-0.04949967095694684,"133":-0.005818021810762907,"134":-0.013165911744148226,"135":-0.017940470199785306,"136":0.014717248207616336,"137":-0.07014929660022674,"138":0.05947811470800181,"139":0.08126926843237095,"140":-0.021309211532068238,"141":-0.12337670464928414,"142":0.017599078290409232,"143":0.031793284013222914,"144":0.03943630580108374,"145":0.03733733617767981,"146":-0.015655308372048222,"147":0.026122551656264786,"148":-0.004536623680828702,"149":-0.05174591862942053,"150":-0.0376673228834054,"151":0.033632043508869766,"152":0.030018335747473188,"153":0.02842148452441249,"154":-0.018340537231104667,"155":-0.012974960976517817,"156":-0.0242487486792354,"157":-0.02697655109588073,"158":0.04348029845369365,"159":-0.1303487367721425,"160":-0.005046446000478037,"161":0.01012293696045687,"162":-0.0488995970880246,"163":0.124389381338946,"164":0.01925463598227992,"165":0.026199704152225247,"166":-0.010897393215840311,"167":0.00958342619763431,"168":0.012274735412354257,"169":0.07677960798669795,"170":-0.010481548192252235,"171":-0.03632993933765786,"172":-0.008108032605567307,"173":0.07349833589339672,"174":-0.02356518625125265,"175":-0.03268449017470196,"176":0.07405551271737401,"177":0.030109539742023864,"178":-0.06322834803654118,"179":-0.036400079044947915,"180":-0.049153642604653505,"181":-0.008751151828156875,"182":-0.0635599881530568,"183":-0.06973236295232793,"184":-0.0844392926327044,"185":0.06525141266721834,"186":-0.07066751293445009,"187":0.011138489961685934,"188":-0.00415844174392584,"189":0.015980962246903842,"190":-0.017878777402072814,"191":0.07660586398269013,"192":-0.0671330941683036,"193":-0.03153782775000692,"194":-0.04583211758325562,"195":-0.07385962925290618,"196":0.035869167065348,"197":-0.09162646622003078,"198":-0.009932928505697497,"199":0.016401920698215913,"200":0.0431179968548496,"201":0.0004972450441491888,"202":0.056416886567458205,"203":0.057571209079158796,"204":0.00940133951282366,"205":0.018817759385379003,"206":-0.02035482543821336,"207":-0.07345029729699078,"208":0.02713850207423336,"209":0.09747510030080946,"210":-0.03633295644097289,"211":0.030047576000137396,"212":-0.008122403490343516,"213":-0.03082575016187108,"214":-0.11900551567032255,"215":0.08906275683980112,"216":-0.003843524804501858,"217":0.07108505838241574,"218":0.010470244404815211,"219":0.11810012563399343,"220":-0.043247343899282246,"221":0.044821818443138095,"222":0.059120426587377616,"223":0.03576479082339433,"224":-0.03210817923127169,"225":-0.022523577031579086,"226":-0.001543663411200446,"227":0.034623639255255044,"228":0.05110582041906823,"229":-0.008788152057868254,"230":0.037318144344959635,"231":-0.014219849497281691,"232":-0.010974786207974567,"233":-0.02527722286827105,"234":0.022831687785184414,"235":0.009429408929632736,"236":0.03594149697426858,"237":0.06000828022988533,"238":-0.02570786857111445,"239":-0.08104347419280465,"240":-0.1050215312609271,"241":-0.08881689254210759,"242":0.04882410476045314,"243":0.003671540885634164,"244":-0.023802745096654993,"245":-0.06561673382578491,"246":0.013648896863370483,"247":-0.07148552106227613,"248":0.1062555650388453,"249":0.04051287935816346,"250":0.03394876085424516,"251":-0.0027321402622485884,"252":-0.07810789422241625,"253":-0.0027454764418028996,"254":-0.034597332676391604,"255":-0.05099717915678207,"256":0.0871401775904999,"257":0.03886763764805194,"258":0.012642352820528719,"259":-0.0012405610524356613,"260":-0.07430278829407017,"261":-0.04780707799151118,"262":-0.038217699049480455,"263":-0.01934072255653691,"264":0.08925698177918498,"265":0.019662014989339605,"266":-0.06993921486016852,"267":-0.07752445466285986,"268":-0.01542250914719556,"269":0.033179393451396956,"270":-0.023181776310914743,"271":0.02182379235720111,"272":0.00014685882404082116,"273":0.061624259539113956,"274":-0.04043110541802655,"275":0.010588167829290663,"276":0.005621979541027892,"277":-0.08330224944448723,"278":-0.03904564393582567,"279":0.023423932747306447,"280":-0.055909399376614016,"281":-0.02044905029206868,"282":-0.06875847687514072,"283":0.006113025113915891,"284":0.00705422260447064,"285":0.03193092709398779,"286":0.009016165520686644,"287":-0.012274392921044451,"288":0.043710032828976016,"289":0.04165595188246211,"290":-0.004532396883475843,"291":0.04680700549812638,"292":0.02235875362342341,"293":0.06447802771318947,"294":0.1046967205302996,"295":0.009367012930149915,"296":0.008462929100444364,"297":0.04447669088692704,"298":-0.027058386898453208,"299":0.004649292067825656,"300":-0.0018257453452665223,"301":0.017237944211787606,"302":0.013563277215872202,"303":-0.03668188999727898,"304":0.02936792346678313,"305":-0.025847927636630304,"306":-0.00793845401961423,"307":-0.02297567873682139,"308":-0.017920214935364553,"309":-0.005218743836818577,"310":-0.00031900988164540364,"311":-0.028837922755332954,"312":-0.06729989120218723,"313":0.022772651229645814,"314":0.038984279042871745,"315":-0.06133115150372689,"316":-0.05604981912706973,"317":-0.020246734001136836,"318":-0.032877626802663595,"319":-0.10188683666746719,"320":0.026939593236348786,"321":0.0005967885801310882,"322":-0.0003180906734870803,"323":-0.06493220855250297,"324":-0.013383393756387698,"325":-0.05047567344230008,"326":0.00435331724239671,"327":-0.03814671463612205,"328":-0.020971184983028565,"329":-0.009579341319420275,"330":-0.05825722414021609,"331":-0.006326526273890477,"332":0.010354283537657164,"333":-0.027595851268398384,"334":-0.02689516853142073,"335":0.010160597328188895,"336":0.0032433008929660663,"337":0.0360187138268559,"338":-0.027893286445974923,"339":-0.07805719074637996,"340":-0.04476109482422176,"341":0.12604805632071214,"342":0.02014273566222882,"343":0.07254482472520557,"344":-0.05104185450820336,"345":0.07425935805485978,"346":-0.020216556824656926,"347":-0.13153767778240916,"348":-0.01508343091289379,"349":-0.04210609725127056,"350":-0.06352868502811565,"351":-0.13091819542791494,"352":-0.04187132833023907,"353":0.03943514964338529,"354":-0.012609351725880182,"355":-0.037768000443575,"356":0.049955830250128945,"357":0.09037336115083848,"358":-0.050758705689877594,"359":-0.052759651414159114,"360":0.005893274218170364,"361":0.03384710166693498,"362":0.07084540028020815,"363":-0.04692590425670915,"364":-0.0017081572024237436,"365":0.01797709211211903,"366":-0.012119610254773488,"367":0.060203179404095655,"368":0.05132792326714129,"369":-0.056291347794561804,"370":-0.00657198109740029,"371":-0.03159165265158643,"372":-0.0730310926262255,"373":-0.03360410442999244,"374":0.06242836353553331,"375":-0.10548778739161573,"376":-0.045644607269076834,"377":0.008170514212664712,"378":-0.06931206197166921}},{"sx":1,"sy":1,"depth":379,"w":{"0":0.12027058517369421,"1":0.045299108664988756,"2":0.01971111566464992,"3":0.09225689868161653,"4":0.0501343500185948,"5":0.023256302734901313,"6":-0.1367655846207836,"7":-0.03929094645503639,"8":0.02342598018105798,"9":0.10298071823354872,"10":-0.04823709739231857,"11":0.01223324970166503,"12":-0.004833822660944794,"13":0.021822047640071413,"14":0.09868380041428138,"15":0.04813574270065259,"16":0.09678306446908704,"17":-0.0030393040010070972,"18":0.07083769833398859,"19":0.07508397037079535,"20":0.03878079762807877,"21":-0.02959280100443362,"22":-0.040654523039678425,"23":-0.025374315956005814,"24":-0.07249506348445796,"25":0.021488249627934185,"26":-0.04572036460964447,"27":-0.10010918205805805,"28":0.027412070934009557,"29":-0.04391402058232146,"30":-0.0038406189078023915,"31":-0.014235970289112146,"32":-0.036930876029809025,"33":0.08876991649645963,"34":-0.0022758353497044203,"35":-0.12499315890068345,"36":-0.04617197886952508,"37":0.04694092169932978,"38":-0.01218053230647269,"39":-0.03298964875563885,"40":-0.021902916069606038,"41":0.002168132339535177,"42":-0.0772928470940812,"43":0.05289769106405477,"44":0.022513060116927643,"45":0.03627265668334552,"46":-0.006464700429263716,"47":0.040874684317515744,"48":-0.037759956772567584,"49":0.026584928556061104,"50":-0.04625337226852636,"51":-0.018134039683225914,"52":-0.0018140713631876223,"53":-0.08278751181925761,"54":0.015424586781572075,"55":-0.0030861430563511637,"56":-0.05196042137943888,"57":-0.03171662022510001,"58":0.054902314510611915,"59":0.02394069292124426,"60":0.11085863154472038,"61":0.044782911322776925,"62":-0.019354011880964403,"63":0.025799884921396374,"64":0.08226959241980414,"65":0.011515134713383265,"66":0.036587994508120156,"67":-0.0962197607976641,"68":0.0294479087789467,"69":-0.008842549204200072,"70":-0.02243154056032216,"71":0.060246737542709816,"72":-0.031175829473634568,"73":-0.012303044530714279,"74":0.03683878519207316,"75":-0.1201392082412034,"76":0.017164636896384956,"77":-0.04885868673042374,"78":0.043064004074344596,"79":0.04019279513597594,"80":0.02484169450078471,"81":-0.07375111043336582,"82":0.05521394278435521,"83":0.05152067059278998,"84":0.01959263421448845,"85":-0.03357815839129507,"86":-0.04455243554154736,"87":-0.04596076127889348,"88":0.021349518855946034,"89":-0.007271828021074531,"90":-0.06508595697241579,"91":-0.021652276122047606,"92":0.011653968808169459,"93":0.03892315986385091,"94":-0.08026980506965292,"95":0.034252966966027296,"96":0.003493184247073593,"97":-0.05013893362969258,"98":0.0042062277595980085,"99":-0.05164997735710738,"100":0.12564545477532352,"101":-0.0442973249518861,"102":0.11519298629983722,"103":0.13413169811159456,"104":0.037440269791401665,"105":0.0655932156932459,"106":-0.030288134426162985,"107":-0.045233472282065146,"108":-0.000892905759157844,"109":0.08310296165118482,"110":0.03563602528377415,"111":0.007079418114961566,"112":0.05660830769608973,"113":0.025727219601624392,"114":0.03726927850508241,"115":-0.06820298253243569,"116":0.07913773280242091,"117":0.100052680764155,"118":-0.019579716253750035,"119":0.05318954026152922,"120":0.03776505697082008,"121":0.044614017465825044,"122":0.05636722972019758,"123":-0.07282628636103554,"124":-0.008240579309607515,"125":-0.06467483175974395,"126":-0.1270875114468091,"127":-0.0161371785013106,"128":0.03809939060619951,"129":-0.062164821951945635,"130":0.0717560357230636,"131":-0.012498559877807954,"132":0.03333402023603624,"133":0.022564455999767235,"134":-0.02180648463404248,"135":0.06656792785467144,"136":-0.027597572924032206,"137":-0.014497027652576175,"138":-0.005335746935252771,"139":0.011565654081709412,"140":-0.08652500703729796,"141":-0.07345494268616845,"142":-0.04428790693396762,"143":-0.04655996017278597,"144":-0.039807734484305725,"145":0.02320817608449735,"146":-0.0003048100793055741,"147":0.042865278462468556,"148":0.023255123858261773,"149":-0.028459126806524664,"150":-0.0075403260263050345,"151":-0.042274008314667065,"152":0.05854679908176296,"153":-0.04978664167613888,"154":-0.007286965904982103,"155":-0.09747145214205012,"156":-0.0597489827627664,"157":0.07126217853166145,"158":-0.02159828140512499,"159":0.051954463304116294,"160":0.026303925558093504,"161":0.015538250773592019,"162":0.03012532283516142,"163":0.045034736734959856,"164":-0.05513619989851065,"165":0.013214283367707472,"166":0.03988259147625725,"167":-0.02533245524685798,"168":0.026861500775294082,"169":0.012719768617279246,"170":0.0008099079038537336,"171":0.10023648745313532,"172":0.03219908362804218,"173":0.05635521433304072,"174":-0.04516930800909777,"175":-0.01044245668214444,"176":-0.00945119253242725,"177":-0.038936849948706706,"178":0.04467073342554259,"179":0.03512304519885302,"180":-0.028722807015238775,"181":0.011411179455045743,"182":-0.023516667166656777,"183":-0.08543888631202953,"184":-0.033950487345847026,"185":-0.026387429995238108,"186":0.04023810769902621,"187":-0.08530403966477179,"188":-0.07169085606408289,"189":0.04733033763894077,"190":-0.03518200341596485,"191":0.037384473104804576,"192":-0.08404349704832004,"193":-0.047880142826814534,"194":0.02042580907710578,"195":-0.011615405977960456,"196":-0.002085592694556461,"197":-0.023725374378893785,"198":-0.0110137319291467,"199":0.026443751343390904,"200":0.0038886927181938148,"201":0.03498214553610738,"202":0.05556651925819458,"203":-0.04835039150944829,"204":0.027221718285608935,"205":0.029009611981299265,"206":-0.09909140606071534,"207":-0.03045270486563967,"208":0.017240539052813374,"209":-0.0632016704098854,"210":0.016003109246332553,"211":-0.05825326881658487,"212":0.02492196309543279,"213":0.004696540639556668,"214":-0.07696161085010293,"215":0.0719972354174216,"216":-0.08772206908659352,"217":0.03239692523430453,"218":0.006234695826434368,"219":-0.11208790813952485,"220":0.08616665721685114,"221":-0.052378552063591065,"222":0.05136465537348334,"223":-0.06744378435877743,"224":-0.05481981044641978,"225":0.012780215635876344,"226":-0.04562091618503195,"227":-0.07110750125994646,"228":-0.034118738155807404,"229":-0.03867375964664217,"230":-0.02723905070397185,"231":0.07805278450921095,"232":-0.03871740110379325,"233":0.00008087787303301904,"234":0.010455172701292396,"235":-0.02674454075333012,"236":0.10802798828465188,"237":0.020243158099295805,"238":-0.03239313464638938,"239":0.07634366301286319,"240":0.10879294753956463,"241":0.032743907582728715,"242":0.012117896033634152,"243":0.08221773801672987,"244":0.022772163692236135,"245":0.03299334432277071,"246":-0.04098405566245091,"247":-0.04752853884898487,"248":-0.07367602327499943,"249":0.008243253003078746,"250":0.02605198716034117,"251":-0.04670355185568371,"252":-0.029446565038875164,"253":-0.10483521869436234,"254":-0.06483424224659427,"255":-0.031401430707122084,"256":-0.06487058900606772,"257":-0.022288963329672597,"258":-0.04348120367367639,"259":-0.051873010461491634,"260":0.019650823068473412,"261":-0.06567822481984277,"262":0.011524939379183228,"263":-0.006523392415641629,"264":-0.029926617849393346,"265":0.13173538430403836,"266":0.007403739532171562,"267":-0.01913428966987413,"268":-0.02116163667031694,"269":0.011573858336965387,"270":0.04023373340680472,"271":-0.036018035730568033,"272":0.014585730690605233,"273":-0.0449623979316684,"274":-0.0030864923963237396,"275":0.028843327560308857,"276":-0.06938853114664485,"277":-0.011449785955063836,"278":-0.08841951294761664,"279":-0.027230924951641068,"280":0.0617208677302264,"281":-0.06832010304542253,"282":0.015053883355574884,"283":-0.04148288118650295,"284":-0.027557796518124105,"285":-0.050086277795868786,"286":0.054274130074997894,"287":-0.03350587399713048,"288":0.056996338024157135,"289":-0.05246505420470626,"290":0.005785203892949359,"291":0.03284106124902586,"292":0.03763439134817896,"293":0.037661590952733484,"294":-0.0017496766788751043,"295":0.0401077704776399,"296":-0.015595898326017628,"297":-0.0027334193852068646,"298":-0.007404790613435324,"299":-0.02508070489161667,"300":0.0933616268379087,"301":-0.11768767539804209,"302":0.0397329132702442,"303":-0.07041083438238065,"304":0.01992676713650982,"305":-0.01581273440137442,"306":-0.0071963378982747555,"307":-0.08478095034270797,"308":0.0374405095394843,"309":-0.05491008717190848,"310":-0.02781861701326348,"311":0.0380135557888084,"312":0.024361827433796397,"313":-0.0637599091806437,"314":0.02544617445871807,"315":-0.047396262465442415,"316":-0.07153458393536206,"317":-0.05781177464739123,"318":0.013597563531023357,"319":0.015134293274586753,"320":0.024917016015025502,"321":0.03162129247215861,"322":-0.05861924152145082,"323":0.029372482118272373,"324":0.022263495961774515,"325":-0.004835672609295169,"326":0.010413748143645752,"327":0.000310986733284467,"328":0.0036535233923840585,"329":0.01403288616353632,"330":0.026471077962828774,"331":-0.062083400285393324,"332":-0.0034616916536468934,"333":0.013950913788851339,"334":-0.0017894215634382188,"335":-0.05298686192888493,"336":0.05448915252422629,"337":-0.1121015358167866,"338":-0.02541064497637029,"339":0.027246649321761407,"340":-0.04937443133582795,"341":0.04124984202673047,"342":-0.04180087373909406,"343":0.0026271634259547915,"344":0.13886275456233788,"345":-0.003045482496450237,"346":-0.04866088056563763,"347":0.029776195089663303,"348":-0.04081415573517154,"349":0.07481450393478277,"350":-0.044814243649419334,"351":0.010064437672459525,"352":0.03233982998575789,"353":0.042854438561330206,"354":-0.09584682017587283,"355":-0.08075299976845732,"356":-0.00204984220982588,"357":0.048047389051965976,"358":-0.0011692804941419456,"359":-0.01717993091337757,"360":-0.0020619953037727414,"361":0.009748453642773266,"362":-0.05459574804232312,"363":0.040370291733524875,"364":-0.007778407313709472,"365":0.08989929843124088,"366":0.050507764448292664,"367":-0.07215001312220433,"368":0.014390403643717586,"369":-0.016736482010908448,"370":0.012442698432545814,"371":-0.03589529282595694,"372":-0.04912033143668015,"373":-0.025767879115866872,"374":-0.09329300689300703,"375":0.04287482129854738,"376":-0.09149545475349341,"377":0.012348517524620222,"378":0.006479421488606174}},{"sx":1,"sy":1,"depth":379,"w":{"0":-0.016267527294483445,"1":0.0771128926628695,"2":0.04925883750748873,"3":-0.03796210943452678,"4":-0.07932535866372338,"5":0.009616074408394916,"6":0.027852739934738,"7":0.051367320498770436,"8":0.03760757773210613,"9":-0.01417082752121687,"10":-0.040489284290844585,"11":0.07697734815416808,"12":0.06862393904735294,"13":0.026434757864155396,"14":0.010167495954741755,"15":0.020829833011299523,"16":0.03109590321283024,"17":-0.04102141688437204,"18":0.017567133051556875,"19":0.0672622919538094,"20":0.03753930227712,"21":0.0002647421286136702,"22":-0.008023368271073835,"23":0.007863596544622787,"24":0.03106440157125552,"25":-0.0003353613855627703,"26":0.015370345292865234,"27":0.0057598179867497535,"28":0.07690378292285023,"29":0.037778209116124284,"30":0.0689204513967829,"31":0.04804078776908006,"32":0.0004223984809078307,"33":0.03415089140483417,"34":-0.03727516652983106,"35":0.024733838807693476,"36":0.09815411030440618,"37":-0.030413798555004205,"38":-0.005984564218961165,"39":-0.09724764879776847,"40":-0.014950566958996924,"41":0.09733159596179371,"42":0.04166340750224707,"43":0.006837140375546373,"44":0.07907114870215118,"45":0.04117424204699878,"46":-0.028693583765059084,"47":0.059329469444891716,"48":-0.0050944676357169184,"49":0.06120796278119504,"50":-0.02292495351317767,"51":0.062403958383303766,"52":-0.011195087273750758,"53":0.0203481013015435,"54":0.012675053066939248,"55":-0.06635083096901047,"56":-0.011610301137762817,"57":0.06718606819270839,"58":0.023818105032116302,"59":0.05749229116005542,"60":0.03163837119613785,"61":0.04798666309359737,"62":-0.022591764535101325,"63":0.05348009233193234,"64":0.015949673984158162,"65":0.06716613456561515,"66":0.027598344926351603,"67":-0.017521868277377083,"68":-0.03174862743232594,"69":-0.030696087680510627,"70":-0.0018950990808974946,"71":-0.03582679820353351,"72":-0.04041482901711043,"73":-0.06471823538552397,"74":0.07157846502671929,"75":-0.004870547363299122,"76":0.02665979051872401,"77":-0.038569639110301146,"78":-0.026026006789929293,"79":0.04392895849889979,"80":0.07872741942370168,"81":-0.08857686165442709,"82":-0.015828989670996156,"83":0.025671741182644675,"84":0.10316852291698639,"85":-0.0038095598705068473,"86":0.008748398154749017,"87":-0.10682884504918823,"88":0.07266157041488781,"89":-0.019630166127675357,"90":-0.001357419625688776,"91":-0.0053873879929689636,"92":-0.005340195370873156,"93":-0.05967214411985144,"94":-0.005126399891820155,"95":0.002704003756782424,"96":-0.034719853934345415,"97":-0.030925094572195097,"98":0.01736519708547694,"99":0.032580571672871206,"100":0.078017300676685,"101":0.0024000633158554703,"102":-0.04584897831192657,"103":0.012478921561189415,"104":-0.056375306527871163,"105":0.00804468335170353,"106":0.0672682828325328,"107":-0.0011657707056741626,"108":0.036463830661977274,"109":-0.09389537202047867,"110":0.02549441800164658,"111":0.030136926473340302,"112":-0.015659059014706007,"113":0.01648035621257326,"114":0.024501888571547868,"115":-0.014216358023013277,"116":-0.026285125876069276,"117":0.053775924729212506,"118":-0.040585686750880035,"119":-0.019515964088945414,"120":-0.033083968412028854,"121":-0.038561233306021556,"122":-0.0056942875531844515,"123":-0.04602709181806416,"124":-0.04526789748732527,"125":-0.042684482583619045,"126":-0.10948032621141673,"127":-0.028344715224716887,"128":-0.07841973276850858,"129":-0.05377103191992302,"130":-0.07568245493028035,"131":-0.08665491954567728,"132":-0.022541113718137325,"133":0.03834468505833037,"134":-0.06301529541462063,"135":0.008109758307554822,"136":-0.07851796107387993,"137":0.036839810461484185,"138":0.012916823568686722,"139":0.0051263950504069665,"140":-0.05291189143357488,"141":0.07257348938152008,"142":-0.07821424464016428,"143":0.02160883474118576,"144":0.11627090005624194,"145":0.011036765094011304,"146":0.021911056166347684,"147":0.041948448639477165,"148":-0.014606733068513534,"149":0.0332904979061231,"150":-0.026661556617178086,"151":0.051446151563971775,"152":-0.026802500678900495,"153":0.068548951339369,"154":0.020577406738218805,"155":-0.04602668270116818,"156":0.03034005199165344,"157":-0.032629279617909436,"158":-0.030614266118103448,"159":-0.024642366844845536,"160":-0.03464305368670613,"161":-0.04423832866599901,"162":0.06580047493719011,"163":-0.022762115745696383,"164":0.0860331364771349,"165":0.05024245760005006,"166":0.10559217170939196,"167":0.05291450037807572,"168":0.034147965816143246,"169":0.003835574542115002,"170":-0.06897707320189692,"171":-0.05692518693416619,"172":0.006531191402025216,"173":-0.11944104611860884,"174":0.05086347650179358,"175":-0.06491841953895895,"176":-0.026628132320397162,"177":-0.02017457703565845,"178":-0.03824449086678578,"179":-0.04427830710701816,"180":0.04309130123747569,"181":-0.056661674745840135,"182":-0.0366610949088455,"183":-0.005077505435598635,"184":-0.038176740684592994,"185":0.03453456765990459,"186":-0.028268942439785734,"187":-0.04441221792111844,"188":0.03812658057538018,"189":0.06005495916377338,"190":0.09460065386036093,"191":-0.03318362160140719,"192":0.07451943181519204,"193":-0.03649960517584007,"194":-0.015363632502872019,"195":0.04935792365206863,"196":0.06692757549996348,"197":-0.041285836918651724,"198":-0.007323800958117362,"199":-0.026687441037055767,"200":-0.04080945689797142,"201":-0.013122022342526275,"202":-0.009990619401945585,"203":0.13226468827720694,"204":-0.060589940708587406,"205":0.021575349284707245,"206":-0.04694425606038494,"207":-0.04130161597710614,"208":0.006457443410420286,"209":0.07158780481801398,"210":-0.025779551607967622,"211":0.05104122198268848,"212":-0.014709068945634866,"213":0.05279615432990803,"214":-0.013121135603339147,"215":-0.004501591609053043,"216":-0.031207143937415357,"217":0.038971436266272856,"218":0.05459625316579748,"219":0.06980799236450647,"220":-0.08186684180044668,"221":-0.01704570855064285,"222":0.02939149191682653,"223":0.04563992658580159,"224":0.031648071621931534,"225":-0.007211156641444768,"226":0.024539089129000328,"227":-0.0008138491495322357,"228":0.005169983016628518,"229":-0.002117778175431705,"230":0.053177190018761034,"231":0.034059586538228936,"232":-0.03439381015415464,"233":-0.00037999631290589885,"234":0.06771417556785671,"235":-0.01561183795654241,"236":-0.027557230896057668,"237":-0.015312728949771565,"238":-0.11033220388188601,"239":0.01779003176448682,"240":-0.05258336858783758,"241":-0.034975663967498946,"242":0.09965940259633846,"243":0.07371149509039632,"244":-0.03034988077392844,"245":0.04819079034395051,"246":0.06368127402061567,"247":-0.07756279239336313,"248":0.08861079864501331,"249":0.06631525910278,"250":0.012250210902938607,"251":-0.0618553051727709,"252":0.08296962229727517,"253":0.07096696985313027,"254":-0.09424302135153384,"255":-0.07505352809480052,"256":-0.09203528806722096,"257":0.06884499474867507,"258":-0.11514961574033633,"259":0.009713030875668004,"260":-0.019585513341268884,"261":-0.06640706113881062,"262":-0.04764798291309015,"263":0.05368486995269488,"264":0.06751482557554739,"265":-0.02884343669441962,"266":0.007401951504597639,"267":-0.03996432619596037,"268":0.008318287050227352,"269":-0.025778670116757017,"270":0.041928950410924405,"271":-0.016548923987143797,"272":-0.06050413733631209,"273":-0.02575611362051618,"274":0.007484530382827336,"275":-0.06613183161471912,"276":-0.07659546362574454,"277":-0.034264471587633884,"278":-0.00685210282846283,"279":-0.05485626946096068,"280":0.01834687587934996,"281":-0.03974110347189779,"282":-0.05988684059961257,"283":-0.008333685345774687,"284":0.135784595730257,"285":-0.02667608696413376,"286":0.049338763858531205,"287":0.12019066229276494,"288":-0.0938435279726642,"289":-0.024068315008679408,"290":-0.04519775767489047,"291":-0.036019474479789426,"292":0.04148872517415616,"293":0.05109080848955388,"294":-0.01800911848035183,"295":-0.08827615602684796,"296":0.05384282168141832,"297":0.0003646175591282788,"298":-0.05563877529377374,"299":-0.06746091580200922,"300":0.07441412520978885,"301":0.009484263009979932,"302":0.08019084496120964,"303":0.12195152770541061,"304":-0.047809575631035266,"305":0.07973734032312493,"306":0.052477984955179836,"307":-0.08582795725930338,"308":-0.06102956133891283,"309":0.015535887940190203,"310":0.05149429973533903,"311":-0.024853953170249216,"312":-0.023960689671615038,"313":-0.07765390789253775,"314":0.03970212085062987,"315":0.0019816223907760614,"316":0.04713775302648704,"317":-0.02653559669984511,"318":0.007957559442998623,"319":0.029830532377953696,"320":-0.00682088322408937,"321":-0.059029612496571265,"322":0.0449157628757946,"323":-0.06978958862000174,"324":-0.00946784850456304,"325":-0.053423409043652045,"326":-0.021179361126997767,"327":-0.06572805969640659,"328":0.03889671099467475,"329":0.06121057593153987,"330":-0.08122301960151719,"331":-0.03963277305238821,"332":0.0027006251852778867,"333":-0.030574619973583735,"334":-0.1160600115053991,"335":-0.04303607218874024,"336":-0.03048213556783232,"337":-0.010244640662886483,"338":0.006704802988146193,"339":-0.051562495639749045,"340":0.09243536622036237,"341":0.059225058854150865,"342":0.009148514343289513,"343":0.05050687242965973,"344":0.027098919889522496,"345":-0.015897557199493213,"346":-0.040322272542637615,"347":0.021326048762749624,"348":-0.03214543385424659,"349":-0.05608352998291814,"350":0.04264965735999754,"351":-0.0010494004582892922,"352":-0.024829505324195252,"353":-0.02235282894076214,"354":0.037981605678427684,"355":0.008039543142893379,"356":0.037785531750109645,"357":-0.01806512284286056,"358":0.012392499901984615,"359":-0.02619994007024072,"360":-0.010955497932986615,"361":-0.008449554189555883,"362":-0.044701959106015494,"363":-0.08187016934937831,"364":0.0933969148209302,"365":0.03409531399416245,"366":-0.04232268337935443,"367":0.06196957844718576,"368":0.06375857613319931,"369":-0.06011032118485501,"370":-0.09240174772414755,"371":0.03933252977944412,"372":-0.04508859630694751,"373":-0.10965540311906943,"374":-0.11140471201843143,"375":-0.0589971227819696,"376":-0.06859776897841931,"377":-0.011664704979432316,"378":-0.11637686036288293}},{"sx":1,"sy":1,"depth":379,"w":{"0":-0.013114518337811168,"1":-0.0033386861419515746,"2":0.048777708999505905,"3":-0.07851347460811024,"4":0.042748158277767095,"5":0.0031340459442688257,"6":0.055072882909719456,"7":-0.0168614690310181,"8":0.05462671116474322,"9":0.008487345347025445,"10":0.022161821010854336,"11":-0.03285505733319897,"12":0.11425993212374813,"13":-0.03875697899021273,"14":0.1048021342547865,"15":-0.05554757173103877,"16":-0.022104002591267956,"17":-0.032509399268848625,"18":0.005563663391881515,"19":-0.01965437878442599,"20":0.012861291627151043,"21":0.02913078119510583,"22":0.04392639500570423,"23":0.08499593133006103,"24":0.019919583652439714,"25":-0.01672248246270377,"26":0.07770162999041336,"27":-0.01968449747002983,"28":-0.0030587050825115654,"29":0.033431502664416454,"30":0.08182020501352245,"31":0.04388303599269049,"32":-0.041657621736602,"33":0.09524996976437414,"34":0.03612672760663643,"35":0.08463198475720449,"36":0.046170287075947024,"37":-0.006149092838291081,"38":-0.021508350769270365,"39":0.020503362303476214,"40":-0.09278993376180945,"41":-0.06012171797183089,"42":0.06302111110183087,"43":-0.025593593198695152,"44":-0.050042053626766315,"45":0.06364255193334636,"46":-0.010419581012393007,"47":-0.024733332140638786,"48":0.05984696452205016,"49":-0.0408403919309937,"50":-0.029096644532155116,"51":-0.016671507049522107,"52":0.06691543892762988,"53":0.048681735114586094,"54":-0.041102690716902424,"55":-0.006091101025190262,"56":0.09978345783304006,"57":0.06377518188266842,"58":0.07483280787759763,"59":-0.007032734576147766,"60":-0.08930709599083901,"61":-0.06651039779575436,"62":0.07983624164003536,"63":-0.04149470980732921,"64":0.06189531579946377,"65":-0.060379521645943346,"66":-0.0373669397192463,"67":0.010071417224616968,"68":-0.03166495465539059,"69":-0.036575480619606096,"70":0.07888618364096539,"71":-0.007738854773602145,"72":-0.009468312661201836,"73":-0.07800649404454735,"74":-0.05698736629598348,"75":0.03456756389953781,"76":0.03863809248266374,"77":-0.011570971797946732,"78":-0.01480189186167396,"79":0.022898757722050436,"80":-0.01655876709540257,"81":-0.04049235356186347,"82":0.022718694335778958,"83":-0.026435277007322663,"84":-0.02961257330375275,"85":0.042495922869535345,"86":-0.11915259728892147,"87":-0.03289838921032326,"88":0.13613000845790346,"89":0.022576401841086568,"90":0.06655520671282852,"91":-0.014523719332219028,"92":0.045133528249987606,"93":0.01244891799378132,"94":0.00487521738083371,"95":0.01961880233897069,"96":-0.01726277827694633,"97":0.007727139225278652,"98":-0.0009176561133897422,"99":-0.08242476467017373,"100":0.018924305806033617,"101":-0.046839874772707395,"102":-0.039036323624594665,"103":-0.0386876250829459,"104":-0.057720904247291795,"105":0.04895967488951578,"106":0.009691429505205152,"107":-0.05148381434672272,"108":0.03653877593308358,"109":0.01833144269739804,"110":-0.008179602267100404,"111":-0.005076278926147019,"112":-0.09484195116890656,"113":-0.03723995571279331,"114":-0.017342981009718816,"115":-0.027195089528082753,"116":-0.009728298621604054,"117":-0.009767991974205407,"118":-0.03692663663047814,"119":-0.018775140169081248,"120":0.045201719668686156,"121":0.010020867071671035,"122":0.05420030299012153,"123":0.01149028540754172,"124":0.04217376495323548,"125":0.07895737577665081,"126":0.03676028495322547,"127":0.013357340810639304,"128":0.0123988743294917,"129":0.019308986570658847,"130":0.0029360852371086025,"131":-0.05929189885848563,"132":-0.03614897011011834,"133":-0.07923329902449511,"134":0.02981355148629719,"135":0.10714844578245843,"136":0.09078788407664042,"137":0.004173394045434564,"138":-0.07144407304608247,"139":0.011719559224826172,"140":-0.09023043583461761,"141":0.04589213373795148,"142":0.06740027762204924,"143":-0.025176836083938562,"144":-0.01129364378097829,"145":0.036659687982426255,"146":0.05110041745757422,"147":0.009144596297426387,"148":-0.010905695487147964,"149":-0.012654278267992316,"150":0.0018914011184152017,"151":-0.05210314688983927,"152":0.057892525596677444,"153":-0.06211352199488081,"154":0.024261906316998826,"155":0.03688817489778372,"156":0.0649428262458171,"157":-0.03922443283897113,"158":0.06383370432855415,"159":-0.04279966499131729,"160":-0.017325326563083582,"161":-0.031202402453579404,"162":0.04401617217454514,"163":0.05508025692204846,"164":0.0450970350537043,"165":-0.015054663574143309,"166":-0.025215876401310056,"167":-0.056892008697420296,"168":-0.031448230298031926,"169":-0.0016501633096426358,"170":-0.07352126781051226,"171":-0.03757967395024026,"172":0.01718975718412776,"173":-0.03782243032532033,"174":0.038260158998181755,"175":-0.010707339305653495,"176":0.033202059833166764,"177":0.00988848677400739,"178":0.003950661188424268,"179":0.045380627919005524,"180":0.0444027523817367,"181":-0.09618885008349244,"182":0.007481166829336679,"183":-0.05346202053593164,"184":0.057077859018587175,"185":0.0826764088086661,"186":0.004296490119841388,"187":-0.018553831560254162,"188":-0.024861882296873018,"189":0.013281274413111067,"190":-0.03804212218180662,"191":-0.0841528470234517,"192":0.06489408398272978,"193":-0.040571959794196436,"194":0.006678153229382074,"195":0.08164979073262306,"196":0.07611351741718297,"197":-0.011423892459960545,"198":0.018470905817834723,"199":0.01496037309771609,"200":-0.02162616924017554,"201":-0.07038116346172703,"202":-0.04961416403198037,"203":-0.06933586816416279,"204":-0.05011819382991903,"205":-0.02859237776691469,"206":-0.005837391144093531,"207":-0.014468650260026252,"208":0.006235294122808308,"209":0.02659521227888742,"210":0.01825995728752643,"211":0.008211686524380663,"212":-0.06467038948213649,"213":-0.06948892466761074,"214":-0.03700568061193644,"215":0.08944044003636094,"216":0.025525759664361942,"217":-0.019822812505014397,"218":-0.051576228980038705,"219":0.021801977073417498,"220":-0.05928790347765714,"221":0.006742032533518142,"222":0.04672192025493635,"223":-0.07112258502502362,"224":0.027045825735398966,"225":-0.1200800054695108,"226":0.02246896260795035,"227":0.14353821206476808,"228":0.08284544088070055,"229":-0.03969779964035296,"230":0.00814886918323889,"231":-0.04111151453436425,"232":-0.009602334827963369,"233":0.004490670134424991,"234":-0.0014101692821402998,"235":0.01737632916386473,"236":-0.1233137273670337,"237":-0.04197721827864342,"238":0.02467199441283492,"239":0.008578673991396052,"240":0.03679296709094913,"241":-0.0008929216195957127,"242":0.06792110697213652,"243":-0.030329004455739744,"244":-0.12767144475831307,"245":-0.004651149462441344,"246":-0.026182011677521825,"247":0.033152477379611175,"248":0.04471470688481004,"249":0.061853529354179274,"250":-0.011000901649545203,"251":0.09484449508463125,"252":-0.015920145389059514,"253":-0.048030874913775404,"254":-0.06863559325836849,"255":0.0074182934184074106,"256":0.0310959335246491,"257":0.004462375063662619,"258":-0.025526739095152903,"259":-0.06530735934958702,"260":-0.00046904376529083145,"261":-0.09513122902514781,"262":-0.020086095513299766,"263":-0.08675099339056025,"264":-0.03121600427697512,"265":-0.056349958914874085,"266":0.004130754750659441,"267":0.03469646625952568,"268":0.02673188944634965,"269":-0.10366268895789364,"270":0.045913965470190415,"271":0.018343877144844513,"272":0.004072249531197652,"273":0.0032238210814554535,"274":0.04789674580877476,"275":-0.02419667595160802,"276":-0.020889863372020225,"277":-0.10096445992873153,"278":0.05848657342033519,"279":0.06240320714702692,"280":-0.10435751152995439,"281":-0.03843058446808782,"282":-0.04197052626193401,"283":0.038925894078217206,"284":0.08804548050440164,"285":-0.029977871801008603,"286":0.09184043184139805,"287":0.03693319798354941,"288":0.05069182959695129,"289":-0.008825240932961118,"290":0.060377862992499816,"291":-0.09706519998383886,"292":0.05636801053433799,"293":-0.006703081629208812,"294":0.03190454313861942,"295":-0.10225346009436095,"296":0.08307986165897001,"297":0.06910847780055542,"298":-0.06362315270287341,"299":0.038559123079602166,"300":-0.020946142083851812,"301":0.16402756845861458,"302":0.061019455417666145,"303":0.027426886004967194,"304":0.03825411152610461,"305":-0.07897222492580754,"306":-0.015700290197352817,"307":-0.027327378896417648,"308":0.001080040572674361,"309":-0.02840316843281906,"310":-0.030560106006580916,"311":-0.11910753131993482,"312":0.002681067812982837,"313":-0.0006789043352166543,"314":0.060849459403704086,"315":0.02435333654835641,"316":0.05569464404672179,"317":-0.006016665711904759,"318":-0.00047678743251475584,"319":0.05603004997826425,"320":0.05560062590462643,"321":-0.07625812584150397,"322":-0.029748344648511074,"323":0.027571148657348363,"324":0.010821480576059098,"325":0.059290674340578144,"326":0.007364103112725361,"327":-0.03407344003762245,"328":-0.013139623101570975,"329":0.051416203028583726,"330":-0.06201473761578575,"331":-0.03362762405812343,"332":-0.001308050210263087,"333":0.015838943768996763,"334":-0.013834777421380137,"335":0.00883261659860469,"336":-0.06243848354185275,"337":0.08341996488362577,"338":-0.06866383631111966,"339":-0.021330754037797,"340":-0.005578593025371384,"341":0.009347739636386873,"342":-0.02049262106873274,"343":0.04669103188332829,"344":-0.013768767726401388,"345":-0.0795706178751417,"346":-0.07219625673843642,"347":-0.03695416493188493,"348":-0.008980037182003922,"349":-0.016189868341789957,"350":0.07437500201878132,"351":0.0829567132830291,"352":0.016061895803749966,"353":0.0039949286162106416,"354":0.008380133691734652,"355":-0.05334394906550193,"356":0.021140517536711353,"357":-0.03081211246107243,"358":-0.008039495558836963,"359":0.012708003967673045,"360":0.010281147947464103,"361":0.021353219385819563,"362":0.05258926421673016,"363":-0.003353798497899299,"364":0.0149032121930764,"365":-0.015783119824465792,"366":0.029111176066736258,"367":-0.09103658949029438,"368":0.03729536985692153,"369":-0.07514179058210206,"370":-0.016324952743028486,"371":0.028146204541248752,"372":0.03319291825126956,"373":0.03222333074295133,"374":-0.12520688361605975,"375":-0.03754210787707747,"376":-0.008446129682048555,"377":-0.09228283432265018,"378":0.0803075185482839}},{"sx":1,"sy":1,"depth":379,"w":{"0":-0.05874696531249513,"1":-0.004232034150779599,"2":0.001515169692236663,"3":0.01219121990416127,"4":0.036872034650583384,"5":0.005776273719513516,"6":-0.06894755857055486,"7":-0.04352097859838576,"8":0.06355625313459745,"9":0.00431676535524956,"10":-0.03516945362818662,"11":0.013138279479578746,"12":0.02595708456204287,"13":0.0008193222633305401,"14":-0.020968965302601693,"15":0.014260613284560715,"16":0.13360462199103876,"17":0.08627517859842593,"18":0.045346610074851405,"19":-0.02765644109018765,"20":-0.06771953482883056,"21":0.0025827917505341883,"22":-0.06404957104731444,"23":0.041329753295294334,"24":-0.06064724335930634,"25":0.00005093678237440952,"26":0.06396228584361476,"27":0.009672987777759523,"28":0.010483369226752123,"29":-0.035173689314719356,"30":-0.01803831722302821,"31":-0.08933626291939861,"32":0.018761247133754183,"33":0.03390462382253389,"34":0.01215558109390284,"35":-0.012539348020241474,"36":-0.1307981210285924,"37":-0.03149754228304992,"38":0.06794142672832985,"39":-0.01483328573586937,"40":0.020305912896716315,"41":-0.03376353147008302,"42":-0.04200759419799503,"43":0.004588639863620169,"44":-0.019451435908879267,"45":-0.06825792667659114,"46":-0.018208277483665585,"47":-0.03964435101485939,"48":-0.006651748957675788,"49":0.010506995125529904,"50":-0.057924614843014255,"51":0.060179555137820175,"52":-0.013056462004585248,"53":-0.031029445523370596,"54":-0.030234322145153338,"55":0.020287298125921137,"56":-0.05660342008588588,"57":-0.05306095941498073,"58":0.1599728673811797,"59":-0.022986660345818505,"60":0.010406365039960773,"61":0.07529710429857062,"62":-0.015803179296286832,"63":0.0938647277547101,"64":-0.08822320960789824,"65":0.01927257283987462,"66":-0.01849118741894552,"67":-0.012239239246232707,"68":0.02702877317558082,"69":-0.013544514140642649,"70":0.05926065283743689,"71":-0.030681323467354787,"72":-0.025207039795481164,"73":-0.11161304607671312,"74":0.13182459588817874,"75":-0.08772051608490353,"76":-0.005603383857721811,"77":-0.03868871781618042,"78":-0.006687875841733922,"79":-0.04678104271075078,"80":0.025929586537870947,"81":-0.05462892321577828,"82":0.03472983291351752,"83":0.06195961090350892,"84":0.010342545487427296,"85":0.004596951998516227,"86":-0.025384351262704847,"87":0.0018293542957547298,"88":-0.036725711533495,"89":-0.056850435846520365,"90":0.022866994714239273,"91":-0.01888532886537285,"92":0.009310559116641332,"93":0.038234594535330506,"94":0.02204812999909143,"95":-0.010036084598405078,"96":0.05119402871595009,"97":0.019531400104390712,"98":-0.03954672118463775,"99":-0.05050349569178889,"100":0.04942779613928975,"101":0.02186713687194785,"102":0.05812918811767806,"103":-0.05094513686565839,"104":-0.026935744579194756,"105":-0.03867787711655097,"106":-0.0909500703059423,"107":0.05670327811526929,"108":-0.06240578255707223,"109":-0.00963719243279701,"110":0.06138528215435567,"111":-0.09511772256429625,"112":-0.016441973024718733,"113":-0.032725137753260684,"114":-0.07745417445966256,"115":0.06662210995689868,"116":-0.0004958710016044109,"117":-0.015379932358962144,"118":-0.0042486263837742495,"119":0.03451386307505783,"120":0.07034409894820105,"121":-0.010404129544215063,"122":-0.016061914088800037,"123":0.06024428534068708,"124":-0.005422081774962432,"125":-0.05408007497761784,"126":-0.035972839974859984,"127":-0.012164569032339511,"128":-0.02668094869275921,"129":0.005307227055977175,"130":0.04625746442855212,"131":-0.0376200936363043,"132":0.036580916319557615,"133":-0.02329112906604471,"134":0.0155596221059634,"135":-0.018809375782030017,"136":0.052206655396611804,"137":-0.01365092212004273,"138":-0.0019461713874267179,"139":0.06207143806795571,"140":0.033405826301420714,"141":-0.12648007565178426,"142":-0.03096054193101766,"143":0.07940678204637444,"144":-0.01625890867137906,"145":0.10233709760090443,"146":0.025524168268468643,"147":-0.04352649215133776,"148":-0.043130229977744315,"149":-0.026065795308012243,"150":0.049693763391482966,"151":0.03938439316904449,"152":-0.04721362815928882,"153":-0.020303126669203607,"154":0.06674743919409185,"155":0.0637394507331609,"156":-0.009572021863749912,"157":0.06760940163072655,"158":0.04145256129717545,"159":0.02919627127167871,"160":-0.11087135334396585,"161":-0.054790793823977404,"162":-0.022853235945779277,"163":0.041161417289920864,"164":-0.017852138483225866,"165":-0.014717756596947573,"166":-0.047436100476645086,"167":0.020453643685587365,"168":0.020312727166976647,"169":0.09170064578888606,"170":0.035263908095754276,"171":-0.061560303666040934,"172":0.031551503163325785,"173":0.009255177855860405,"174":0.005946362365287377,"175":0.04520017235158633,"176":0.01578626917267717,"177":-0.012732863102938167,"178":0.019038764571111443,"179":-0.12304401160562635,"180":0.08046785752540918,"181":0.047182073076175134,"182":-0.028319953054953204,"183":-0.02742762791881552,"184":-0.017236855965616894,"185":0.026921605102023304,"186":-0.042921557304225394,"187":0.010286402560520772,"188":-0.046975416575364554,"189":-0.04970618636346744,"190":0.016013914419733214,"191":0.010854739224842471,"192":0.02482955534448258,"193":0.031004788309207484,"194":-0.046509174878810434,"195":0.04654053941688395,"196":-0.014528187485156675,"197":0.04882514523331681,"198":-0.0144954368157339,"199":0.07534189206548411,"200":0.009793386049550119,"201":-0.041781973884607006,"202":-0.06912279483579697,"203":-0.057299559429283595,"204":0.009140138080179067,"205":0.11169920397559951,"206":0.031006940964451644,"207":0.01651267487231996,"208":0.04204058474334017,"209":-0.015636592026221814,"210":-0.03779667342690416,"211":-0.04654589706945285,"212":-0.08529371921115406,"213":0.10598677375285992,"214":0.061719987036626935,"215":0.023666011261334195,"216":-0.03378051807687692,"217":0.060122146953422106,"218":0.06522839116454586,"219":0.052491405211563244,"220":0.028487874972792974,"221":-0.02240489551327747,"222":0.08790062035415118,"223":-0.08726060525820677,"224":0.059842913235618744,"225":-0.07011416918736846,"226":-0.007033434685027264,"227":-0.02843646554401939,"228":0.03055111532298766,"229":0.002598808550565333,"230":0.06682032817306056,"231":-0.07594208380413288,"232":0.061364592030399456,"233":0.021736495858770487,"234":-0.008527394163212805,"235":-0.031761395002529946,"236":-0.0033801697029427484,"237":0.02871682811389021,"238":-0.010600265445070341,"239":0.050240599250651136,"240":-0.11632384576550288,"241":0.016281923836082166,"242":0.05812446750238322,"243":0.04260713942510251,"244":0.03326536125833528,"245":0.009731763372684638,"246":0.08126118432751658,"247":-0.018238070473332757,"248":-0.03207088737439267,"249":0.036135297577844595,"250":-0.024653336285293745,"251":-0.024774331762487934,"252":0.09109871652978654,"253":-0.03302712904494279,"254":0.034325543129561494,"255":-0.025515587871370943,"256":0.1041792945463416,"257":-0.006509850472880694,"258":-0.059453702363858905,"259":0.01600109673022417,"260":-0.07776289563393861,"261":-0.044513464561463,"262":-0.027943582184251352,"263":0.00938749496840267,"264":0.04926829189764523,"265":0.0335723983979428,"266":-0.045225852487267695,"267":0.019302519576018386,"268":-0.048624925023283624,"269":-0.03473864038711901,"270":-0.04341374661501005,"271":0.0906806458124393,"272":0.07732900042204474,"273":0.02243624987971403,"274":0.0478193081490886,"275":0.05401211904115753,"276":0.025745280944614445,"277":0.01723966062181428,"278":-0.032948278663814334,"279":0.013664543514305431,"280":0.01935375058599101,"281":0.047336770066692055,"282":0.09233990835357946,"283":-0.07208685552397052,"284":0.0854950418479356,"285":0.058326928282122006,"286":0.0782525882708418,"287":0.008823489941578565,"288":-0.08121775936301036,"289":-0.04521901072609315,"290":0.06698159777099383,"291":0.005844979285822511,"292":-0.006444367048136139,"293":-0.013085184927571549,"294":0.023335446807115218,"295":-0.03802214928287727,"296":0.08009925427359127,"297":0.00515063354641086,"298":0.043141559339753194,"299":0.04222346411228504,"300":0.04557334487434262,"301":0.05638246487414854,"302":-0.07624499662244948,"303":-0.025353548309652935,"304":0.00916487983933161,"305":-0.12539795862732053,"306":-0.06296041369513093,"307":-0.0018838307548191579,"308":0.10647030468808723,"309":0.008106716379115239,"310":-0.010102356786217546,"311":-0.010802311040649262,"312":-0.0689049454307285,"313":-0.015250819277653989,"314":0.09452629048190207,"315":0.08041054000576758,"316":-0.010257357875875433,"317":0.057448187487114256,"318":0.011812260934725885,"319":-0.04245998930441632,"320":-0.09425658917697881,"321":0.011561691313603524,"322":-0.029403658069782602,"323":0.012958169588087515,"324":-0.11395976071241813,"325":0.05318941866427986,"326":0.005560921743320858,"327":-0.06498733022793698,"328":0.025718131248057084,"329":0.007248318375828047,"330":0.060258862712869204,"331":-0.024827989983519944,"332":-0.03049143160797389,"333":0.08908076953485002,"334":-0.028919260714479294,"335":0.01799660684033144,"336":-0.006861118739350961,"337":0.019549245265674427,"338":0.07818495899295765,"339":0.037944724455815274,"340":-0.08574429555535192,"341":0.07794265468132383,"342":0.010975933775251646,"343":-0.007766114627068106,"344":0.04435377790425159,"345":0.04590632242610904,"346":-0.029618350247919704,"347":-0.034947551355884905,"348":0.027304185416137064,"349":0.029078384985840533,"350":0.036985198035758816,"351":0.05530085984295919,"352":0.03861380918883701,"353":0.008009207099952042,"354":0.0273831438264475,"355":-0.013210012640513172,"356":-0.07920478268675392,"357":0.027715309481079614,"358":-0.007870789117347551,"359":-0.015200497378290474,"360":0.012346955596317561,"361":-0.023858764323424608,"362":-0.008923890315238069,"363":0.061762562942753924,"364":-0.11068646010075914,"365":-0.029517796114911145,"366":0.04110436917588874,"367":-0.015188241818578833,"368":0.06556679865987025,"369":0.032373102407336256,"370":-0.08112231504799251,"371":0.024121269456063642,"372":0.0012505684842547653,"373":-0.0859870023653501,"374":-0.03614191275820148,"375":-0.012696758033133398,"376":0.05659258400666482,"377":0.03992343984804798,"378":-0.03349323442545022}},{"sx":1,"sy":1,"depth":379,"w":{"0":-0.09067673951874199,"1":-0.12003517691441642,"2":0.026916070232846954,"3":0.057982627381452156,"4":-0.03848732471438126,"5":0.08782515778284639,"6":-0.00025392503239424685,"7":0.009785348102123769,"8":-0.006083429255158428,"9":-0.08796748885311627,"10":-0.021654373765236802,"11":0.04191636773471923,"12":-0.00833998283434402,"13":-0.031269087222120316,"14":-0.13149571647416533,"15":-0.03224343028687822,"16":-0.06407977438503681,"17":0.06646976034912722,"18":0.05874922600671835,"19":-0.032335266060374505,"20":0.01694669134530988,"21":-0.036409352209550126,"22":0.0266354923035319,"23":-0.007517376292883125,"24":-0.01276907361149462,"25":-0.05571692364613546,"26":0.015878057149819068,"27":-0.042486157190429294,"28":0.04843479038851728,"29":0.05213122850599396,"30":0.08214007132561614,"31":0.029415678554481354,"32":0.05857793367417794,"33":-0.045626151425421604,"34":-0.04556279904837398,"35":-0.046980276143118345,"36":0.04735052495643535,"37":-0.05905672016261032,"38":-0.01986748779605289,"39":-0.02718298854338406,"40":0.004940475780502191,"41":0.0053345985432724456,"42":-0.05640932161285976,"43":0.09628274011890131,"44":-0.02612832134577681,"45":0.03818297605461528,"46":0.06946026425573829,"47":0.03602882109173382,"48":-0.07677539996441567,"49":0.027142271989798707,"50":0.0817601500179212,"51":-0.0623834237002332,"52":0.04443876445431265,"53":0.05933318083103945,"54":-0.02536137810671184,"55":-0.024720766087143946,"56":0.03940327737154024,"57":0.015526391501926223,"58":-0.009834238410636064,"59":-0.02317973223782979,"60":-0.045082061490086554,"61":0.03190848969614274,"62":0.02996432013186105,"63":0.0025246266379149187,"64":-0.00300481142279091,"65":-0.028269359423524702,"66":0.003982169764587116,"67":-0.0006833430755728244,"68":-0.046064038360086074,"69":-0.002406915704923808,"70":0.04679423823896599,"71":-0.01451928569981695,"72":-0.0706033929968349,"73":-0.1943752204266338,"74":0.0031245812403540092,"75":0.04069088428941155,"76":-0.07701315379604821,"77":-0.04127865847485665,"78":0.06918148073248545,"79":-0.06054554448165909,"80":-0.051072252529626765,"81":-0.03784184153890917,"82":0.00581027706292236,"83":-0.062060596716366476,"84":0.08459236366684077,"85":-0.0531397075118799,"86":0.02340052060167955,"87":-0.0420808201806114,"88":-0.030415524707947058,"89":0.09831147671741229,"90":-0.05035650666062742,"91":0.04485663602259872,"92":0.019715465321746863,"93":-0.053953076803097806,"94":-0.02048716262812459,"95":-0.004632817796341987,"96":0.08496970263342779,"97":0.007078020766423216,"98":-0.030865624949049122,"99":0.07573447784922932,"100":-0.012074913809265472,"101":0.0423742016673853,"102":-0.08393509696955453,"103":0.01520268483812353,"104":-0.0677804278155661,"105":-0.034929524420521024,"106":-0.022887379226369624,"107":0.04295520250775537,"108":-0.032789250813980424,"109":-0.05688055958130043,"110":-0.0324369344389059,"111":-0.11051518837283508,"112":-0.01989859590794943,"113":0.08296358040965154,"114":0.07987232036044957,"115":-0.009763292144024466,"116":0.040238754358311916,"117":0.13230353496887792,"118":-0.04427243058597132,"119":0.0221419272982363,"120":0.05578568468696134,"121":0.040913259687964554,"122":0.019522799085172956,"123":-0.05993380632337766,"124":-0.03484654058104252,"125":-0.02635910343432776,"126":0.016512701378221563,"127":-0.05515799614748718,"128":-0.10572055614710492,"129":-0.0869353132713477,"130":-0.011713172731070554,"131":-0.060978306233149815,"132":-0.08674416223103121,"133":-0.13813065777612404,"134":-0.022868527014928895,"135":0.035750751596808406,"136":-0.03165099382330683,"137":0.06580004102136797,"138":-0.00035775040183895447,"139":-0.0961010391949447,"140":0.05118914597680109,"141":-0.014047151823673954,"142":0.027337189902436,"143":0.13126659190121065,"144":0.045995308264158555,"145":0.0466375951342072,"146":-0.04274634163494137,"147":0.03478437976822181,"148":-0.0361209434760182,"149":0.08983967277149482,"150":-0.07808892709082434,"151":-0.08052366368692825,"152":0.03257011793777332,"153":-0.03976839556650587,"154":-0.03875630759076615,"155":0.04004134179202209,"156":-0.05709930849760976,"157":-0.03193871086205194,"158":0.015867561135125306,"159":0.07401661188355195,"160":-0.04801428424960891,"161":0.02713511096295935,"162":0.014020777178139395,"163":0.02844416692497622,"164":-0.03539119003140752,"165":0.02969299315657594,"166":-0.08765424615493692,"167":-0.059387202926022495,"168":-0.016791342568975177,"169":0.04324466827034233,"170":0.026687234489090564,"171":0.03902497901586964,"172":0.014839139196106715,"173":-0.006857409358819049,"174":0.008901316104580765,"175":0.01706534414891175,"176":-0.057021509495700014,"177":-0.07764081099319091,"178":-0.05409187256874648,"179":-0.032571137463138375,"180":0.021954804014470315,"181":0.022887728768163817,"182":0.038060963820502364,"183":-0.06571393359497614,"184":-0.07394309191406881,"185":-0.008883044056846307,"186":-0.029446957609933808,"187":-0.03051090933391901,"188":-0.04069949243789573,"189":-0.05426730961683484,"190":0.03177058553330105,"191":0.11317251821427131,"192":0.09057286393929852,"193":-0.02530477867230731,"194":0.0614525987198665,"195":0.03196897945941966,"196":0.02754934596003528,"197":0.04329084683081195,"198":0.08248579648571924,"199":-0.055624105091359725,"200":0.03321549665468084,"201":0.03337315537739489,"202":-0.03368304719950586,"203":-0.053073945265989166,"204":0.015061554347249536,"205":0.05881912613368123,"206":-0.0970701314536001,"207":0.015684788052233473,"208":0.06721449083426843,"209":-0.032814433633335735,"210":-0.018537331840511685,"211":-0.006580381946219649,"212":-0.02489157661855222,"213":0.054620027338787354,"214":-0.08261597482841161,"215":0.06609393072690709,"216":-0.001497934178707908,"217":0.07323876638597776,"218":0.01585855043369748,"219":0.06053288451013248,"220":-0.01698282167456122,"221":-0.03478293658918088,"222":-0.006693244041963486,"223":0.028446947243458982,"224":-0.06426436786861314,"225":-0.025509533193748827,"226":-0.056025619855181015,"227":-0.04605334085173909,"228":-0.13165473858298996,"229":0.019712102276059084,"230":0.09535885819033675,"231":-0.04278364170319464,"232":-0.019637083191771012,"233":-0.14869246054574872,"234":0.01116987090100122,"235":0.08101422427076686,"236":-0.054358267081977246,"237":-0.024860808537719624,"238":0.11513587124831351,"239":0.04635130296329521,"240":-0.05014535826786676,"241":0.015353890169228678,"242":0.05084847032251447,"243":-0.049300558359869545,"244":0.0266618141984519,"245":-0.014318380573176952,"246":-0.014013084705084347,"247":0.0457281501687296,"248":-0.03925823777306093,"249":0.028263722324155277,"250":-0.055096929198080014,"251":0.01231923609438647,"252":0.03144071765548763,"253":0.07109789611171444,"254":-0.10487005277365817,"255":-0.019679047409279126,"256":0.013568559921437715,"257":0.023293590751833012,"258":-0.06265724427474909,"259":0.055926038669569064,"260":0.04428993653568721,"261":-0.03537478159895374,"262":-0.04383714132270413,"263":-0.06145823309966483,"264":-0.011738615910462418,"265":-0.047975591670267194,"266":-0.022712101666675526,"267":0.016537945474215197,"268":0.035735161322582046,"269":0.026447011232789946,"270":0.027472580150632187,"271":-0.1128994077955667,"272":-0.05240773815595775,"273":0.10844321837395818,"274":-0.01154855130116576,"275":-0.017126387472554443,"276":-0.03354821954543658,"277":-0.0037872114857551353,"278":-0.04084341686917994,"279":0.010526155919408009,"280":0.02742633971058565,"281":0.03682335034366297,"282":-0.06204724331845053,"283":0.07310979892824619,"284":-0.003345236515511719,"285":0.09922021113077016,"286":-0.05548740512395864,"287":0.00229624330058218,"288":-0.00668046745760484,"289":0.05681275396752396,"290":-0.09032092137766652,"291":-0.037458980461160994,"292":-0.014711522076477627,"293":-0.10892674023827195,"294":0.034056515603742725,"295":0.03866278488957231,"296":0.015013749946312565,"297":0.06215612574141479,"298":-0.10008493650513482,"299":0.01669997288264,"300":0.018391055899835033,"301":0.02928617055161386,"302":-0.009286429546216,"303":0.025522570431791448,"304":0.10741278357534548,"305":-0.0551805463219272,"306":-0.03298494693722157,"307":-0.09087586934306126,"308":0.031037787887026574,"309":0.04333779114256719,"310":0.012190817365161654,"311":0.030663692826312535,"312":0.014711929335868078,"313":-0.05477877914326225,"314":-0.016919142172765026,"315":0.024502715381377133,"316":0.0185803161479782,"317":0.054303989298916486,"318":-0.06205604567522511,"319":-0.03746959616293554,"320":0.02503507769675182,"321":0.04188870174724989,"322":-0.03611692628446643,"323":0.030886645847225315,"324":-0.014672900983646084,"325":0.037400128097921384,"326":-0.03595776926585076,"327":0.0076281618264201064,"328":-0.07359305371831014,"329":-0.030727206582573687,"330":-0.05590439405789531,"331":0.027074474699259825,"332":-0.014500018179123723,"333":0.02443938857282867,"334":0.020265948964777684,"335":-0.10444271343017472,"336":-0.0570466399339041,"337":0.08667813302052674,"338":0.026272603493197606,"339":0.01268871548697316,"340":-0.1636461091572226,"341":0.023132288555242523,"342":-0.013076473766587347,"343":-0.046627415728237843,"344":-0.00850238235684809,"345":0.00819888758519385,"346":0.05149637028638945,"347":-0.016441919630297525,"348":-0.01876180237028852,"349":0.11169584013339692,"350":0.014414845892153553,"351":-0.06450682125112561,"352":-0.03252265417766252,"353":0.01060115645386698,"354":-0.04852206929347918,"355":-0.02497478208478995,"356":0.033742005987233474,"357":0.058236418332431136,"358":0.015007016481056361,"359":-0.005939315895390073,"360":-0.015980570502508562,"361":-0.004631196454683816,"362":0.06966268912011002,"363":0.05017010677605641,"364":-0.00564445614383745,"365":0.051475344316515216,"366":-0.02102513837731314,"367":-0.006139137247407792,"368":-0.01711412662633792,"369":0.0315977045380863,"370":-0.06737634371721313,"371":0.06472867269230602,"372":-0.0510656114841066,"373":0.06777361851564676,"374":-0.03569995561105389,"375":-0.04067362973524903,"376":-0.06629129153413538,"377":-0.0029958723234321328,"378":-0.07441745143660408}},{"sx":1,"sy":1,"depth":379,"w":{"0":0.011692170445502264,"1":0.02027007516730019,"2":-0.05772406323153828,"3":0.03662405399086414,"4":-0.053966258078240015,"5":0.0032609156888956897,"6":0.06916233998272353,"7":0.05355673595270754,"8":-0.023727473077887494,"9":-0.028123446073432812,"10":-0.03702591275189224,"11":-0.00038429517256275976,"12":-0.07678059726217074,"13":0.02422862942891105,"14":-0.08462080956400538,"15":-0.04108157392585215,"16":-0.03010306506613235,"17":-0.07100179124864987,"18":-0.034424222410195084,"19":0.0011663313236356684,"20":-0.015299514697377715,"21":0.05654719323020167,"22":0.01622315637050676,"23":-0.05331315896722199,"24":-0.06899238889382188,"25":-0.0781167608809801,"26":-0.0014727762112209553,"27":0.0271417324018642,"28":-0.002410405910940452,"29":0.07413152564006929,"30":-0.06967118325458437,"31":-0.041294636470059376,"32":-0.019860548655511748,"33":-0.07898168173767169,"34":-0.07961182873033082,"35":0.04151233990222031,"36":-0.03849912636786144,"37":0.04092735696466356,"38":0.002614478178965585,"39":-0.035644096255891815,"40":0.0224811422633366,"41":0.06442881552421068,"42":-0.044407276002923726,"43":-0.06478079233498256,"44":-0.04635995157287005,"45":0.06566184336840036,"46":0.12587122275070736,"47":0.06583827756940519,"48":0.022419061881775136,"49":-0.04571958386544959,"50":0.11800589697564741,"51":0.005611317093024846,"52":0.04058930090336599,"53":-0.07532370370509571,"54":0.00597949515788121,"55":0.017374525160867266,"56":0.05472413860677475,"57":-0.06593178585109807,"58":-0.08106158188426449,"59":-0.10186282819640932,"60":0.0014040877804645728,"61":-0.0036622176007699986,"62":-0.03526301006070138,"63":0.056009714515804214,"64":0.006576159100739414,"65":0.011721359955849938,"66":-0.00008129143030653389,"67":0.058788581340083114,"68":-0.05035385775058074,"69":0.051226890388748586,"70":-0.022017744537484413,"71":-0.06282725300947926,"72":-0.0533376523409778,"73":-0.036184253984818913,"74":-0.010350639543115658,"75":0.003583423018398228,"76":-0.01562952502857037,"77":0.09212026716836909,"78":0.05885666122685479,"79":-0.012111637293008971,"80":-0.06650365705907386,"81":-0.08903898851265447,"82":0.025634941318677933,"83":-0.04872306293551291,"84":0.024818360278741982,"85":-0.008016424249619462,"86":-0.0005059101646879609,"87":-0.027771167846085434,"88":0.08048817936663703,"89":-0.05456844942154549,"90":0.008862245737028419,"91":0.024768623408665043,"92":-0.04487199349466153,"93":0.016142267544887262,"94":0.002724757191846871,"95":0.013364995613376306,"96":0.01647032302553045,"97":-0.07457912214295744,"98":-0.031834536105886165,"99":-0.0536652068468336,"100":-0.024649767757886847,"101":-0.024056350902448606,"102":-0.015487622442055031,"103":0.058263832052201106,"104":-0.07869897221364307,"105":0.005205032931525023,"106":-0.008865987863106566,"107":0.03593800702991104,"108":0.016450664504306423,"109":-0.07413187756533801,"110":0.09636026713603965,"111":-0.024598866597715607,"112":-0.005141463342385001,"113":-0.04165593026293348,"114":0.010186290069972043,"115":0.018348965542658063,"116":-0.011933475134484691,"117":-0.0733514065430024,"118":0.045788519150233985,"119":-0.00816234081660829,"120":-0.009016201437220657,"121":0.006527939586496705,"122":0.006344220012562263,"123":-0.038350726698693965,"124":0.026256060655005877,"125":0.052506244050420876,"126":0.039686059854999484,"127":0.060710585923302605,"128":-0.08534737105811199,"129":-0.008212420057029898,"130":0.0007213837118070824,"131":-0.058044496853459825,"132":0.035730555060432774,"133":0.027588225516622385,"134":0.052285401735039226,"135":0.03795121886548739,"136":-0.04573121566751492,"137":-0.06133089945872058,"138":-0.08460726399861497,"139":-0.013979095020260212,"140":-0.004574175557543936,"141":-0.05960564292422335,"142":0.018054439598915697,"143":0.021817931141407457,"144":-0.055960738658661975,"145":-0.030788010688952715,"146":-0.0024638168686157602,"147":-0.0032462980832066324,"148":0.006997275768927921,"149":0.08989771812170702,"150":-0.04634996277874191,"151":0.023542613477378217,"152":-0.02026282861743268,"153":-0.018263016832902712,"154":0.14861536790746946,"155":-0.03556988287838924,"156":0.06865287625883768,"157":-0.045014002688581335,"158":-0.13209105410748895,"159":0.06043886224273569,"160":0.03287735154169697,"161":-0.024231314370494576,"162":-0.014015975242053287,"163":0.0572882802517861,"164":0.06752832858823468,"165":0.008769245749427794,"166":0.06768359161940579,"167":0.013125924439514155,"168":-0.04897080235584349,"169":0.039259186190629014,"170":-0.07374413720907085,"171":0.005281054836375573,"172":0.059955682342891684,"173":0.024326967068267275,"174":-0.06414797045574157,"175":0.03698523839158062,"176":0.0396259329746401,"177":-0.035831903606068714,"178":0.05189553274878809,"179":-0.015331670954989845,"180":0.01852626535799818,"181":-0.031072238653675154,"182":-0.08940792176082847,"183":-0.015544631185115527,"184":-0.055998970227162166,"185":0.039447144141491586,"186":-0.02928553948339029,"187":0.02071401292053524,"188":-0.0034893144408319606,"189":0.002665550277725473,"190":-0.06040928290671228,"191":0.11684243615082253,"192":-0.034150185669895916,"193":-0.012373579737519277,"194":-0.0038991383715522186,"195":-0.06959820853679645,"196":0.08752103804095016,"197":0.023804717741217944,"198":0.04817463820695181,"199":-0.05561581980360375,"200":-0.01555497252290326,"201":-0.04016901938610929,"202":-0.06587959081946801,"203":-0.029883265180709256,"204":-0.02139599624951094,"205":0.025991970388193186,"206":-0.011759506070970673,"207":0.019299336288118845,"208":0.04601137338526953,"209":0.024904242989770748,"210":0.05903021795839267,"211":0.05426443132201947,"212":-0.014052828355905803,"213":-0.009884209046120664,"214":0.043867791024828226,"215":0.00024894449594208153,"216":-0.07398438361278364,"217":-0.003701477967133389,"218":0.04648946677525257,"219":-0.06066029881069833,"220":-0.043397666280688946,"221":-0.04983685463480617,"222":-0.06723878566462249,"223":-0.016616174990409283,"224":-0.06328384453649767,"225":-0.019542736687084623,"226":-0.043442545499676244,"227":0.018739448251352868,"228":-0.0634593101351217,"229":0.10291548430221534,"230":-0.01043815811198326,"231":0.024626773811013965,"232":-0.0501707022531877,"233":0.016892079929123026,"234":-0.0876018458861761,"235":0.039973754686438816,"236":-0.02042009790747265,"237":0.012908509305420604,"238":0.057282640125658285,"239":0.03131859384884747,"240":-0.023883374006761205,"241":0.00956248985069394,"242":-0.0009080691170191082,"243":0.05896212783234108,"244":0.011193624084538617,"245":-0.0091835456173406,"246":0.04187095968319004,"247":-0.0045764157250857045,"248":-0.026038632546235365,"249":0.030485862749190802,"250":-0.1304586159033905,"251":0.03914795775470662,"252":-0.010787406836100188,"253":-0.026220210854239086,"254":-0.016439275172896565,"255":0.011152456116691379,"256":0.048624068438876324,"257":0.013556665935768621,"258":0.04080244052657114,"259":0.039656176427610185,"260":0.004999263897092614,"261":0.11356919927543155,"262":-0.06520944968873345,"263":-0.058333165580114234,"264":-0.04120435369766295,"265":-0.032282334973257706,"266":0.03409443495317104,"267":-0.002426978704310818,"268":0.017431508353654732,"269":0.07215138950235268,"270":-0.02946252082294786,"271":0.029939117747348563,"272":0.04881213586882171,"273":0.003724112764499282,"274":-0.02891158488980873,"275":0.022304942080810814,"276":-0.017237885712934168,"277":-0.028533196115074606,"278":-0.05152167094650007,"279":0.016832262407912833,"280":-0.007704343368371139,"281":-0.03615624305282572,"282":-0.044477267989818,"283":0.061648839884662424,"284":0.05875727622993129,"285":0.021575708433067692,"286":-0.0001335233361292636,"287":-0.0010295939068631092,"288":0.08575189417659052,"289":-0.024688083080528365,"290":0.03220650314357052,"291":-0.0011362609795274423,"292":0.060621759941953145,"293":-0.022289041191876403,"294":0.012240334789012158,"295":-0.0779592029872784,"296":0.09224184058370866,"297":-0.04980909242440608,"298":0.0009029475806077315,"299":0.08723673851113518,"300":-0.03791644510255279,"301":0.017361523313010663,"302":0.04702895927930065,"303":-0.0028388356990967124,"304":0.005763195954504756,"305":-0.059169346749046905,"306":0.018003528188260846,"307":-0.009066606539188816,"308":0.018503494484346263,"309":-0.025919912807266566,"310":0.10020343438551112,"311":-0.03627306584214542,"312":-0.04723775671188884,"313":0.03354811772274244,"314":-0.00901356964505495,"315":-0.027250046012701052,"316":0.0668903584281079,"317":-0.0011156561885772094,"318":0.06551055965598404,"319":0.001000858022008457,"320":-0.01933305616213225,"321":0.008345390805951411,"322":-0.11955780594822199,"323":-0.03669425693744552,"324":0.053186695495043186,"325":0.04969127496247861,"326":0.03138233388346503,"327":0.04320080926913433,"328":-0.041554470382075624,"329":-0.064092415942375,"330":-0.060401463130176976,"331":-0.0446728988135122,"332":-0.009765571431250026,"333":0.024168854453683865,"334":0.0013576601582505762,"335":0.07482324494109563,"336":0.0346847717788139,"337":-0.0562471104008992,"338":-0.06809926859245179,"339":0.008772018535056844,"340":0.06002548080672752,"341":-0.038385924480386344,"342":-0.10769020388950248,"343":-0.08530542304918245,"344":-0.03236585498568126,"345":-0.023214047608365533,"346":-0.004915934476374231,"347":-0.03295612129084769,"348":0.06826056803684226,"349":-0.02703850409696363,"350":-0.006407197623499589,"351":0.015198830139433723,"352":0.033368030561029695,"353":0.05465468112998645,"354":-0.030302761418551,"355":-0.010707055470776591,"356":0.017586215463219698,"357":0.09909597956897484,"358":0.03368539963880446,"359":0.04811575546303459,"360":-0.07989617292783334,"361":-0.06438900773747992,"362":-0.06415605971421871,"363":0.05149260103185909,"364":0.0794439522628646,"365":0.030059516662081034,"366":0.014171014509670853,"367":-0.055265398046604845,"368":-0.025476067116564208,"369":-0.0017753235037960737,"370":-0.03191396594801756,"371":-0.03450511109605225,"372":0.03143555450067044,"373":-0.025109485239715918,"374":0.13235097432146084,"375":-0.09289010209893578,"376":0.006604200001880544,"377":-0.06269749160578182,"378":0.07690805100727706}},{"sx":1,"sy":1,"depth":379,"w":{"0":0.06011121344872544,"1":-0.12648221357954276,"2":-0.007690456232890985,"3":0.05269494983069505,"4":0.0493729794536641,"5":0.005471724059009544,"6":-0.05123299705954934,"7":-0.039378741797077225,"8":-0.04116382219149421,"9":-0.03835332032304907,"10":0.028727127196873592,"11":-0.026046880094511612,"12":0.005041851490653912,"13":-0.009348900201038596,"14":0.00885485146853107,"15":-0.09037289724873754,"16":-0.045747570502912546,"17":0.035978802573112575,"18":0.00831642111590017,"19":0.05039067337168856,"20":-0.09870933376630232,"21":0.09317601584187574,"22":0.13051525632662367,"23":0.04033789669329646,"24":0.0010661576002809559,"25":-0.020587915569055804,"26":-0.04123388558396198,"27":0.035526792544720714,"28":0.012484377274681498,"29":0.0010357388425821137,"30":0.07162653409132333,"31":0.02022875570616697,"32":0.014829541096634929,"33":0.009145034222380069,"34":-0.026408263926185213,"35":0.07381061409011197,"36":-0.01546437880136054,"37":0.004942053159076056,"38":-0.05931991919956386,"39":-0.0010953573882740437,"40":-0.10429928518120085,"41":-0.02888714290139749,"42":-0.02867267834422239,"43":-0.06920680025803887,"44":-0.06803165281632183,"45":-0.10552405803337091,"46":0.054083634255319535,"47":-0.01798150897036346,"48":-0.049661995914070944,"49":0.04702018849810426,"50":0.020759906718589145,"51":0.01747507929726448,"52":-0.07923974668835185,"53":-0.002557284302160142,"54":0.0072956880825351305,"55":-0.009161346759968127,"56":0.12324615530368327,"57":-0.09362245111037377,"58":-0.026756918221674284,"59":0.10933104617767785,"60":0.007221688741756537,"61":-0.00009836961584713057,"62":-0.0038176781151195776,"63":0.03751092110864849,"64":0.08439239742584104,"65":0.0789244221525162,"66":-0.06317834371722737,"67":-0.04292906147585828,"68":-0.04705027114629418,"69":0.023659434467919755,"70":0.04508359471242476,"71":0.011258416480196813,"72":-0.051533003342667215,"73":0.021366034600309038,"74":0.0645926878827297,"75":0.03589034742957745,"76":-0.04835265814377345,"77":0.010430592880626187,"78":0.09314602855740813,"79":-0.010155318908540404,"80":0.09920159147276497,"81":0.03968621726164113,"82":0.07332759575583957,"83":-0.015233032545404052,"84":0.027392234170899993,"85":0.014579646694408598,"86":-0.017539117249069265,"87":-0.03025552976065078,"88":0.024449501833485338,"89":-0.01711404357688396,"90":0.00024984188621675357,"91":-0.012057924429748446,"92":0.08902185529766658,"93":-0.030214193203713526,"94":-0.06509635289837566,"95":-0.011101491622058458,"96":-0.05060452138840691,"97":-0.07878730683013396,"98":-0.0513127869633475,"99":0.02875956368271087,"100":-0.020486809233359316,"101":0.014115003423021707,"102":0.08979143412653044,"103":-0.07275313572237357,"104":0.03065364760990188,"105":-0.0031009102012160045,"106":-0.003979041089028256,"107":0.08905765596993545,"108":0.04156340388999504,"109":0.004527231849128696,"110":0.04004853310698601,"111":0.0011955029136939245,"112":0.011797208759718627,"113":0.03009767390964736,"114":-0.015496674638353766,"115":-0.018855997879966644,"116":0.045851672756249885,"117":0.051298228256978266,"118":-0.030516609314980268,"119":0.049539154639761,"120":-0.0052189857502595045,"121":-0.07513592345407842,"122":-0.031398989573948266,"123":-0.011452520748215705,"124":-0.1254998463115604,"125":-0.042079284249464215,"126":0.009325963779756414,"127":-0.06460491855954971,"128":0.021379228165368108,"129":0.06025161860889465,"130":0.07099038992972062,"131":-0.040699828725685505,"132":-0.007643048054471129,"133":-0.0017166760051532859,"134":-0.050761653713817925,"135":-0.010615970638052499,"136":0.024090428333090545,"137":0.09273186942447,"138":0.012468491742851126,"139":-0.0024409106846427202,"140":-0.009472922480491986,"141":-0.03330288258560508,"142":0.00681913858785547,"143":-0.0016757907390946918,"144":-0.0033053320826734586,"145":0.02525457804447572,"146":0.008013109319386268,"147":0.12217669710062685,"148":0.0015005451991277846,"149":0.01833639847325691,"150":-0.03691734471278752,"151":0.0210137682130187,"152":-0.018633368301698473,"153":-0.06607768361315719,"154":0.06086164571201764,"155":0.02028349184469144,"156":0.10266336373143685,"157":-0.012751997595784227,"158":0.004988531181544955,"159":-0.07129812889099414,"160":0.010587232675524682,"161":-0.024569311960941507,"162":0.03325239437146951,"163":-0.03593533857383892,"164":0.037740040643357654,"165":-0.05165887684026348,"166":-0.0027817684072302257,"167":0.04906468712858329,"168":0.04230215755691126,"169":-0.08614366247757774,"170":0.0624051586668943,"171":-0.03515738333989488,"172":0.05342264462863358,"173":0.029593806692463965,"174":-0.05835460704931219,"175":0.055373894582716285,"176":-0.05603767206776506,"177":-0.01750031136598412,"178":-0.07006750082704372,"179":-0.036695935723215826,"180":-0.05288179628133591,"181":-0.09966384634003468,"182":0.025139206672134776,"183":0.018059925531429197,"184":-0.009588272566702076,"185":-0.07447472171736705,"186":0.03901488218038211,"187":-0.06028505197963683,"188":0.013947919556431645,"189":-0.08321905296765753,"190":0.03037989126474059,"191":-0.007799247884624852,"192":0.056678454524746416,"193":-0.08125770359896231,"194":0.02486437515121723,"195":-0.04479433393789414,"196":-0.023769851333146894,"197":-0.04870092230850637,"198":-0.03120775240575381,"199":-0.0014678796046710225,"200":0.032252602985906716,"201":0.05285662495547102,"202":-0.07105859231224396,"203":0.015486253178134565,"204":-0.11871413098463336,"205":0.04489415095185346,"206":-0.022260414617614965,"207":0.038973623813664364,"208":-0.09977678386627233,"209":-0.050013090831072915,"210":-0.05193891305761336,"211":-0.0885084326365999,"212":0.027229438672215677,"213":-0.009941034733548989,"214":0.06667431954275836,"215":-0.0026534034477709418,"216":0.013608184101353723,"217":0.1049370615964037,"218":-0.057208200238601674,"219":-0.0021202426168311275,"220":-0.007228853548387904,"221":0.0012061115483750684,"222":-0.023047634731911206,"223":-0.016954760218968235,"224":-0.03833126487419606,"225":-0.08723458725211926,"226":-0.041860937528685235,"227":0.024095231214616805,"228":-0.03140903774504021,"229":-0.07528539243007676,"230":-0.013171897145732702,"231":0.03743671766691211,"232":0.034879432674410585,"233":-0.014379092444194299,"234":0.018908403494336035,"235":0.04991153175925887,"236":-0.08280658751080876,"237":0.07869893043345134,"238":0.02243532798985537,"239":-0.040819997830443155,"240":-0.11586331883635331,"241":0.04726174271952042,"242":0.04434803330001171,"243":-0.024663861568178697,"244":0.07465270974905794,"245":0.08288655180658155,"246":0.0016825613013880059,"247":-0.07602831537502247,"248":-0.020179162530140352,"249":-0.03346491938948827,"250":0.03547828796541213,"251":0.1040105991574197,"252":0.06697497026849537,"253":0.06519052398336023,"254":0.03818623591908845,"255":-0.11355097456723513,"256":-0.1073747520367182,"257":0.04207094044547526,"258":0.0857121878381598,"259":-0.06609285494483456,"260":-0.028372198606277203,"261":0.018053050794370997,"262":-0.05532110381676503,"263":0.009315956257314283,"264":-0.06193741965432144,"265":0.03533170268493491,"266":0.014709917686536655,"267":-0.008836006255098727,"268":0.05691581094872524,"269":0.033040935803367394,"270":-0.07228576511873613,"271":0.04573454381123971,"272":0.04870818694300887,"273":-0.025383135017580005,"274":-0.000438711094404396,"275":-0.055016364490176314,"276":-0.04732171192665595,"277":-0.06380236666753074,"278":-0.07178755047281785,"279":-0.018241749680816467,"280":-0.08598551345245817,"281":-0.09773629903908883,"282":-0.04683534063359573,"283":-0.024714776412487066,"284":1.4462342221834467e-7,"285":-0.04933121281455179,"286":0.06438710243534118,"287":0.040023923315862214,"288":0.03347069837389463,"289":0.07480066323936031,"290":0.0338883206194115,"291":-0.06693729452856163,"292":-0.07960593355292538,"293":-0.09259152639014893,"294":0.04723211883181146,"295":-0.04698696922449329,"296":0.009284185228921844,"297":-0.026037213195041566,"298":0.014201503938196375,"299":-0.017454329871658045,"300":-0.023412307669924325,"301":-0.030390697355957216,"302":0.011735271703418882,"303":0.0017296469143275037,"304":-0.08242983525132011,"305":0.009662598323394575,"306":0.022721778714979154,"307":0.10933385602495344,"308":-0.0032371538489914284,"309":0.01566269410052333,"310":-0.03144579653693473,"311":0.011289055491905765,"312":-0.0052896008369368456,"313":-0.010214189470367672,"314":0.06871247784507613,"315":0.04772335784422536,"316":-0.01661685571879601,"317":0.025967434943238665,"318":-0.010474624716058633,"319":-0.03940944334780891,"320":0.027344889454210434,"321":-0.015559084389975466,"322":-0.005198620024436918,"323":-0.0641173347460817,"324":0.05256401200446508,"325":-0.012978601086349711,"326":0.008482723322543372,"327":0.013554457719482374,"328":0.008672088955433055,"329":0.08244746085339728,"330":-0.01641592447705949,"331":-0.004219657439562782,"332":0.0705883404431758,"333":-0.05991929920765488,"334":0.000955149899235622,"335":0.019923708514487926,"336":-0.04662584971614374,"337":-0.03595318702841845,"338":-0.0014047104594725776,"339":0.05020020560448991,"340":-0.03311911037207596,"341":0.039573846335430166,"342":-0.007982441832163501,"343":0.045126674440825,"344":0.013762697270870839,"345":0.01645112159712809,"346":-0.07078500424371854,"347":0.015086298297821946,"348":0.04906197758445968,"349":-0.020972700270712196,"350":-0.04810977425393025,"351":-0.019642248024622326,"352":0.1084118330993607,"353":0.009270929970666187,"354":0.060966484237556344,"355":-0.03347287007226129,"356":0.0067993112263598525,"357":0.06157256454136089,"358":0.03785640856344694,"359":-0.08804180610937688,"360":0.015284515931035398,"361":0.022774701643232517,"362":0.07002488736306157,"363":-0.019970077595758022,"364":0.05767386660035261,"365":0.04295455087973659,"366":-0.014982829169641457,"367":0.08412290943737426,"368":0.015594621463418707,"369":-0.0013844427912749928,"370":-0.05147737162827851,"371":0.06568102359947453,"372":0.07053200936405266,"373":0.09494760505848804,"374":-0.050522498354447457,"375":-0.03839539784258958,"376":-0.05989308032424654,"377":-0.015268618123471397,"378":-0.05358019243128621}},{"sx":1,"sy":1,"depth":379,"w":{"0":0.013701224719889517,"1":-0.05394463556797446,"2":-0.05326875780313963,"3":0.007394451560186316,"4":-0.02456354276606944,"5":-0.016250392982003894,"6":0.06616211331934531,"7":-0.04751375683631647,"8":0.048902329838253746,"9":0.012080209522583783,"10":0.09594270537401946,"11":0.04558481575649267,"12":0.02798595502845288,"13":-0.019093142557525408,"14":0.01365198808548806,"15":0.04069512860126489,"16":0.05102358503021318,"17":-0.015088363860623656,"18":-0.0018492725943459675,"19":-0.030319709097352734,"20":-0.06896568240513362,"21":-0.07184698531921208,"22":0.05346753184822395,"23":0.006211688547549479,"24":0.006187893974015773,"25":0.08085471530374964,"26":-0.03181584486577644,"27":0.011305839506141247,"28":-0.15700750180827922,"29":0.00574450829858463,"30":0.014373571687932393,"31":-0.0010155628362799962,"32":0.0029058228406535556,"33":0.02533312823410262,"34":-0.02846967401973719,"35":-0.07073499876410602,"36":0.07117809448961394,"37":0.024343973055048512,"38":0.03017985204946849,"39":-0.03751802499751763,"40":0.03252459177594938,"41":-0.07044550080014962,"42":0.006935460943221601,"43":-0.09469715182053336,"44":-0.021999070335336723,"45":-0.007014825775075421,"46":0.012858258981258011,"47":-0.020735947776900215,"48":-0.036830950293787516,"49":0.025977709312939423,"50":-0.01666128826367343,"51":0.009412891061553323,"52":0.08863937216272216,"53":-0.06486970728160735,"54":-0.003151621275223987,"55":-0.003283531407559166,"56":0.06538238436696198,"57":0.01467224764277922,"58":-0.09887112452007724,"59":-0.004977185486945156,"60":0.08604164669936101,"61":-0.004232258719757141,"62":0.004340224293966915,"63":0.014921696688335605,"64":-0.07394700572815978,"65":-0.02667248047386635,"66":-0.032698798867297756,"67":-0.05630557515625947,"68":-0.009125480554555077,"69":0.034921210115283256,"70":0.012753233848370384,"71":0.07191714139965431,"72":0.021976250636201712,"73":0.00927679931230209,"74":0.01253698173056013,"75":0.010993759850228624,"76":0.0944186867544331,"77":0.03183425728330493,"78":-0.013662412887731774,"79":0.051657195704155674,"80":0.010205953459515575,"81":-0.004503558118080886,"82":-0.037620870712440205,"83":-0.016324968883942474,"84":0.0032757046800940145,"85":0.02207310694303797,"86":-0.00003657562565531409,"87":0.02309942685249911,"88":0.04165257549721959,"89":-0.09742479715997059,"90":-0.008212062477861192,"91":0.032149899481307614,"92":-0.010355877094630064,"93":-0.01819424879414244,"94":-0.045350621692054054,"95":0.006680881255100292,"96":-0.04467406765187934,"97":0.01117571237001499,"98":0.005039607934880539,"99":0.06405401324055114,"100":0.12894089552173785,"101":-0.021756386819000904,"102":0.08470780119994864,"103":0.07216407232074303,"104":-0.05248339672766288,"105":-0.09426865558296815,"106":-0.011025961592823642,"107":-0.0316383571500058,"108":0.052947260184316114,"109":0.019654070481773166,"110":-0.0707916014435615,"111":-0.00830055481475249,"112":0.05055838006775967,"113":0.02311974973187259,"114":0.01391253905436731,"115":0.026870555546166908,"116":0.06331651446449556,"117":0.050709297540890604,"118":0.10999187067589086,"119":0.03979880155975973,"120":0.09322208462713816,"121":0.05512099672048194,"122":0.052946071410984744,"123":0.040716045532220045,"124":0.0015485895398891472,"125":-0.032349422524962805,"126":0.10213059227024099,"127":0.02932912371843515,"128":0.0168594641300568,"129":-0.0396403038363166,"130":-0.05537744527563965,"131":-0.07423876663999887,"132":-0.02262681929753855,"133":0.02961294199730317,"134":-0.031076385574875753,"135":-0.08491224991894175,"136":-0.0476896464187692,"137":-0.028417376830413458,"138":-0.06367396753204528,"139":0.10777901199788631,"140":0.052492228886318534,"141":0.07595518428066438,"142":0.11980357594003331,"143":0.001687367682021982,"144":-0.06434007117752773,"145":0.0316273076570365,"146":0.009979622413239925,"147":-0.006397084414489989,"148":-0.03868307432345586,"149":0.08891998636447175,"150":0.06371634427549937,"151":0.07522940569441726,"152":-0.01561037459060823,"153":-0.02332306797920186,"154":-0.0514946780683789,"155":0.05318171766197088,"156":0.055651790424300907,"157":-0.08501765972929815,"158":-0.03551285338687668,"159":0.010085943464663431,"160":-0.03709364135255786,"161":-0.017455347845651305,"162":0.01080686446542888,"163":0.03542464946245314,"164":-0.06885809509334347,"165":-0.0569595484636182,"166":-0.04671273557256498,"167":-0.00041305211391599633,"168":0.04152829472314541,"169":-0.019314230218630997,"170":0.12915255858405375,"171":0.006879868724123258,"172":-0.03741447174399704,"173":-0.01570256497392645,"174":-0.0021599442129458923,"175":0.06921434480813392,"176":0.009887076247247077,"177":-0.02367809544258929,"178":0.025367591352112123,"179":-0.06801005563512075,"180":-0.014620031397990394,"181":0.0122079535895427,"182":-0.07625108945896515,"183":0.019473070282714743,"184":-0.02257456049933436,"185":-0.08055844354292536,"186":-0.04674194771568459,"187":0.034671145609872125,"188":-0.10961608662280639,"189":0.0014740167036918466,"190":-0.035755786610709876,"191":0.022910412730874814,"192":-0.005536431017572989,"193":-0.02757971445148027,"194":-0.05338805385071037,"195":-0.0074776407357980785,"196":0.03314933642731683,"197":-0.0026919727214091012,"198":-0.12495848964905472,"199":0.07830998014049667,"200":0.0004051187943769355,"201":-0.0315571402763511,"202":0.02937805542459367,"203":0.001459192692093534,"204":0.017356469889822857,"205":0.029092341674379324,"206":-0.012939348388485549,"207":0.03699812455565859,"208":0.011972531774867496,"209":0.039778927143075925,"210":0.04136448920426379,"211":-0.0158945238496598,"212":-0.02124886309686147,"213":-0.034056518190103226,"214":-0.013709689548253077,"215":-0.06620807171887991,"216":-0.002001015970640573,"217":0.07120619511592736,"218":0.016283907970284825,"219":-0.0010736892657973007,"220":-0.01042698936553911,"221":-0.11596337452835925,"222":-0.06805097830696247,"223":0.0206990384882037,"224":0.021080030802148358,"225":0.06335260413197705,"226":-0.06983973777652246,"227":0.06791476237104571,"228":0.037094302986784546,"229":-0.030252303943243887,"230":0.11839410428681803,"231":-0.007912060600771533,"232":-0.10517674511068793,"233":-0.0037056775325845152,"234":0.012488731660024479,"235":-0.039950327067626565,"236":-0.058590845557817156,"237":-0.03726412193712922,"238":0.03769685605069502,"239":-0.001129755020971174,"240":0.021680168036662964,"241":0.021997449431019046,"242":-0.014416618387945543,"243":-0.10276748222251252,"244":0.09172804631161074,"245":0.023493040055550606,"246":-0.00950318692915216,"247":0.03192169543677029,"248":0.012361308687624474,"249":-0.0518109495714156,"250":-0.0032236768851940183,"251":0.00616281397314056,"252":-0.005985149552562667,"253":-0.033169686626288164,"254":0.07464080335215993,"255":0.07492440853687816,"256":0.05658226874884652,"257":-0.0247370768547188,"258":0.0004454829375751585,"259":0.07275841167153642,"260":0.036922125800808475,"261":-0.028352509086422877,"262":-0.002270911449781978,"263":0.062386543203833945,"264":0.018433116349503155,"265":-0.048057278821004266,"266":-0.08474910889700804,"267":-0.08448701067711911,"268":-0.030206267211529463,"269":0.004140524690029275,"270":-0.007242231687000199,"271":-0.0666163928102202,"272":-0.02193560234793055,"273":0.025701352098859535,"274":-0.046078151610762556,"275":-0.0545609819929777,"276":-0.050006274519116496,"277":-0.03456848033821112,"278":-0.027225644916972172,"279":0.01299587606387259,"280":-0.03982471629109566,"281":-0.06634168525923533,"282":-0.032924627957669705,"283":-0.00043044357937685755,"284":-0.03425652105285536,"285":-0.010675949949756833,"286":-0.007333927933524142,"287":-0.06962905730347545,"288":-0.024190404619788712,"289":-0.11860161461751868,"290":-0.02956326134795604,"291":-0.02310265921187501,"292":0.016096201095669067,"293":0.03845638034236807,"294":-0.01085573183777187,"295":-0.035582088285960115,"296":-0.08596336019170207,"297":0.08286491994196882,"298":-0.04403866360351496,"299":-0.01722973006404057,"300":-0.06278673503949139,"301":-0.0012001957672863012,"302":0.03386600453174044,"303":0.043588063687143117,"304":-0.008887959770794472,"305":0.03559145754729676,"306":-0.011587116469063224,"307":0.02589758145664981,"308":-0.02085504281417041,"309":0.045644092152456364,"310":-0.10589095954513426,"311":0.05080629657506186,"312":0.058292594433804516,"313":-0.021245401757524995,"314":0.10859811467035829,"315":-0.03945273241394839,"316":-0.05314983331250121,"317":0.02797639613403826,"318":0.04878903133198153,"319":-0.0778504037373898,"320":-0.001699234111365389,"321":-0.051776317546447036,"322":0.12284970868886172,"323":0.025600322089728816,"324":0.0409544091504534,"325":-0.010364807278292502,"326":-0.01203865314615375,"327":0.014141707978332013,"328":-0.04921386465943482,"329":-0.07237388239448596,"330":-0.06021818287725884,"331":0.0012414120877991875,"332":0.023866039879663254,"333":0.00856909469447018,"334":-0.07494242012416005,"335":0.002312298776695832,"336":-0.019937951658529286,"337":0.04261710907367988,"338":0.005531729854636835,"339":0.037699943434095426,"340":-0.09418929066594699,"341":0.026055902619461908,"342":0.026302523947102044,"343":0.07296537391237576,"344":0.01772795388909207,"345":-0.0005084160333028325,"346":0.052833983490596245,"347":-0.010437292470257879,"348":-0.0989779569076371,"349":-0.04637366803095145,"350":0.09287113724281902,"351":-0.016451217073059004,"352":-0.04630973965402471,"353":0.08760752056595933,"354":-0.04248503606379964,"355":-0.042349624837506594,"356":-0.06468484774598621,"357":-0.056831863615929366,"358":-0.03946326069456302,"359":0.09519423981935435,"360":0.014705275899485679,"361":0.009691515415896256,"362":-0.014059675095134559,"363":-0.04096279421628833,"364":-0.15072266460127104,"365":0.07210462676132968,"366":0.02792558401864776,"367":0.016132183529382216,"368":-0.03013363957404066,"369":0.03151225885315034,"370":0.05394991392655367,"371":-0.03227428360024638,"372":0.09238440733589641,"373":-0.007551429559902582,"374":-0.04462706740622302,"375":-0.06154276791845111,"376":-0.0928794054724657,"377":-0.12041211370066772,"378":-0.019284435070727777}},{"sx":1,"sy":1,"depth":379,"w":{"0":0.039029341102400264,"1":-0.04712492423010817,"2":0.05913573842721822,"3":-0.07114849676431426,"4":-0.08368526825544984,"5":-0.06640068991177284,"6":0.07445738530359985,"7":-0.0391578257862831,"8":0.015087398413359094,"9":0.006590026137757486,"10":0.055955026077325117,"11":-0.045283833138956696,"12":-0.031033914354549212,"13":0.13270201075897406,"14":0.08746234304665514,"15":0.02878018880749255,"16":0.05899307524510352,"17":0.0466439711202771,"18":0.05000181687392027,"19":0.015018687825361065,"20":-0.10159737511212728,"21":-0.09765005095383564,"22":0.027081100246162768,"23":-0.0785454097424841,"24":0.04890129430289721,"25":-0.016018241109501306,"26":0.03809142871514415,"27":-0.03882992937046138,"28":-0.05156216341263334,"29":0.010781523645690017,"30":-0.07082305815432696,"31":0.0989304536515418,"32":0.05406894128489198,"33":0.035772980819001696,"34":-0.029748668076190775,"35":-0.06550355141236425,"36":-0.01536907576440474,"37":-0.023364500208032064,"38":-0.07466825856037576,"39":-0.06651844446121244,"40":-0.04376673307343332,"41":0.007423783023918125,"42":-0.08032450747759236,"43":0.06015101129973662,"44":-0.02089245046985679,"45":0.04334496513146723,"46":0.08886749657682158,"47":-0.06936547183960366,"48":0.027500055457772777,"49":-0.007860932146491514,"50":-0.05560786614496448,"51":0.018110983465655376,"52":-0.013876349412466769,"53":0.04646043224111447,"54":0.1153546374037205,"55":-0.07212574740021814,"56":-0.025509365335460936,"57":0.07584317571864486,"58":-0.08976898474564537,"59":0.03179939717117271,"60":0.06753943664329219,"61":-0.022762319019836344,"62":-0.031171324922972563,"63":0.08400974830792508,"64":0.09765991552185305,"65":0.03210440523703676,"66":0.038551551903739004,"67":-0.00013235634871105488,"68":-0.011662525999286686,"69":0.05418942781672822,"70":-0.010994489375654155,"71":0.037482590798230075,"72":-0.007093544168987469,"73":-0.0899110003730183,"74":0.002535765245152834,"75":-0.01109608441002929,"76":0.01762971670123668,"77":-0.08509913171411326,"78":0.02228484294113833,"79":-0.046786944443860695,"80":-0.007849989252945654,"81":0.0200502235008413,"82":0.10988328032329878,"83":-0.008513860613631881,"84":0.0033007646571267123,"85":-0.025194507360666463,"86":-0.0023865183608872244,"87":-0.023952237298635614,"88":0.13399621643791057,"89":-0.04519940496129238,"90":0.037481398028914634,"91":-0.0600144168030966,"92":-0.0011796757735151552,"93":-0.03549785375601705,"94":-0.06267505096579606,"95":0.02510905127495439,"96":0.08427449082793838,"97":0.02792791346937426,"98":0.05716461755705519,"99":0.040779980109545526,"100":-0.017756497606454938,"101":0.005104282731814783,"102":0.0064920647355627215,"103":-0.007706359639722485,"104":-0.03198848661633756,"105":-0.09917530303593247,"106":0.03662586016532075,"107":-0.05128774375198786,"108":0.14880129475262502,"109":-0.06782616641886652,"110":0.020227280585398917,"111":-0.024170956693712865,"112":0.0001730436378976749,"113":0.004549500536909426,"114":-0.03690239959139617,"115":0.010253436104265198,"116":-0.08469940138453791,"117":-0.053149475857229386,"118":0.013203528561467842,"119":-0.043060812814226856,"120":0.0750782862499722,"121":0.05843229064188226,"122":0.06355614713889371,"123":0.027688756818363372,"124":0.0598073731152021,"125":0.025811792547137804,"126":-0.020334762506941665,"127":-0.0032667117619406927,"128":0.03883923183299407,"129":0.025043994609387478,"130":0.09912705818937355,"131":-0.02242573078031151,"132":0.10650258763590846,"133":-0.06792349423659148,"134":-0.1305230787027161,"135":0.10241941596740937,"136":0.03343937939550767,"137":0.02713614485939605,"138":0.04449877103330415,"139":-0.04399879146325974,"140":0.04604245024363529,"141":0.038703770206329584,"142":0.0016496391234865466,"143":-0.023151741457772955,"144":0.0005893340815900046,"145":0.021154120763307978,"146":-0.02642597471216851,"147":-0.022250107980679213,"148":-0.10358533966711128,"149":0.05156715131556448,"150":0.07073456615245902,"151":-0.01566079728137624,"152":0.04517568725913678,"153":0.009175176153323472,"154":-0.10239770870867278,"155":0.041404103399056695,"156":0.023593995461850672,"157":0.05524993762904956,"158":0.029286774333514606,"159":0.01995098250949524,"160":0.0008004659340372772,"161":0.045568303540692,"162":0.034456034013048635,"163":-0.073147568102409,"164":0.03739112257080918,"165":0.06433633799295385,"166":0.03282690918216728,"167":0.01132328065474656,"168":0.11241186561096402,"169":-0.026044296420230706,"170":0.05652848621015471,"171":0.005847205952550423,"172":-0.007471109414328739,"173":0.07823209586413604,"174":0.028730284834248086,"175":-0.03236513492086331,"176":0.058081447139470097,"177":0.051036628730433194,"178":-0.01676550976934708,"179":0.01761927875446065,"180":-0.03516004705752382,"181":0.07235723372263814,"182":0.01258544250995251,"183":-0.0748401278138264,"184":0.024906102668962784,"185":0.061083056886611274,"186":-0.004291027963737411,"187":0.06823068702408903,"188":0.04741138444764183,"189":0.05320620547791399,"190":-0.07763360079859125,"191":-0.03485535605350255,"192":0.02066796261034839,"193":-0.01763355707021365,"194":-0.006023013003670645,"195":0.012122291677726361,"196":-0.023704794653162907,"197":-0.01743118959524402,"198":0.029578710529399664,"199":-0.025690624744191044,"200":-0.029848567409772927,"201":0.06148673145819874,"202":0.00426866234815671,"203":-0.0337692284355331,"204":0.05355541387075717,"205":0.04492725158859581,"206":0.021151846753445197,"207":-0.004391544993343128,"208":-0.0017052278020929052,"209":0.0176133501606135,"210":0.06004939532591768,"211":0.156722445922627,"212":-0.03661969637761827,"213":0.048117365110329345,"214":-0.09114710318691975,"215":0.08760206191520958,"216":-0.04680987231202726,"217":0.022116992605842035,"218":0.027179910172075862,"219":0.026444934981521666,"220":-0.13344498551026376,"221":-0.01019466002539528,"222":-0.026395080979822978,"223":-0.014428138636992856,"224":-0.033165187970285566,"225":0.04793704842302528,"226":0.07027638266853982,"227":-0.06505410378741067,"228":0.01634432600303162,"229":-0.03658667330061246,"230":0.021280160856751426,"231":0.006136502280680728,"232":-0.02591395216076886,"233":0.09444617118170419,"234":-0.009839213645389087,"235":-0.01838205454602194,"236":-0.06330745652783858,"237":0.02855551774683929,"238":-0.09740806204421022,"239":0.004113930725019716,"240":-0.04569706565107555,"241":0.060188605250868034,"242":0.02908721781408758,"243":0.02499629464241075,"244":0.0698585271465654,"245":-0.03481087513468281,"246":-0.019555102262608946,"247":0.03230010817095531,"248":0.02202692148294201,"249":0.03809972834787706,"250":-0.043487059600779275,"251":0.035186242368612286,"252":-0.07901502835878098,"253":-0.08340373969110743,"254":0.04261563178276201,"255":-0.017426061667241827,"256":-0.01790257695156819,"257":-0.055715604721002614,"258":-0.005020709662200532,"259":0.00026266165242937303,"260":-0.07431633976899144,"261":-0.08459140863433383,"262":0.023033590139969907,